tree
version=v4
num_class=1
num_tree_per_iteration=1
label_index=0
max_feature_idx=27
objective=regression
feature_names=precio_total_lag_1 precio_total_lag_2 precio_total_lag_3 precio_total_lag_4 precio_total_lag_5 precio_total_lag_6 precio_total_lag_7 precio_total_lag_8 precio_total_lag_9 precio_total_lag_10 precio_total_lag_11 precio_total_lag_12 precio_total_lag_13 precio_total_lag_14 precio_total_lag_15 precio_total_lag_16 precio_total_lag_17 precio_total_lag_18 precio_total_lag_19 precio_total_lag_20 precio_total_lag_21 precio_total_lag_22 precio_total_lag_23 precio_total_lag_24 mes marca_id_encoded año cluster_id
feature_infos=[0:1432.7740000000001] [0:1432.7740000000001] [0:1432.7740000000001] [0:1432.7740000000001] [0:1432.7740000000001] [0:1432.7740000000001] [0:1432.7740000000001] [0:1432.7740000000001] [0:1432.7740000000001] [0:1432.7740000000001] [0:1432.7740000000001] [0:1432.7740000000001] [0:1432.7740000000001] [0:1301.47] [0:1301.47] [0:1301.47] [0:1300.6900000000001] [0:1009.4313599999999] [0:1009.4313599999999] [0:1009.4313599999999] [0:828.80000000000007] [0:828.80000000000007] [0:828.80000000000007] [0:828.80000000000007] -1:0:1:2:3:4:5:6:7:8:9:10:11 -1:135:12:6:100:7:15:131:3:58:74:23:30:42:67:104:134:18:13:22:107:33:76:16:37:46:62:21:96:11:72:1:102:34:83:0:49:65:114:20:43:32:36:84:106:120:2:9:28:77:99:35:59:66:78:115:38:40:68:81:98:51:64:79:80:27:50:52:57:61:97:110:111:8:10:24:54:88:133:95:132:5:17:41:45:47:63:69:70:71:85:90:93:103:122:4:14:19:25:26:29:31:39:44:48:53:55:56:60:73:75:82:86:87:89:91:92:101:105:108:118:124:94:109:113:117:119:121:123:125:112:116:128:127:130:129 [2022:2023] none
tree_sizes=3429 2677 2683 2829 3014 2980 2505 3199 2944 3434 4047 3106 3180 3654 3222 2965 2691 2377 2634 3711 3173 3474 2944 3252 2684 2381 2674 3578 3423 3131 3284 2740 2642 2838 2832 2363 3854 3725 3321 3049 3355 3141 2607 3289 3340 3394 3376 3122 2951 3526 3048 2467 3136 2888 2453 3010 2697 3325 3159 2857 3106 3280 2460 3357 3101 3151 2693 3004 3269 3520 2969 2802 2749 2840 2754 2896 2590 3194 2373 2841 2607 2931 2650 2515 2564 2783 2465 2302 2438 2546 2600 2445 2507 3054 2566 3193 3255 3442 3501 3400 3427 3341 2701 3316 3174 2482 3209 2863 2317 2776 2206 1944 2441 2029 1963 1910 2950 2000 2155 1983 2177 1895 1953 2224 1974 2095 2558 1757 1611 1778 3332 3040 2722 3313 2185 2514 2585 2302 2296 2793 1860 1917 2481 1874 2006 2907 2889 2838 2229 2505 1482 1501 1862 2653 1866 1292 1165 1885 1778 1279 1769 1762 1944 1898 1876 1192 1490 1187 2243 1221 2427 2422 2152 1784 2614 1458 1851 2257 1915 1806 2130 1743 1864 2234 1750 1286 1690 1397 1294 1409 2207 2188 2670 2861 2199 1273 1144 1213 2320 1128 1956 1714 1903 1797 1953 1824 1282 1155 1826 1282 2511 2255 2025 2373 2743 1536 1204 1107 1361 1630 1620 1569 1901 1648 1245 1542 1405 1285 1398 1599 1532 1647 1331 2001 1334 1656 1268 1268 1229 1808 2168 1757 2509 1922 2122 1558 1454 1407 1458 1359 971 1693 2179 2036 843 1366 1437 1475 1440 1118 1241 2038 1236 1238 1647 1188 1237 1081 1238 1084 1429 1162 1394 1560 1400 1251 1294 1214 1255 1365 1200 1553 1262 1439 1253 917 920 1043 997 918 1076 1301 1485 1244 1082 1896 1246 1347 1421 1006 1116 1033 994 1114 1113 1324 1626 1164 1525 1355 1429 1001 1153 1485 1083 1080 1041 1118 1004 1005 1196 1281 1115 1279 1141 1124 1126 1376 1695 1124 1208 1249 1329 1323 1216 1218 1214 1080 1082 1571 1156 1285 1080 919 1156 1299 1725 1344 1372 1349 1117 1002 1086 1042 1165 1007 1454 1169 1171 1357 925 1000 999 1005 1255 918 1004 924 922 923 1658 1225 1452 1444 1155 1381 1378 1381 1035 1204 1436 1401 1115 1406 2235 1369 1251 1220 1328 1248 1350 1000 1553 1729 1244 1592 1271 1002 1689 1666 1314 1155 1367 1237 1136 1257 1394 1435 1394 1310 1789 1447 1366 1451 1444 1226 1361 842 1266 1252 1038 1039 1111 1001 924 1158 1212 1083 1886 2042 1763 999 1771 1858 1693 1158 916 1073 1310 1309 1007 1116 1110 1128 1080 1138 1213 1202 1202 1528 1250 1333 1614 1087 1321 1359 1316 2075 2154 1162 1404 1318 1080 1080 1079 1313 998 1568 1486 1387 1151 1069 1261 1312 1238 1320 1050 1293 1289 1008 1289 1369 2165 1328 1164 1120 1165 1119 1034 1199 1570 1487 1007 1167 922 1297 1006 1691 1293 1601 1077 1306 1684 1400 1846 1207 1116 1282 1448 1203 1462 1246 1364 845 1287 1484 1200 1246 1370 1489 1484 1328 1245 1322 1317 1170 1090 1009 1629 1202 1369 1002 1000 1608 1614 1005 1665 1170 1165 1322 1277 1199 997 1252 1280 1033 1153 952 1033 1437 1151 922 1413 845 843 1075 1284 1071 990 1066 1414 1013 1002 1334 1735 1238 1236 1080 1943 1081 1193 1192 1372 1418 1075 1727 1085 964 917 1085 1317 1249 1237 1670 1265 1302 2129 1271 1658 1480 1353 994 990 1043 1158 1566 1548 1642 1162 1552 1285 1277 1289 1127 1211 1449 1251 1687 1692 1240 1413 1402 1212 1249 1406 1295 1130 1336 1244 1375 1198 1604 1040 1495 1601 995 1186 953 1200 1193 1769 1086 1446 1419 1699 1294 964 1047 1081 998 1155 1157 1146 1154 1158 1523 1434 1485 1682 1599 1391 1397 1741 1187 921 1209 1062 1119 1201 1111 1207 1210 1204 1219 1209 1446 1440 1586 1524 1445 1120 2404 2328 1360 2395 1246 911 1227 1304 1325 1047 1194 952 1464 959 1537 1709 1637 1779 1657 1164 1163 1161 1285 1147 1163 1160 1078 1517 1366 1571 2136 2448 2130 2133 1444 1198 1445 1279 1111 1440 1090 1279 1428 1353 1287 1165 1176 1367 1370 1075 1223 1080 1225 1168 1193 1164 999 1290 1002 1274 1279 1524 918 1113 1087 1357 1362 1758 1359 1076 983 1074 995 1785 1196 1111 1158 914 1108 1491 1602 1231 1579 1410 1070 1500 907 1079 1197 1242 1599 1597 1434 2733 1092 1348 1709 1519 1080 1380 1301 1380 1387 1373 1033 1196 1377 992 1249 961 1152 918 1388 963 1525 2020 1937 2015 1919 1268 1249 1380 1462 1218 1006 998 1008 1002 1002 1776 1851 1797 1820 1812 1152 1234 1233 1196 1237 1527 1198 1266 1204 1280 1608 1765 1106 1526 1486 1433 1323 1364 1245 1240 1438 1434 1205 1438 1112 1532 1242 1239 1246 1160 1367 1172 1175 1133 1161 851 1005 1006 1082 924 1114 1442 1347 1684 1604 1480 1068 1227 1067 1486 1002 1194 1035 1192 1123 1699 1396 1643 1870 1772 1606 1517 1405 1322 1318 1467 1496 1402 1503 1201 1168 1529 1446 1136 1303 1208 1246 1369 1240 1290 1095 1138 973 1052 1340 848 850 1514 848 1385 1573 1442 1166 1624 1687 1661 1754 1659 1741 2385 1312 1536 1153 1246 1206 998 1285 1203 1038 1077 1575 1082 1275 1455 2007 1090 1174 1087 1007 1167 1363 1338 1359 1365 1339 1604 1611 1360 1007 1234 1666 2258 1663 1159 1664 1378 1651 1376 1379 1381 1576 1162 1248 1573 1334 1323 1155 1324 1441 1164 1246 1253 1177 1205 1375 1129 1216 1056 1257 1416 1503 1587 1594 1587 1437 1569 1373 1814 1777 1406 1290 1190 1155 1289 1618 1733 1442 1354 1574 1589 2030 1253 1252 1252 1416 1589 1506 1604 1754 1359 1230 1230 1278 921 924

Tree=0
num_leaves=39
num_cat=8
split_feature=2 4 25 3 0 4 3 14 2 0 0 3 4 13 7 25 11 11 26 6 2 25 11 0 25 6 2 26 8 25 3 25 25 16 26 3 25 4
split_gain=2.91936e+06 1.47689e+06 1.23044e+06 499970 448321 308843 502067 259634 225482 190072 166954 124627 196653 112848 105949 102037 91931.5 76310.3 68226.3 64028.5 60586.1 56839.5 54888 51537.6 41709.5 35301.3 33540.1 31828.9 31208.6 28080.1 25269.9 19364.5 18620.2 25532.5 10580.5 5716.46 4034.95 1327.8
threshold=183.29500000000004 268.38500000000005 0 198.21500000000003 27.426188000000007 85.467500000000015 109.20200000000001 109.92975000000003 494.83500000000009 36.357400000000005 123.79725000000002 85.220000000000013 59.017500000000005 48.180000000000014 108.27000000000001 1 18.2925 208.80200000000002 2022.5000000000002 13.207200000000002 66.497500000000016 2 27.355950000000004 21.681940000000001 3 26.842500000000005 7.7359 2022.5000000000002 14.376250000000002 4 58.311000000000007 5 6 53.890000000000008 2022.5000000000002 212.02500000000003 7 268.38500000000005
decision_type=2 2 9 2 2 2 2 2 2 2 2 2 2 2 2 9 2 2 2 2 2 9 2 2 9 2 2 2 2 9 2 9 9 2 2 2 9 2
left_child=2 3 4 8 11 9 16 14 10 15 19 17 26 20 18 22 23 21 25 34 24 27 31 37 -11 -6 35 -1 -24 -23 -20 -4 33 -17 -2 -13 -34 -7
right_child=1 -3 5 -5 7 6 -8 -9 -10 13 -12 12 -14 -15 -16 32 -18 -19 30 -21 -22 29 28 -25 -26 -27 -28 -29 -30 -31 -32 -33 36 -35 -36 -37 -38 -39
leaf_value=6.7764653182052941 6.8671032276200856 10.068299747959204 6.6572705569899435 8.794351490250655 7.2588954035160587 6.5698044422439157 8.295080194981324 8.1831660736714085 8.115952890427339 6.7430442061302136 7.8595550676726154 6.8190815014992427 7.9545654677181012 7.2645175099798607 7.7260077243163465 6.5354359113120184 7.3826683980141361 7.3371473277722075 6.7504350772135719 7.378647681108542 7.0706068004284575 6.5518950087425827 6.6656478636098973 7.1307628923569393 6.5655077807519087 6.8094011920945974 7.1883866756274575 7.0548632147273453 6.9608698243401479 6.7051591713343335 7.1336457756455829 6.5633193733389312 6.5251624646691084 6.8932719255600645 6.6307949074421604 6.6052319071922971 6.5116995761202627 6.6587064064655976
leaf_weight=88 36 25 221 24 104 105 24 24 24 248 21 25 21 35 24 6647 20 20 79 20 37 141 133 20 281 21 21 77 49 1022 22 4353 3539 20 40 25 8656 20
leaf_count=88 36 25 221 24 104 105 24 24 24 248 21 25 21 35 24 6647 20 20 79 20 37 141 133 20 281 21 21 77 49 1022 22 4353 3539 20 40 25 8656 20
internal_value=6.56698 7.80329 6.55924 7.46011 6.81744 6.54101 6.94367 7.18966 7.23301 6.53786 7.05189 6.74835 7.10445 6.71348 7.09429 6.53339 6.7471 6.72405 7.0272 6.87521 6.6794 6.71481 6.57481 6.65944 6.65204 7.18338 6.85301 6.88699 6.74513 6.68661 6.83391 6.56805 6.52297 6.53656 6.74273 6.71216 6.51557 6.58403
internal_weight=0 190 26122 165 1714 24408 189 274 141 24219 117 1440 92 601 250 23618 165 1348 226 96 566 1328 4756 145 529 125 71 165 182 1163 101 4574 18862 6667 76 50 12195 125
internal_count=26312 190 26122 165 1714 24408 189 274 141 24219 117 1440 92 601 250 23618 165 1348 226 96 566 1328 4756 145 529 125 71 165 182 1163 101 4574 18862 6667 76 50 12195 125
cat_boundaries=0 4 9 13 18 22 26 31 36
cat_threshold=4096 768 33554432 16777731 34277472 542119946 3036676224 545333296 144 0 768 33554432 512 65600 67108866 0 16 136 0 0 0 16777216 33554432 4194304 822083712 73728 608208387 243269632 1210058514 304878912 8 1327116 2432696480 12978184 206700544 64
is_linear=0
shrinkage=1


Tree=1
num_leaves=30
num_cat=3
split_feature=1 4 25 0 2 2 0 0 1 0 4 9 25 11 20 11 6 24 11 11 1 1 1 3 9 0 4 1 2
split_gain=3.3307e+06 2.28047e+06 1.28681e+06 605146 472823 448612 302858 238953 292371 216159 186624 121107 103500 102730 108850 91245.4 69931.8 63784 63770.4 57133.7 40501.4 32737.9 28488.7 26429.3 25845.5 22610.2 20753.6 19163.5 18796.3
threshold=267.30000000000007 97.970000000000013 0 62.280000000000008 384.92975000000007 204.84585000000001 27.426188000000007 42.542500000000011 88.498500000000007 5.5810000000000013 21.681940000000001 119.54750000000003 1 208.80200000000002 10.960000000000003 66.968000000000004 23.889000000000003 2 89.549999999999997 27.355950000000004 59.776500000000013 127.7513 76.125000000000014 13.121500000000001 24.192460000000004 59.776500000000013 149.88200000000003 391.78750000000008 293.33836000000008
decision_type=2 2 9 2 2 2 2 2 2 2 2 2 9 2 2 2 2 1 2 2 2 2 2 2 2 2 2 2 2
left_child=2 3 4 27 6 7 13 12 15 28 20 16 19 14 17 23 -12 -1 26 22 25 -22 -4 -9 -21 -8 -14 -2 -7
right_child=1 -3 5 -5 -6 9 10 8 -10 -11 11 -13 18 -15 -16 -17 -18 -19 -20 24 21 -23 -24 -25 -26 -27 -28 -29 -30
leaf_value=0.054093055218771884 0.069583982185081203 3.933441884300926 -0.00083614054523823442 2.2486375577109201 1.5222651634545161 0.65272686844780337 0.52076574986980806 0.057674252359833388 1.1091707277297973 1.6499057679176332 0.42897200559958437 1.5942242307662964 -0.043479662784343003 0.82492143690586095 0.86310300458561284 0.7247270959615707 1.0597250604629518 0.20129559565777494 0.40364563345909121 0.11357188102294659 0.91073999995277033 0.35235874062492734 0.18289225883955179 0.25139018708883332 0.3856204978020295 0.21755595766696609 0.27882039737701414 0.43680932712554937 0.26264890289306642
leaf_weight=465 27 33 4524 21 29 21 31 389 32 20 39 20 18989 24 22 24 32 934 32 145 21 21 86 86 46 119 20 30 30
leaf_count=465 27 33 4524 21 29 21 31 389 32 20 39 20 18989 24 22 24 32 934 32 145 21 21 86 86 46 119 20 30 30
internal_value=0 1.7298 -0.00609634 0.797493 0.254518 -0.0249228 0.234715 -0.0272452 0.182565 0.768801 0.533864 0.906875 -0.031918 0.176127 0.165169 0.123143 0.713255 0.154194 -0.0423674 0.00959312 0.357073 0.631549 0.00259133 0.092747 0.179091 0.280219 -0.0431406 0.26286 0.423269
internal_weight=0 111 26201 78 1757 24444 1728 24373 531 71 283 91 23842 1445 1421 499 71 1399 19041 4801 192 42 4610 475 191 150 19009 57 51
internal_count=26312 111 26201 78 1757 24444 1728 24373 531 71 283 91 23842 1445 1421 499 71 1399 19041 4801 192 42 4610 475 191 150 19009 57 51
cat_boundaries=0 4 9 10
cat_threshold=4096 768 33554432 16777731 34277472 541071370 2969567360 612442160 144 3336
is_linear=0
shrinkage=0.01


Tree=2
num_leaves=30
num_cat=3
split_feature=1 4 25 0 2 2 0 0 1 0 4 9 25 11 20 11 6 24 11 11 1 1 1 3 9 6 4 1 2
split_gain=3.26442e+06 2.23508e+06 1.26133e+06 593104 463403 439685 296801 234198 286553 211858 182911 118697 101440 100681 106678 89429.6 68540.2 62522.8 62501.3 55996.8 39695.4 32086.4 27921.8 25903.3 25331.2 22638.7 20340.6 18782.2 18422.3
threshold=267.30000000000007 97.970000000000013 0 62.280000000000008 384.92975000000007 204.84585000000001 27.426188000000007 42.542500000000011 88.498500000000007 5.5810000000000013 21.681940000000001 119.54750000000003 1 208.80200000000002 10.960000000000003 66.968000000000004 23.889000000000003 2 89.549999999999997 27.355950000000004 59.776500000000013 127.7513 76.125000000000014 13.121500000000001 24.192460000000004 22.317000000000004 149.88200000000003 391.78750000000008 293.33836000000008
decision_type=2 2 9 2 2 2 2 2 2 2 2 2 9 2 2 2 2 1 2 2 2 2 2 2 2 2 2 2 2
left_child=2 3 4 27 6 7 13 12 15 28 20 16 19 14 17 23 -12 -1 26 22 25 -22 -4 -9 -21 -8 -14 -2 -7
right_child=1 -3 5 -5 -6 9 10 8 -10 -11 11 -13 18 -15 -16 -17 -18 -19 -20 24 21 -23 -24 -25 -26 -27 -28 -29 -30
leaf_value=0.053563512781419256 0.068888144316496674 3.8941075634233879 -0.00082778117351833434 2.2261511925288611 1.5070425168399155 0.6461995810554142 0.33235788178443915 0.057097511558690535 1.0980790464580059 1.633406717300415 0.42468228810872788 1.5782819805145263 -0.043044865432091045 0.8166722142696381 0.85447196917100388 0.71747981985410048 1.0491278275847435 0.19930396556538546 0.39960916981101036 0.11243616830069444 0.90163261072976253 0.34883515971047535 0.18106333686861881 0.24887628627377886 0.38176429371470988 0.0027133307695388791 0.27603218603134155 0.43244122378031413 0.26002241802215575
leaf_weight=465 27 33 4524 21 29 21 125 389 32 20 39 20 18989 24 22 24 32 934 32 145 21 21 86 86 46 25 20 30 30
leaf_count=465 27 33 4524 21 29 21 125 389 32 20 39 20 18989 24 22 24 32 934 32 145 21 21 86 86 46 25 20 30 30
internal_value=0 1.7125 -0.0060344 0.789518 0.251987 -0.0246736 0.232382 -0.0269728 0.180739 0.761113 0.528526 0.897806 -0.0315989 0.174383 0.163536 0.121911 0.706123 0.15267 -0.0419438 0.00949719 0.353502 0.625234 0.00256542 0.0918196 0.177301 0.277417 -0.0427092 0.260232 0.419037
internal_weight=0 111 26201 78 1757 24444 1728 24373 531 71 283 91 23842 1445 1421 499 71 1399 19041 4801 192 42 4610 475 191 150 19009 57 51
internal_count=26312 111 26201 78 1757 24444 1728 24373 531 71 283 91 23842 1445 1421 499 71 1399 19041 4801 192 42 4610 475 191 150 19009 57 51
cat_boundaries=0 4 9 10
cat_threshold=4096 768 33554432 16777731 34277472 541071370 2969567360 612442160 144 3336
is_linear=0
shrinkage=0.01


Tree=3
num_leaves=32
num_cat=4
split_feature=1 4 25 0 2 2 0 0 1 0 4 9 25 20 24 6 6 3 25 4 9 1 4 5 1 2 0 0 1 1 2
split_gain=3.19945e+06 2.19061e+06 1.23636e+06 581301 454171 430935 290866 229537 280850 207642 179271 116335 99476.2 87539.6 67810.3 67378.1 67176.2 59762 59397.9 59327.8 48181.6 38905.5 33940.3 32943.5 31447.9 27933.1 22873.3 22196.5 19924.4 18408.4 18055.7
threshold=267.30000000000007 97.970000000000013 0 62.280000000000008 384.92975000000007 204.84585000000001 27.426188000000007 42.542500000000011 88.498500000000007 5.5810000000000013 21.681940000000001 119.54750000000003 1 10.960000000000003 2 159.11250000000004 23.889000000000003 7.7359 3 149.88200000000003 27.355950000000004 59.776500000000013 50.00500000000001 88.215000000000018 127.7513 67.461000000000013 144.39125000000004 59.776500000000013 58.977750000000007 391.78750000000008 293.33836000000008
decision_type=2 2 9 2 2 2 2 2 2 2 2 2 9 2 1 2 2 2 9 2 2 2 2 2 2 2 2 2 2 2 2
left_child=2 3 4 29 6 7 13 12 17 30 21 16 20 14 15 -1 -12 26 -16 23 28 27 -22 -14 -23 -19 -9 -8 -4 -2 -7
right_child=1 -3 5 -5 -6 9 10 8 -10 -11 11 -13 19 -15 18 -17 -18 25 -20 -21 22 24 -24 -25 -26 -27 -28 -29 -30 -31 -32
leaf_value=0.055625067591033084 0.068199259616710528 3.8551664473793723 -0.00091943861923301715 2.2038896637871153 1.4919720876627955 0.63973759310586109 0.51297887402196085 0.026645532951981112 1.08709825694561 1.6170726227760315 0.42043546604804505 1.5624991822242738 -0.042794202751434487 0.72635672773633686 0.18174010028803719 0.64624918413162236 1.0386365354061127 0.25356551549013923 0.4480772099750383 0.48964638573782787 0.11257757312563993 0.89261627333504823 0.51942469959673676 0.23430990169214649 0.3453468061628796 0.66893011581897743 0.21879435192454946 0.212555440832086 0.12757964884081197 0.42811681954065961 0.25742220036188762
leaf_weight=564 27 33 4488 21 29 21 31 317 32 20 39 20 18954 28 731 20 32 85 102 21 189 21 23 43 21 20 77 119 124 30 30
leaf_count=564 27 33 4488 21 29 21 31 317 32 20 39 20 18954 28 731 20 32 85 102 21 189 21 23 43 21 20 77 119 124 30 30
internal_value=0 1.69538 -0.0059731 0.781623 0.249481 -0.0244269 0.230073 -0.0267031 0.178931 0.753502 0.52324 0.888828 -0.0312829 0.172657 0.161716 0.074575 0.699061 0.120692 0.219281 -0.0415579 0.00929197 0.349967 0.156717 -0.042167 0.618982 0.332683 0.0641975 0.274643 0.00253544 0.25763 0.414846
internal_weight=0 111 26201 78 1757 24444 1728 24373 531 71 283 91 23842 1445 1417 584 71 499 833 19018 4824 192 212 18997 42 105 394 150 4612 57 51
internal_count=26312 111 26201 78 1757 24444 1728 24373 531 71 283 91 23842 1445 1417 584 71 499 833 19018 4824 192 212 18997 42 105 394 150 4612 57 51
cat_boundaries=0 4 9 10 14
cat_threshold=4096 768 33554432 16777731 34277472 542119946 822083712 612442160 144 3340 4096 0 0 16777219
is_linear=0
shrinkage=0.01


Tree=4
num_leaves=34
num_cat=4
split_feature=1 4 25 0 2 2 17 0 1 0 2 3 0 9 25 11 11 4 4 11 25 26 24 5 0 13 3 1 0 0 1 2 0
split_gain=3.13577e+06 2.14701e+06 1.21208e+06 569733 447819 422360 300260 224969 275262 203510 140543 186593 127856 159865 97506.4 87282.5 80300 63181.7 61510.2 56483.2 45121 66406.9 46347.9 30558.7 30201.1 26473.7 24686.1 22933.9 22869.4 40064.6 18042.1 17696.4 4005.53
threshold=267.30000000000007 97.970000000000013 0 62.280000000000008 44.904000000000003 204.84585000000001 60.95000000000001 42.542500000000011 88.498500000000007 5.5810000000000013 384.92975000000007 18.906000000000002 15.133500000000003 94.310000000000016 1 66.968000000000004 172.66900000000001 24.371000000000002 159.11250000000004 27.355950000000004 2 2022.5000000000002 3 88.215000000000018 24.483000000000001 15.133500000000003 13.121500000000001 76.125000000000014 183.61000000000004 139.45300000000003 391.78750000000008 293.33836000000008 279.42348000000004
decision_type=2 2 9 2 2 2 2 2 2 2 2 2 2 2 9 2 2 2 2 2 9 2 1 2 2 2 2 2 2 2 2 2 2
left_child=2 3 4 30 12 7 10 14 15 31 11 24 16 28 19 26 20 -13 23 27 21 -1 -22 -16 -6 -21 -9 -4 29 -14 -2 -7 -30
right_child=1 -3 5 -5 6 9 -8 8 -10 -11 -12 17 13 -15 18 -17 -18 -19 -20 25 22 -23 -24 -25 -26 -27 -28 -29 32 -31 -32 -33 -34
leaf_value=0.12728141968590873 0.067517272101508249 3.8166148376464846 -0.00014147426376708572 2.1818508098238989 0.090289699917747865 0.63334022953396751 1.8185068297386169 0.055860543015501571 1.0762272655963898 1.600901915073395 1.2472622219085694 0.52058511152500064 0.31595943738113752 1.2351012638636998 -0.042157442444690857 0.70786091764767967 0.73120375446651298 1.0632685226864285 0.51331809782981874 0.11234359852388397 0.20127764064438489 0.58484188959516337 0.063983017206972179 0.21874128193325468 0.45549742237214119 0.3886176051005073 0.2430790942768718 0.16966405220973638 0.070243710978277807 0.77988100008531047 0.42383565759658814 0.25484796682993571 0.23374663829803466
leaf_weight=70 27 33 4406 21 84 21 20 389 32 20 25 41 121 21 19103 24 23 45 20 141 382 58 754 45 31 46 86 81 29 22 30 30 31
leaf_count=70 27 33 4406 21 84 21 20 389 32 20 25 41 121 21 19103 24 23 45 20 141 382 58 754 45 31 46 86 81 29 22 30 30 31
internal_value=0 1.67843 -0.00591096 0.773806 0.247022 -0.0241826 0.644096 -0.026436 0.177142 0.745967 0.540165 0.452218 0.184011 0.404504 -0.03097 0.119485 0.145635 0.804547 -0.040944 0.00999921 0.13498 0.310366 0.111504 -0.0415443 0.188737 0.180304 0.089757 0.00292388 0.31858 0.387332 0.255053 0.410698 0.15472
internal_weight=0 111 26201 78 1757 24444 246 24373 531 71 226 201 1511 224 23842 499 1287 86 19168 4674 1264 128 1136 19148 115 187 475 4487 203 143 57 51 60
internal_count=26312 111 26201 78 1757 24444 246 24373 531 71 226 201 1511 224 23842 499 1287 86 19168 4674 1264 128 1136 19148 115 187 475 4487 203 143 57 51 60
cat_boundaries=0 4 9 13 14
cat_threshold=4096 768 33554432 16777731 34146368 541071370 822083712 612442160 144 0 512 33554432 514 673
is_linear=0
shrinkage=0.01


Tree=5
num_leaves=33
num_cat=5
split_feature=1 3 2 25 8 5 12 2 25 3 1 1 4 16 14 6 5 24 12 11 8 1 3 8 13 26 25 26 1 2 25 8
split_gain=2.65952e+06 2.11426e+06 1.07273e+06 737158 600666 390998 239915 212433 176662 165208 145743 117595 102795 75234.6 74120.6 70268.6 70234 55342.8 52148.7 40614.3 39259.3 38951.2 36925.6 31430.8 25355.4 22580.1 15070.4 12201.9 10159.4 5435.02 4481.93 1982.65
threshold=251.15500000000006 61.268000000000008 183.29500000000004 0 58.704000000000001 187.04550000000003 53.95000000000001 494.83500000000009 1 104.20950000000001 53.95000000000001 28.609500000000001 149.88200000000003 207.64214000000001 21.917500000000004 59.776500000000013 10.456941000000002 2 173.13665000000003 17.035000000000007 59.28848 443.38450000000006 31.764000000000003 5.068950000000001 43.82200000000001 2022.5000000000002 3 2022.5000000000002 7.3237500000000013 272.72604000000007 4 19.809000000000001
decision_type=2 2 2 9 2 2 2 2 9 2 2 2 2 2 2 2 2 1 2 2 2 2 2 2 2 2 9 2 2 2 9 2
left_child=2 21 3 6 -3 7 11 9 10 28 13 17 26 19 18 25 22 20 -8 -5 -1 27 -12 -18 -19 -13 31 -2 29 -4 -28 -10
right_child=1 4 5 8 -6 -7 14 -9 12 -11 16 15 -14 -15 -16 -17 23 24 -20 -21 -22 -23 -24 -25 -26 -27 30 -29 -30 -31 -32 -33
leaf_value=0.1957890942541036 0.55322080596288048 2.1320070581436159 0.031689476172129312 0.0017528274017150228 4.5828560619354253 1.8804541662761145 0.26257767846807839 1.4109658336639403 -0.054423883281810803 1.119720670580864 0.094496062683387547 0.4490248513552878 0.59893074436187743 0.48581016713922676 1.1439089022011593 0.85777635851214018 0.35216990763490846 0.059052555565278018 0.9135065836906433 0.1238426053803741 0.56154972360980127 0.21433308959007263 0.48061695512135821 0.81223026319786362 0.42134618997573853 0.18753346904379423 -0.026606583065804896 0.84348085182053711 0.35284033397833503 0.22596553405125935 -0.040349234072617701 0.003298701028029124
leaf_weight=550 30 20 36 6198 20 28 32 25 7215 24 142 72 25 33 29 31 33 566 20 285 31 24 30 27 20 61 4152 28 24 24 6264 60
leaf_count=550 30 20 36 6198 20 28 32 25 7215 24 142 72 25 33 29 31 33 566 20 285 31 24 30 27 20 61 4152 28 24 24 6264 60
internal_value=0 1.47258 -0.00732894 -0.012392 3.35743 0.806412 0.208966 0.580298 -0.0252433 0.388014 0.0182864 0.178289 -0.0418247 0.00954434 0.738839 0.429027 0.264607 0.143053 0.512935 0.00712003 0.211662 0.553147 0.161843 0.559197 0.0702192 0.329093 -0.0427538 0.693346 0.178954 0.1094 -0.0349019 -0.0538738
internal_weight=0 122 26037 25876 40 161 1412 133 24464 108 6748 1331 17716 6516 81 164 232 1167 52 6483 581 82 172 60 586 133 17691 58 84 60 10416 7275
internal_count=26159 122 26037 25876 40 161 1412 133 24464 108 6748 1331 17716 6516 81 164 232 1167 52 6483 581 82 172 60 586 133 17691 58 84 60 10416 7275
cat_boundaries=0 4 9 10 15 20
cat_threshold=33558528 768 33554432 16777730 67648 943724554 822086912 545333521 128 1745 1501569408 943184 1699845 51340 32 68846629 68157440 2216689794 101192704 24
is_linear=0
shrinkage=0.01


Tree=6
num_leaves=29
num_cat=0
split_feature=1 3 2 8 5 1 9 12 2 3 5 4 13 7 1 16 3 4 5 9 1 4 6 2 9 26 1 2
split_gain=2.60659e+06 2.07218e+06 1.05139e+06 588713 383218 360316 222832 275649 208206 161920 131426 104927 172578 101625 90170.6 60433.7 56830.9 56225.7 48148.7 40100.1 38176 28740.6 18894.6 16495.9 14846.5 11959 9957.24 5326.86
threshold=251.15500000000006 61.268000000000008 183.29500000000004 58.704000000000001 187.04550000000003 48.375500000000009 97.343750000000014 13.121500000000001 494.83500000000009 104.20950000000001 15.203200000000001 54.048000000000009 33.347500000000004 83.429500000000004 178.0515 321.00000000000006 98.735000000000028 21.681940000000001 25.485000000000003 33.834000000000003 443.38450000000006 43.107000000000006 18.332500000000003 11.962300000000001 123.04750000000003 2022.5000000000002 7.3237500000000013 272.72604000000007
decision_type=2 2 2 2 2 2 2 2 2 2 2 2 2 2 2 2 2 2 2 2 2 2 2 2 2 2 2 2
left_child=2 20 5 -3 8 6 11 17 9 26 16 15 13 -13 19 18 21 24 -1 22 25 23 -12 -7 -8 -2 27 -4
right_child=1 3 4 -5 -6 10 7 -9 -10 -11 14 12 -14 -15 -16 -17 -18 -19 -20 -21 -22 -23 -24 -25 -26 -27 -28 -29
leaf_value=-0.025471015994690895 0.54768860499064131 2.1106870203018189 0.03137258185280694 4.5370274782180786 1.8616496562957765 0.06565386924816638 0.2816947137117386 1.1669889083053127 1.3968562267303466 1.1085234530766805 0.14974088633314092 0.037561868266289281 0.86063350339089673 0.75553756623041068 1.0688271874189377 0.5012264821746133 0.5802025480105959 0.54978712823655873 0.059673025059577833 0.7190451571212283 0.21218975861867267 0.43583487837402907 0.45663796833583287 0.24169122432745421 -0.021818235739167916 0.8350460343701499 0.34931192517280579 0.22370588441689809
leaf_weight=24085 30 20 36 20 28 294 20 33 25 24 47 322 31 21 24 22 29 27 683 28 24 27 35 65 83 28 24 24
leaf_count=24085 30 20 36 20 28 294 20 33 25 24 47 322 31 21 24 22 29 27 683 28 24 27 35 65 83 28 24 24
internal_value=0 1.45786 -0.00725591 3.32386 0.798348 -0.0122684 -0.0177624 0.350784 0.574495 0.384133 0.241186 -0.0201496 0.146099 0.0815196 0.513472 -0.0226578 0.153266 0.143594 -0.0231231 0.392304 0.547616 0.121191 0.280734 0.0975269 0.0371163 0.686413 0.177165 0.108306
internal_weight=0 122 26037 40 161 25876 25327 163 133 108 549 25164 374 343 134 24790 415 130 24768 110 82 386 82 359 103 58 84 60
internal_count=26159 122 26037 40 161 25876 25327 163 133 108 549 25164 374 343 134 24790 415 130 24768 110 82 386 82 359 103 58 84 60
is_linear=0
shrinkage=0.01


Tree=7
num_leaves=36
num_cat=6
split_feature=0 14 25 8 5 9 10 16 4 3 4 25 6 25 3 0 3 25 0 5 4 3 8 25 0 16 9 25 10 5 5 5 16 8 3
split_gain=1.81474e+06 1.37475e+06 803667 445996 400889 673167 286932 277253 333121 151105 143097 115703 105470 86743.8 70196.4 68075.2 66518.2 57908.1 40241.1 31973.8 30856 32459.6 30216.9 27270.9 23446.3 21546.8 20445.7 16302.5 12575.2 8693.01 7731.78 6058.63 4898.99 1941.75 299.702
threshold=97.190750000000023 210.20000000000002 0 59.28848 69.528000000000006 28.485000000000003 173.13665000000003 87.312500000000014 36.957750000000011 207.64214000000001 178.81400000000005 1 54.132000000000005 2 25.7013 42.542500000000011 104.20950000000001 3 207.64214000000001 25.485000000000003 108.47550000000001 11.962300000000001 17.482400000000002 4 65.420000000000002 132.24115000000003 5.1495000000000006 5 78.575000000000017 135.58212499999999 290.20250000000004 11.942097000000002 236.62000000000003 19.809000000000001 303.36750000000006
decision_type=2 2 9 2 2 2 2 2 2 2 2 9 2 9 2 2 2 9 2 2 2 2 2 9 2 2 2 9 2 2 2 2 2 2 2
left_child=2 3 4 10 15 12 -5 9 25 11 13 14 29 16 19 17 18 -1 -2 -4 23 -22 -16 -19 -17 -9 31 33 -29 -6 -31 -15 -27 -13 -11
right_child=1 -3 7 6 5 -7 -8 8 -10 34 -12 27 -14 26 22 24 -18 20 -20 -21 21 -23 -24 -25 -26 32 -28 28 -30 30 -32 -33 -34 -35 -36
leaf_value=0.30966094311469239 0.2897645196562908 3.219997268676758 -0.0045331911659936535 0.82886586954719133 0.27163850518373345 1.9154554000582014 2.3086453204154971 -0.067445216405959366 1.6754347734451296 0.4986459992550038 1.2072233433723449 -0.053632121169376767 0.90957555424083369 0.10453763977019456 0.094538788708065091 0.62054399691129991 1.0095222688604284 -0.032894449217336162 0.70104472200075796 0.1087443650519575 0.17541173178216685 0.64989460877009808 0.3105245098045894 0.11905437521348201 0.27151727195315734 0.43813566958904271 0.45416695098985321 -0.034238159910313065 0.14565087058605292 -0.05961529337126633 0.1923357189269293 0.28694642021542505 0.2218880102851174 0.0034920437733332314 0.54776887002198593
leaf_weight=173 61 20 5091 38 26 35 20 21 20 27 20 7214 22 137 283 38 27 133 39 262 46 21 84 1153 39 20 22 10852 39 29 21 21 22 60 23
leaf_count=173 61 20 5091 38 26 35 20 21 20 27 20 7214 22 137 283 38 27 133 39 262 46 21 84 1153 39 20 22 10852 39 29 21 21 22 60 23
internal_value=0 0.66377 -0.0108635 0.530979 0.196297 0.724996 1.33913 -0.0259079 0.551043 -0.0279194 0.387637 -0.029069 0.299831 0.334243 0.010166 0.153656 0.527544 0.139018 0.450164 0.00101112 0.114067 0.32413 0.143974 0.10401 0.443764 0.194094 0.15968 -0.0414066 -0.0335632 0.123326 0.0462041 0.128782 0.324863 -0.0530879 0.521243
internal_weight=0 405 25754 385 1736 133 58 24018 83 23935 327 23885 98 307 5720 1603 127 1526 100 5353 1353 67 367 1286 77 63 180 18165 10891 76 50 158 42 7274 50
internal_count=26159 405 25754 385 1736 133 58 24018 83 23935 327 23885 98 307 5720 1603 127 1526 100 5353 1353 67 367 1286 77 63 180 18165 10891 76 50 158 42 7274 50
cat_boundaries=0 4 9 14 18 22 27
cat_threshold=33558528 768 587202560 16777731 198752 943724546 2483031296 645996560 128 4096 0 0 1 128 0 768 33554432 512 0 0 0 16777216 1501569408 943184 1699845 51340 32
is_linear=0
shrinkage=0.01


Tree=8
num_leaves=33
num_cat=4
split_feature=1 3 2 25 8 5 0 0 12 25 2 1 1 10 0 16 5 0 0 3 24 0 8 5 8 1 13 5 3 25 26 2
split_gain=2.53052e+06 2.01498e+06 1.01744e+06 702018 571952 371014 266656 241792 228442 168020 141716 138931 111176 78530.9 76394.5 70472 66981.8 67878.2 63816.5 55095.8 54371.6 49488.4 37579.3 32448.5 30300.1 26571.1 24071.5 21996.6 21182.7 15019.5 12155.9 4254.08
threshold=251.15500000000006 61.268000000000008 183.29500000000004 0 58.704000000000001 187.04550000000003 129.27000000000004 24.148750000000003 53.95000000000001 1 494.83500000000009 53.95000000000001 28.609500000000001 46.766250000000007 15.133500000000003 207.64214000000001 10.456941000000002 65.420000000000002 21.917500000000004 42.21200000000001 2 1.6295000000000004 59.28848 21.698500000000006 5.068950000000001 391.78750000000008 43.82200000000001 176.27500000000001 147.92250000000004 3 2022.5000000000002 272.72604000000007
decision_type=2 2 2 9 2 2 2 2 2 9 2 2 2 2 2 2 2 2 2 2 1 2 2 2 2 2 2 2 2 9 2 2
left_child=2 7 3 8 -3 6 10 25 12 11 19 15 20 21 30 18 17 -13 -5 31 22 -10 -1 -16 -18 -2 -22 28 29 -11 -14 -4
right_child=1 4 5 9 -6 -7 -8 -9 13 27 -12 16 14 -15 23 -17 24 -19 -20 -21 26 -23 -24 -25 -26 -27 -28 -29 -30 -31 -32 -33
leaf_value=0.1921978367285295 0.034244058412664077 2.0807180428504943 0.019714717973362317 -0.0021372237805545873 4.4722703762054445 1.8315792819431849 1.6294096250534056 1.4643264534359888 0.19694870761462621 -0.028657788606224519 1.1403648633956909 0.085912552946492249 0.35203425103425978 1.1164316477314118 0.48291679859161379 0.47024317958138206 0.34274890303611755 0.70562834352254866 0.11524866270712128 0.6631693637938727 0.056763214919676626 0.83074013486504561 0.55004721403121948 0.9094240743319193 0.79445816565442973 0.45443696269282591 0.40976551604270939 0.29063800930976869 0.27622578132720221 -0.04826899248314194 0.11815041656494141 0.17739000388554163
leaf_weight=550 34 20 44 5981 20 28 20 21 28 6083 20 152 40 31 44 33 33 20 502 21 566 22 31 30 27 27 20 20 21 11592 50 28
leaf_count=550 34 20 44 5981 20 28 20 21 28 6083 20 152 40 31 44 33 33 20 502 21 566 22 31 30 27 27 20 20 21 11592 50 28
internal_value=0 1.43643 -0.00714554 -0.0120764 3.27649 0.785346 0.565086 0.538841 0.203941 -0.0246177 0.37671 0.017834 0.174007 0.72099 0.417805 0.00929867 0.258329 0.157973 0.00695235 0.212483 0.139746 0.475817 0.207716 0.655825 0.546018 0.220231 0.0676565 -0.0407884 -0.041186 -0.0415632 0.222099 0.0810329
internal_weight=0 122 26037 25876 40 161 133 82 1412 24464 113 6748 1331 81 164 6516 232 172 6483 93 1167 50 581 74 60 61 586 17716 17696 17675 90 72
internal_count=26159 122 26037 25876 40 161 133 82 1412 24464 113 6748 1331 81 164 6516 232 172 6483 93 1167 50 581 74 60 61 586 17716 17696 17675 90 72
cat_boundaries=0 4 9 10 15
cat_threshold=33558528 768 33554432 16777730 67648 943724554 822086912 545333521 128 1745 73303079 101711872 3290563218 101454848 24
is_linear=0
shrinkage=0.01


Tree=9
num_leaves=38
num_cat=7
split_feature=1 3 25 9 5 6 25 1 6 1 3 4 4 24 25 5 11 13 3 1 6 13 26 3 25 25 1 16 13 1 5 26 3 3 25 7 5
split_gain=2.48016e+06 1.97488e+06 985259 473299 598357 421457 219728 183674 174459 101126 88366.1 80625.1 74494.9 59981.1 57033.4 55323.1 53369.3 93629.2 41957.9 37505.3 35573.3 33070 32100.1 30281.3 25441.3 24372.2 23694.9 22807 19938 12583 11629.4 11494.2 11175.7 6343.86 5108.77 2466.7 1468.3
threshold=251.15500000000006 61.268000000000008 0 58.998750000000008 62.280000000000008 119.18450000000001 1 46.817500000000003 305.65698000000003 32.587500000000013 58.311000000000007 149.88200000000003 70.809000000000012 2 3 44.013000000000012 17.035000000000007 15.133500000000003 95.662500000000009 443.38450000000006 16.293750000000006 43.82200000000001 2022.5000000000002 16.052500000000006 4 5 145.47000000000003 51.421500000000009 14.688000000000001 84.723000000000013 3.4260000000000006 2022.5000000000002 64.568000000000026 11.962300000000001 6 47.868750000000006 3.2920000000000003
decision_type=2 2 9 2 2 2 9 2 2 2 2 2 2 1 9 2 2 2 2 2 2 2 2 2 9 9 2 2 2 2 2 2 2 2 9 2 2
left_child=2 19 3 9 10 -3 7 8 16 13 20 25 26 28 22 18 24 -18 30 31 -5 -16 -15 -17 -4 27 32 29 33 -8 -9 -2 -11 -1 35 -27 -36
right_child=1 5 6 4 -6 -7 11 15 -10 12 -12 -13 -14 14 21 23 17 -19 -20 -21 -22 -23 -24 -25 -26 34 -28 -29 -30 -31 -32 -33 -34 -35 36 -37 -38
leaf_value=0.020279255086792514 0.53502357530593869 2.2172587027549744 0.080556563258936884 -0.053629797118050715 1.8657606274042373 4.2701998558044432 -0.024667056158664425 0.15100455826328646 0.91049564990130338 0.32274266416962089 0.90326033138093498 0.44861500908346735 0.8048786135208913 0.26613316385834307 0.1562301381379366 0.90953680497407918 0.04870924195689965 0.48979657427873463 0.66566023081541059 0.2009859001636505 0.45953206018968062 0.53392701327800751 0.59602626272348258 0.3874910676956177 0.0028233644701160694 -0.03908817296306441 0.064994149131159626 0.26247114726475307 0.35825757265090941 0.16548577853611537 0.38755990544954932 0.81674048185348513 0.57511560979096787 0.1658398165847316 -0.05274640112360672 0.042855969595949395 -0.032263549732739663
leaf_weight=323 30 20 457 35 39 20 6092 155 22 74 21 34 39 54 680 20 194 64 20 24 22 24 65 25 4306 5131 31 28 20 35 24 28 23 33 7543 37 367
leaf_count=323 30 20 457 35 39 20 6092 155 22 74 21 34 39 54 680 20 194 64 20 24 22 24 65 25 4306 5131 31 28 20 35 24 28 23 33 7543 37 367
internal_value=0 1.42207 -0.00707438 0.242353 0.854408 3.24373 -0.0222288 0.034837 0.0219379 0.191704 0.348732 -0.037898 0.42225 0.159593 0.206679 0.302862 0.0180446 0.158126 0.231258 0.533452 0.144433 0.166738 0.411728 0.619511 0.0104568 -0.0387778 0.305667 -0.0222434 0.04971 -0.0235808 0.182721 0.671025 0.382584 0.0337722 -0.0465069 -0.0384271 -0.0517307
internal_weight=0 122 26037 1483 117 40 24554 5287 5043 1366 78 19267 167 1199 823 244 5021 258 199 82 57 704 119 45 4763 19233 128 6155 376 6127 179 58 97 356 13078 5168 7910
internal_count=26159 122 26037 1483 117 40 24554 5287 5043 1366 78 19267 167 1199 823 244 5021 258 199 82 57 704 119 45 4763 19233 128 6155 376 6127 179 58 97 356 13078 5168 7910
cat_boundaries=0 4 9 10 14 18 23 28
cat_threshold=33558528 768 33554432 16777730 67648 809502722 822085888 545333265 128 2092 0 768 33554432 512 0 4194304 822083584 73729 68846631 235933704 3290432658 101192960 24 2154037768 3223420960 138805864 140902464 64
is_linear=0
shrinkage=0.01


Tree=10
num_leaves=46
num_cat=9
split_feature=2 5 25 4 0 3 4 3 8 0 12 7 25 24 0 6 4 26 7 4 5 5 24 25 13 10 12 25 0 3 0 16 2 24 25 13 26 26 2 6 25 6 5 0 8
split_gain=2.54951e+06 1.86784e+06 934466 874474 343166 230514 207485 260078 152037 150707 145821 145812 127643 124646 94523.6 84193.4 82560.4 92580.8 82059.3 65927.5 65196.4 50061.9 41698.8 66616.2 45151.1 39513.5 33887.6 24389.7 20020.6 19922.9 18869.9 17481.1 13793.4 13269.5 12138.9 11442.3 7024.1 6302.22 5411.81 5331.55 4749.71 4602.56 3345.73 2682.13 2551.62
threshold=158.59650000000002 352.81000000000006 0 268.38500000000005 27.426188000000007 57.443000000000012 54.048000000000009 143.79350000000002 59.28848 58.918500000000009 173.13665000000003 83.429500000000004 1 2 4.5910000000000002 167.12000000000003 22.062500000000004 2022.5000000000002 62.280000000000008 1.6425000000000003 49.207500000000003 11.942097000000002 3 4 18.360500000000005 30.747000000000003 59.28848 5 191.29000000000002 11.962300000000001 36.357400000000005 51.421500000000009 272.72604000000007 6 7 17.3385 2022.5000000000002 2022.5000000000002 217.80750000000003 5.3145000000000007 8 263.21100000000007 61.034100000000009 144.39125000000004 19.809000000000001
decision_type=2 2 9 2 2 2 2 2 2 2 2 2 9 1 2 2 2 2 2 2 2 2 1 9 2 2 2 9 2 2 2 2 2 1 9 2 2 2 2 2 9 2 2 2 2
left_child=2 3 4 5 10 9 12 11 13 32 15 21 14 16 33 22 17 -6 -10 -7 26 30 23 -1 -24 -23 -16 28 31 43 -8 -14 38 34 -4 -35 -31 -34 -2 -22 42 -17 -29 -15 -42
right_child=1 -3 6 -5 8 19 7 -9 18 -11 -12 -13 27 29 20 41 -18 -19 -20 -21 39 25 24 -25 -26 -27 -28 40 -30 36 -32 -33 37 35 -36 -37 -38 -39 -40 -41 44 -43 -44 -45 -46
leaf_value=0.11678563067787572 0.13708200683196387 3.9736823663711549 0.080261298043457843 2.418111883231572 0.81001568332314489 0.73376161900433634 -0.0063208380653744659 1.3262076830863954 0.70248737641743253 1.0866547900438308 0.84558694760004682 0.93775613242929634 -0.025467499850434366 0.073018140503854467 0.090064676485130876 0.4602241845130921 1.2357721173763276 0.19348646605887065 1.5411564440727232 1.491632605791092 0.64097929716110236 0.18073462650992653 0.062833340489913458 0.35351411357758539 0.39932286852882021 0.69978187894821164 0.4298662062998741 -0.038341308394379194 0.29242790973186494 0.17080888793582008 0.31513718056678774 0.20878949671983718 0.42339286457408554 -0.012257048979648107 0.0076336200806991494 0.090352171945624657 0.43266491365432741 0.18120075089590892 -0.052321633208881731 0.41007772970199585 -0.05202089043853058 0.66562657107909518 0.082615751390871794 -0.061374967892964677 0.0058160164449122045
leaf_weight=427 48 20 352 28 60 22 210 20 28 21 30 22 7049 33 551 20 22 41 20 24 20 55 789 179 42 20 31 3985 20 21 20 32 22 2841 655 113 20 21 22 20 8147 24 23 27 77
leaf_count=427 48 20 352 28 60 22 210 20 28 21 30 22 7049 33 551 20 22 41 20 24 20 55 789 179 42 20 31 3985 20 21 20 32 22 2841 655 113 20 21 22 20 8147 24 23 27 77
internal_value=0 1.05479 -0.00728479 0.774123 0.213023 0.518391 -0.0235525 0.219211 0.5412 0.30872 0.155357 0.151505 -0.0270846 0.431757 0.0203551 0.141375 0.62948 0.559741 1.05193 1.12917 0.135004 0.0947915 0.128181 0.191314 0.0788907 0.319147 0.108164 -0.0383212 -0.0234834 0.117052 0.021632 -0.0244089 0.164148 0.00240305 0.0335604 -0.00830381 0.298544 0.305113 0.0775551 0.525529 -0.0469087 0.572262 -0.0375535 0.0125412 -0.0514169
internal_weight=0 228 26046 208 1783 180 24263 347 272 134 1511 327 23916 224 4583 1481 123 101 48 46 622 305 1437 606 831 75 582 19333 7101 101 230 7081 113 3961 1007 2954 41 43 70 40 12232 44 4008 60 8224
internal_count=26274 228 26046 208 1783 180 24263 347 272 134 1511 327 23916 224 4583 1481 123 101 48 46 622 305 1437 606 831 75 582 19333 7101 101 230 7081 113 3961 1007 2954 41 43 70 40 12232 44 4008 60 8224
cat_boundaries=0 4 9 10 11 15 20 21 25 29
cat_threshold=33558528 768 570425344 16777731 198720 809506826 268437632 536870960 128 126 625 4096 0 536870912 16777218 609779745 235929600 2231371026 42472768 88 1284 67584 8 0 16 2360846 3246456992 1216348712 269877248
is_linear=0
shrinkage=0.01


Tree=11
num_leaves=35
num_cat=3
split_feature=1 3 2 2 5 25 0 2 0 0 9 11 1 3 3 25 10 11 12 8 12 1 0 25 2 11 5 26 2 0 2 2 3 1
split_gain=2.52702e+06 1.8354e+06 1.05022e+06 790166 690080 620380 330044 232978 198646 191843 292716 186015 121660 110764 104287 78795.3 75518.7 72912.2 73059.6 55971.4 48779.5 42771.1 42538.9 41410.8 40060.4 29676.7 24914.7 24430.3 16261.4 16245.6 6199.75 5595.9 1181.69 212.626
threshold=251.15500000000006 133.80750000000003 81.931750000000008 107.09900000000002 172.43500000000003 0 40.970260000000003 229.45150000000004 48.021000000000008 15.133500000000003 94.310000000000016 112.82400000000001 58.977750000000007 78.444500000000019 82.742940000000019 1 11.960800000000003 260.69400000000007 185.71250000000001 64.545000000000016 10.870970000000002 391.78750000000008 8.7298300000000015 2 107.09900000000002 246.25300000000004 88.215000000000018 2022.5000000000002 272.72604000000007 298.77000000000004 119.54000000000001 169.01000000000002 47.13750000000001 304.04690000000005
decision_type=2 2 2 2 2 9 2 2 2 2 2 2 2 2 2 9 2 2 2 2 2 2 2 9 2 2 2 2 2 2 2 2 2 2
left_child=2 8 5 -3 6 9 13 24 21 17 19 12 15 28 -6 22 27 18 23 29 25 33 -7 -1 -8 -13 -17 -14 30 -11 -4 -15 -26 -2
right_child=1 3 4 -5 14 11 7 -9 -10 10 -12 20 16 31 -16 26 -18 -19 -20 -21 -22 -23 -24 -25 32 -27 -28 -29 -30 -31 -32 -33 -34 -35
leaf_value=0.27693159079887497 0.094343131780624395 1.7862639352253504 0.12113803603147207 4.5635874824523928 2.2172827587127686 -0.0093712012638356088 0.88512712915738423 1.8327035307884216 1.4143897078254006 0.29883288707436817 1.5072295902086341 0.14735883412784653 0.21828610062599182 0.53960651045260222 1.2395486887296041 -0.041753564534974814 0.62276765090577746 0.73004732728004462 0.6933454262126576 0.75955867217137274 0.88555057168006901 0.63025125786110214 0.073040175888377828 0.091032100403565366 0.34736395391076808 0.61577565125056677 0.24668394581476846 0.017309107139330954 0.27216793839524434 0.016323773219533589 0.0032479493264798765 0.76831921339035036 0.45606974172592163 0.13990229152497791
leaf_weight=132 20 21 76 20 20 6101 30 20 22 177 23 38 123 23 24 16940 34 20 22 26 20 27 698 1194 20 21 30 119 41 23 108 20 20 21
leaf_count=132 20 21 76 20 20 6101 30 20 22 177 23 38 123 23 24 16940 34 20 22 26 20 27 698 1194 20 21 30 119 41 23 108 20 20 21
internal_value=0 1.38734 -0.00502779 3.14106 0.502151 -0.0129485 0.3569 0.880851 0.588424 0.17607 0.432465 -0.0256804 -0.0272827 0.180946 1.68397 -0.0297066 0.18146 0.130688 0.121796 0.323086 0.458759 0.3212 -0.000909334 0.112313 0.608893 0.314083 -0.0412194 0.119459 0.0920718 0.266344 0.0519417 0.645985 0.401717 0.117678
internal_weight=0 131 26143 41 402 25741 358 90 90 1617 249 24124 24045 268 44 23769 276 1368 1348 226 79 68 6799 1326 70 59 16970 242 225 200 184 43 40 41
internal_count=26274 131 26143 41 402 25741 358 90 90 1617 249 24124 24045 268 44 23769 276 1368 1348 226 79 68 6799 1326 70 59 16970 242 225 200 184 43 40 41
cat_boundaries=0 4 9 13
cat_threshold=33558528 768 33554432 16777731 723041 810555402 889195648 578814256 208 0 256 33554432 512
is_linear=0
shrinkage=0.01


Tree=12
num_leaves=36
num_cat=3
split_feature=1 3 2 2 5 25 0 2 0 0 9 11 6 1 3 25 10 11 8 25 26 1 7 0 11 2 11 5 26 2 0 6 6 2 1
split_gain=2.47672e+06 1.79888e+06 1.02931e+06 774442 676348 608172 323476 228341 194693 187991 286890 182314 167475 119239 108560 77227.3 74015.9 71454.8 54857.6 54439 58351 41919.9 41895.9 41692.3 39908.4 39263.2 24832.1 24418.9 23944.2 15937.8 15922.3 8224.14 8137.47 5484.54 208.395
threshold=251.15500000000006 133.80750000000003 81.931750000000008 107.09900000000002 172.43500000000003 0 40.970260000000003 229.45150000000004 48.021000000000008 15.133500000000003 94.310000000000016 112.82400000000001 42.523500000000006 58.977750000000007 78.444500000000019 1 11.960800000000003 260.69400000000007 64.545000000000016 2 2022.5000000000002 391.78750000000008 59.12850000000001 8.7298300000000015 297.01000000000005 107.09900000000002 194.21606000000003 88.215000000000018 2022.5000000000002 272.72604000000007 298.77000000000004 31.815000000000001 11.960800000000003 169.01000000000002 304.04690000000005
decision_type=2 2 2 2 2 9 2 2 2 2 2 2 2 2 2 9 2 2 2 9 2 2 2 2 2 2 2 2 2 2 2 2 2 2 2
left_child=2 8 5 -3 6 9 14 25 21 17 18 13 -6 15 29 23 28 19 30 20 -1 34 -21 -7 26 -8 -13 -17 -15 31 -11 -4 -27 -16 -2
right_child=1 3 4 -5 12 11 7 -9 -10 10 -12 24 -14 16 33 27 -18 -19 -20 22 -22 -23 -24 -25 -26 32 -28 -29 -30 -31 -32 -33 -34 -35 -36
leaf_value=0.12283527497684255 0.093399701952934275 1.7684012921651207 0.024301966217499749 4.5179516491889959 1.1039401412010192 -0.0092774885105922598 0.87627584433555594 1.8143765020370484 1.4002458182248203 0.29584455970316959 1.4921572788901951 0.43930182409472762 2.3429655766487123 0.21610323555101224 0.53421044930167816 -0.041336030526873416 0.61653997179339914 0.72274683284759522 0.75196308135986334 0.08085264037294275 0.49911561459302906 0.62394875208536782 0.34789464535251741 0.072309775236556392 0.080643419311160133 0.5403309828937054 0.87462676596641542 0.24421711301803592 0.017136015711712235 0.26944626523227228 0.016160532702570375 0.21623022207847009 0.25506838810443877 0.76063599824905392 0.13850325993129187
leaf_weight=85 20 21 158 20 24 6101 30 20 22 177 23 38 20 123 23 16940 34 20 26 1121 80 27 62 698 21 20 20 30 119 41 23 26 20 20 21
leaf_count=85 20 21 158 20 24 6101 30 20 22 177 23 38 20 123 23 16940 34 20 26 1121 80 27 62 698 21 20 20 30 119 41 23 26 20 20 21
internal_value=0 1.37347 -0.0049761 3.10965 0.49713 -0.0128175 0.353331 0.872042 0.58254 0.174331 0.42814 -0.0254236 1.66713 -0.0270099 0.179136 -0.0294095 0.179646 0.129408 0.319855 0.120605 0.28783 0.317988 0.094053 -0.00090024 0.454171 0.602804 0.589414 -0.0408072 0.118264 0.0911511 0.263681 0.0514223 0.3977 0.639525 0.116502
internal_weight=0 131 26143 41 402 25741 358 90 90 1617 249 24124 44 24045 268 23769 276 1368 226 1348 165 68 1183 6799 79 70 58 16970 242 225 200 184 40 43 41
internal_count=26274 131 26143 41 402 25741 358 90 90 1617 249 24124 44 24045 268 23769 276 1368 226 1348 165 68 1183 6799 79 70 58 16970 242 225 200 184 40 43 41
cat_boundaries=0 4 9 13
cat_threshold=33558528 768 33554432 16777731 723041 810555402 889195648 578814256 208 0 768 33554432 512
is_linear=0
shrinkage=0.01


Tree=13
num_leaves=41
num_cat=6
split_feature=2 4 25 3 0 9 11 4 12 6 25 0 2 0 11 6 11 0 24 26 8 0 4 2 25 11 13 13 2 4 25 26 9 11 24 10 8 3 2 8
split_gain=2.4057e+06 1.54698e+06 880500 476409 323215 473696 303756 315412 139741 137007 128014 119425 104132 85701.5 84701.4 84273.4 53711.5 51027.1 50357.1 71433.7 56846 47101.5 42976 36643.1 36316.8 31920.9 96542.9 30507 23116.3 15519.1 14141.1 6713.16 3624.1 4019.63 2435.59 2260.11 1662.91 1723.17 1443.79 672.094
threshold=158.59650000000002 268.38500000000005 0 198.21500000000003 27.426188000000007 119.54750000000003 83.250000000000014 36.957750000000011 173.13665000000003 65.70750000000001 1 32.914000000000009 81.931750000000008 24.148750000000003 260.69400000000007 172.66900000000001 271.51000000000005 42.542500000000011 2 2022.5000000000002 15.208200000000003 158.59650000000002 11.224000000000002 263.21100000000007 3 17.035000000000007 15.133500000000003 42.281000000000006 59.962600000000002 17.817773000000003 4 2022.5000000000002 11.796750000000001 6.8195000000000006 5 6.1858500000000012 19.809000000000001 14.994000000000002 183.29500000000004 55.299000000000007
decision_type=2 2 9 2 2 2 2 2 2 2 9 2 2 2 2 2 2 2 1 2 2 2 2 2 9 2 2 2 2 2 9 2 2 2 1 2 2 2 2 2
left_child=2 3 4 9 8 18 10 16 14 13 11 25 22 23 15 24 17 35 19 21 -21 -6 -13 38 -1 29 -27 28 -20 -4 32 -25 34 -34 -12 -8 37 -32 -2 -38
right_child=1 -3 6 -5 5 -7 7 -9 -10 -11 30 12 -14 -15 -16 -17 -18 -19 27 20 -22 -23 -24 31 -26 26 -28 -29 -30 -31 36 -33 33 -35 -36 -37 39 -39 -40 -41
leaf_value=0.25639110208960142 0.097190538102930241 2.9922031419417436 -0.0081657842233147666 1.8618109824739655 0.62441529489145053 1.9320447431911123 -0.022172657835717296 1.5763490222749255 0.82650147946675623 1.0273690684182304 -0.01794580668486467 0.074258843884619591 0.81249755923946698 0.87629864936289581 0.7676964437393915 0.59921696392265522 0.7132681770324707 0.56406343373385337 0.085792249909947424 0.067227836661040791 0.74684087181091319 1.1898098688345888 0.3137357613801956 0.50616349688598083 0.095210137675455581 0.015592239533956829 0.54947555500836598 0.55769445419311525 0.44779739878394387 0.057264586046144567 -0.049859019807847779 0.26964078312828427 -0.011734468476772309 0.089981657473937326 -0.034231194164269785 0.1010914887842678 0.0050802962463113322 -0.017155146595181487 -0.005635629494984945 -0.058568756126222157
leaf_weight=160 22 34 6203 29 41 22 51 21 30 35 1180 299 24 23 21 37 20 22 89 32 20 23 100 28 1263 175 42 23 22 385 9150 21 250 46 6010 21 79 164 36 21
leaf_count=160 22 34 6203 29 41 22 51 21 30 35 1180 299 24 23 21 37 20 22 89 32 20 23 100 28 1263 175 42 23 22 385 9150 21 250 46 6010 21 79 164 36 21
internal_value=0 1.02461 -0.00707499 0.679771 0.206777 0.525271 -0.022866 0.45015 0.150812 0.472019 -0.025522 0.00970959 0.172759 0.322502 0.137125 0.128055 0.242692 0.142569 0.401475 0.55599 0.328617 0.827604 0.134278 0.203461 0.115804 -0.000411297 0.118924 0.210514 0.157541 -0.00434206 -0.0405721 0.404797 -0.030179 0.00407277 -0.0316311 0.0137794 -0.0487958 -0.0492832 0.0333674 -0.008286
internal_weight=0 228 26046 194 1783 272 24263 135 1511 165 24128 7228 423 130 1481 1460 114 94 250 116 52 64 399 107 1423 6805 217 134 111 6588 16900 49 7486 296 7190 72 9414 9314 58 100
internal_count=26274 228 26046 194 1783 272 24263 135 1511 165 24128 7228 423 130 1481 1460 114 94 250 116 52 64 399 107 1423 6805 217 134 111 6588 16900 49 7486 296 7190 72 9414 9314 58 100
cat_boundaries=0 4 9 10 14 19 20
cat_threshold=33558528 768 570425344 16777731 723009 810555402 352324992 536871216 208 1102 0 768 33554432 512 609518126 260046848 3355443770 42734656 8 3072
is_linear=0
shrinkage=0.01


Tree=14
num_leaves=36
num_cat=4
split_feature=1 4 2 5 25 2 0 0 2 0 9 1 9 25 8 16 0 8 12 8 16 2 25 19 2 5 4 2 1 0 25 0 4 2 26
split_gain=2.4e+06 1.79675e+06 987148 655179 583027 500718 311054 262837 219344 180381 275551 144712 97780.9 97440.1 97272.4 76669.1 69226.1 62502.3 61573.4 53545.6 41253.2 40030.2 34590.6 30119.8 19953.2 19411.4 19005.4 18430.9 17506.1 15732.8 14695.8 9073.24 4671.96 4251.06 269.879
threshold=251.15500000000006 97.970000000000013 81.931750000000008 172.43500000000003 0 158.59650000000002 42.542500000000011 62.280000000000008 229.45150000000004 15.133500000000003 94.310000000000016 80.658300000000011 23.998500000000003 1 5.068950000000001 71.324000000000012 8.7298300000000015 54.530000000000008 185.71250000000001 64.545000000000016 210.20000000000002 107.09900000000002 2 8.1375000000000011 272.72604000000007 88.215000000000018 48.021000000000008 5.3500000000000005 391.78750000000008 298.77000000000004 3 21.917500000000004 18.547050000000002 443.38450000000006 2022.5000000000002
decision_type=2 2 2 2 9 2 2 2 2 2 2 2 2 9 2 2 2 2 2 2 2 2 9 2 2 2 2 2 2 2 9 2 2 2 2
left_child=2 7 4 6 9 -3 15 28 21 18 19 13 -5 16 27 24 20 -18 22 29 -6 -8 34 -24 26 30 -4 31 -2 -11 -15 -13 -23 -26 -1
right_child=1 5 3 12 11 -7 8 -9 -10 10 -12 14 -14 25 -16 -17 17 -19 -20 -21 -22 32 23 -25 33 -27 -28 -29 -30 -31 -32 -33 -34 -35 -36
leaf_value=-0.056998633581494533 0.10390857736269632 1.9996197619438172 0.040262097612826411 1.1879073188615883 -0.0062954850134283617 4.2372927370071407 0.87333890203771913 1.4735177617768447 1.779834387779236 0.28962226264894347 1.4620503653650698 0.078713286748299235 2.1317069453284851 -0.028744677267988648 0.81573919861404987 0.77141711187362672 0.080889882858385123 0.52111567089854571 0.63968883721724801 0.74005875202325666 0.42757736444473265 0.27729964566230775 0.12842168077477642 0.51972363305091862 0.22449815933520978 0.19616992950439455 0.29964383924708649 0.44336132179945709 0.42809860752474876 0.011608061738636181 -0.047428470386215768 0.31128685426712038 0.49344684177637099 0.41337167653170498 -0.028062736373959167
leaf_weight=63 36 20 167 23 5642 20 29 24 20 177 23 104 21 7444 27 20 627 34 23 26 22 20 1196 20 26 35 34 20 31 23 10149 20 20 22 66
leaf_count=63 36 20 167 23 5642 20 29 24 20 177 23 104 21 7444 27 20 627 34 23 26 22 20 1196 20 26 35 34 20 31 23 10149 20 20 22 66
internal_value=0 1.35202 -0.00490542 0.486809 -0.0125846 3.11846 0.345278 0.575563 0.857735 0.170655 0.419272 -0.0249273 1.63836 -0.027007 0.264936 0.175729 0.00668089 0.103534 0.12665 0.313149 -0.00461024 0.59046 0.117876 0.133758 0.127883 -0.039076 0.0841376 0.161661 0.253907 0.257651 -0.0395662 0.116225 0.385373 0.311065 -0.0391587
internal_weight=0 131 26143 402 25741 40 358 91 89 1617 249 24124 44 23953 171 269 6325 661 1368 226 5664 69 1345 1216 249 17628 201 144 67 200 17593 124 40 48 129
internal_count=26274 131 26143 402 25741 40 358 91 89 1617 249 24124 44 23953 171 269 6325 661 1368 226 5664 69 1345 1216 249 17628 201 144 67 200 17593 124 40 48 129
cat_boundaries=0 4 9 13 18
cat_threshold=33558528 768 33554432 16777731 723041 810553354 889194880 545259824 208 0 0 0 16777216 609256974 1333790720 3355444786 34346048 8
is_linear=0
shrinkage=0.01


Tree=15
num_leaves=33
num_cat=4
split_feature=1 4 25 0 1 0 9 1 11 11 8 0 25 1 24 1 3 10 8 11 0 10 11 16 6 26 16 0 26 4 3 25
split_gain=2.55939e+06 2.12966e+06 1.05581e+06 533970 319783 233351 186170 163349 156805 149465 124112 111819 94826.8 99407.2 93784 80421.1 77487.6 131701 71219.6 67374.6 66979.7 55230.6 48349.9 42746.9 42500 41258.9 32952.4 28236.5 27604 23071.4 22174.5 14411.1
threshold=339.20400000000006 100.23989500000002 0 40.970260000000003 199.12500000000003 144.39125000000004 66.497500000000016 494.83500000000009 56.160000000000004 59.121000000000009 25.503000000000004 53.95000000000001 1 54.821200000000012 2 31.900000000000002 7.322750000000001 21.870500000000003 59.28848 59.77150000000001 7.2150000000000007 182.38600000000002 282.94848000000007 210.20000000000002 65.70750000000001 2022.5000000000002 15.176700000000002 191.29000000000002 2022.5000000000002 124.27400000000002 4.0080000000000009 3
decision_type=2 2 9 2 2 2 2 2 2 2 2 2 9 2 1 2 2 2 2 2 2 2 2 2 2 2 2 2 2 2 2 9
left_child=2 7 3 6 8 9 14 -2 11 12 22 -5 13 23 19 27 17 -8 -13 25 -15 24 30 -4 -16 -1 -12 -7 -29 31 -11 -14
right_child=1 -3 5 4 -6 15 16 -9 -10 10 26 18 29 20 21 -17 -18 -19 -20 -21 -22 -23 -24 -25 -26 -27 -28 28 -30 -31 -32 -33
leaf_value=0.34369128735169119 1.1564419091831555 4.0319811412266322 -0.0026649349044318192 1.1294989667619977 1.7337505368205408 0.0045004068366412461 0.081323913754643623 -0.036500811576843262 1.1933070391993368 -0.021703931458716123 0.94019211551317794 0.29492760656939615 -0.026549709535324983 0.11341256617080597 0.054989571540448388 0.83923687761480159 1.1658991987705232 1.0583535547689957 0.87485420385996504 0.838607944726944 0.51275625260812896 0.60199343609809874 0.55595634869166777 0.46039489626884461 0.30984562369755336 0.12412314045429231 0.40028291177749636 0.65534397125244137 0.20678475506165447 0.29265939916883194 0.32716899359768087 -0.045693394627917779
leaf_weight=184 22 28 6196 21 24 29 37 24 31 106 26 180 6188 168 1003 33 20 22 24 20 56 20 21 20 70 160 20 23 34 21 22 11391
leaf_count=184 22 28 6196 21 24 29 37 24 31 106 26 180 6188 168 1003 33 20 22 24 20 56 20 21 20 70 160 20 23 34 21 22 11391
internal_value=0 1.85758 -0.00478309 0.227147 0.63002 -0.0221616 0.155186 0.534037 0.526545 -0.0243397 0.251399 0.43468 -0.0265764 0.00627343 0.12955 0.419571 0.627984 0.44564 0.363154 0.267035 0.213248 0.0805835 0.111223 -0.00117504 0.0716158 0.241567 0.705449 0.258536 0.387782 -0.0385781 0.0382586 -0.0389957
internal_weight=0 74 26170 1816 280 24354 1536 46 256 24235 195 225 24040 6440 1457 119 79 59 204 364 224 1093 149 6216 1073 344 46 86 57 17600 128 17579
internal_count=26244 74 26170 1816 280 24354 1536 46 256 24235 195 225 24040 6440 1457 119 79 59 204 364 224 1093 149 6216 1073 344 46 86 57 17600 128 17579
cat_boundaries=0 4 9 10 15
cat_threshold=4096 768 570425344 16777731 591936 943724554 2499808640 545268016 144 81 5407265 126877696 1075839514 201856064 72
is_linear=0
shrinkage=0.01


Tree=16
num_leaves=31
num_cat=0
split_feature=1 4 2 5 11 1 1 2 2 9 4 5 3 9 11 5 9 1 8 26 3 26 10 2 4 9 2 6 11 13
split_gain=2.50845e+06 2.08728e+06 1.34666e+06 405637 309602 264649 160098 157625 123289 139578 92478.3 90563.6 90194.9 100269 86280.9 69750.1 114146 69435 69343.9 63657.1 50397.3 49715.4 34140.7 31624.9 28362.6 23775.8 9608.06 9542.41 8344.52 7803.02
threshold=339.20400000000006 100.23989500000002 204.84585000000001 187.04550000000003 59.121000000000009 84.723000000000013 494.83500000000009 494.83500000000009 81.931750000000008 64.119000000000014 79.007400000000004 18.622000000000003 64.568000000000026 23.998500000000003 271.51000000000005 29.736500000000003 87.418000000000021 183.61000000000004 17.482400000000002 2022.5000000000002 11.962300000000001 2022.5000000000002 4.995750000000001 46.401000000000003 22.062500000000004 54.048000000000009 263.21100000000007 11.960800000000003 405.05000000000007 24.211210000000005
decision_type=2 2 2 2 2 2 2 2 2 2 2 2 2 2 2 2 2 2 2 2 2 2 2 2 2 2 2 2 2 2
left_child=2 6 4 7 5 8 -2 10 15 20 21 19 14 -14 18 24 -17 27 25 23 -10 -4 -20 -7 -1 -6 -23 -13 -16 -21
right_child=1 -3 3 -5 12 11 -8 -9 9 -11 -12 17 13 -15 28 16 -18 -19 22 29 -22 26 -24 -25 -26 -27 -28 -29 -30 -31
leaf_value=-0.024072985565523598 1.1448774788596414 3.9916613176890783 0.64299624674850042 2.0430035845438637 2.3185730432019091e-05 0.25655518012955075 -0.036135804255803428 1.4032555923461913 0.038308319940940659 1.0200159881114959 1.1253270936012267 0.26054044456481934 0.2544547519683838 1.2557964863777162 0.79418727102733799 0.05812689726134293 0.82504145002365104 1.0989364088773728 0.1752387398481369 -0.027484781748645909 0.40508880473100223 0.28732988336811899 0.67418005876243114 0.63479477405548101 0.039249621083747868 0.37001116482913499 -0.0049836709282614971 0.55359618997573856 0.51550206921317365 0.19066618323326112
leaf_weight=23807 22 28 36 27 132 105 24 25 134 20 20 25 20 20 21 655 20 20 24 91 52 23 32 28 729 20 22 20 22 20
leaf_count=23807 22 28 36 27 132 105 24 25 134 20 20 25 20 20 21 655 20 20 24 91 52 23 32 28 729 20 22 20 22 20
internal_value=0 1.83901 -0.00473553 0.930692 -0.0102366 -0.0139054 0.528697 0.692339 -0.0174419 0.226205 0.51637 0.276987 0.314113 0.755126 0.243832 -0.0194327 0.0808503 0.608679 0.159533 0.188626 0.140849 0.36601 0.460348 0.336185 -0.0221916 0.0487058 0.144421 0.390787 0.651604 0.0118217
internal_weight=0 74 26170 153 26017 25726 46 126 25417 206 101 309 291 40 251 25211 675 65 208 244 186 81 56 133 24536 152 45 45 43 111
internal_count=26244 74 26170 153 26017 25726 46 126 25417 206 101 309 291 40 251 25211 675 65 208 244 186 81 56 133 24536 152 45 45 43 111
is_linear=0
shrinkage=0.01


Tree=17
num_leaves=27
num_cat=1
split_feature=1 4 2 0 5 0 1 11 1 12 2 4 13 1 0 4 11 5 0 24 0 26 26 2 11 11
split_gain=2.45854e+06 2.04574e+06 1.31986e+06 485373 397565 403071 226172 210359 156912 136706 115114 94941.2 115798 91200.6 80299 115354 58496.5 57449.4 41905.9 24595.9 33741.9 17849.3 11840.1 13091.3 11751.7 4194.56
threshold=339.20400000000006 100.23989500000002 204.84585000000001 41.563500000000005 187.04550000000003 108.47550000000001 35.73880900000001 271.51000000000005 494.83500000000009 359.06000000000006 443.38450000000006 79.007400000000004 28.887 199.12500000000003 158.59650000000002 21.681940000000001 60.200000000000003 25.040110000000002 77.385000000000005 0 53.95000000000001 2022.5000000000002 2022.5000000000002 246.25300000000004 18.486000000000001 405.05000000000007
decision_type=2 2 2 2 2 2 2 2 2 2 2 2 2 2 2 2 2 2 2 1 2 2 2 2 2 2
left_child=2 8 3 7 5 10 14 9 -2 11 22 17 -13 16 19 21 18 -1 -8 20 -5 -16 -4 -24 -21 -9
right_child=1 -3 4 6 -6 -7 13 25 -10 -11 -12 12 -14 -15 15 -17 -18 -19 -20 24 -22 -23 23 -25 -26 -27
leaf_value=-0.024113549834241278 1.1334287227283826 3.9517447607857838 0.35479967307161403 0.48488961875438691 2.0225735805652763 1.7435472985676357 0.60592232510745525 0.79671959740774967 -0.03577444553375244 0.75174398899078376 0.9849043873945873 0.10572958404557747 0.85021591031033061 1.112880222129822 0.33977261047041607 0.98321864525477098 0.94936358179364888 0.067148078024807115 0.23506209135819706 0.0081142624490169301 0.11313376005124121 0.095545917059245866 0.28595202350616455 -0.051602480146620007 0.21008059233427048 0.59436627340316772
leaf_weight=24218 22 28 27 32 27 28 50 21 24 23 24 228 23 25 63 24 21 710 78 289 103 57 20 27 32 20
leaf_count=24218 22 28 27 32 27 28 50 21 24 23 24 228 23 25 63 24 21 710 78 289 103 57 20 27 32 20
internal_value=0 1.82062 -0.00468818 -0.0101342 0.921385 0.685416 0.236532 -0.0176975 0.52341 -0.0188618 0.383093 -0.0195657 0.173949 0.553963 0.144476 0.350341 0.460185 -0.0215142 0.379929 0.0794668 0.187374 0.223765 0.18791 0.0920377 0.0273946 0.698011
internal_weight=0 74 26170 26017 153 126 774 25243 46 25202 98 25179 251 174 600 144 149 24928 128 456 135 120 74 47 321 41
internal_count=26244 74 26170 26017 153 126 774 25243 46 25202 98 25179 251 174 600 144 149 24928 128 456 135 120 74 47 321 41
cat_boundaries=0 1
cat_threshold=194
is_linear=0
shrinkage=0.01


Tree=18
num_leaves=29
num_cat=3
split_feature=1 4 2 25 5 0 0 1 12 0 2 1 11 11 0 11 25 16 13 26 4 3 8 4 1 25 26 2
split_gain=2.40961e+06 2.00503e+06 1.2936e+06 648844 389653 395050 264906 153789 145762 125479 112823 98639.8 95358.6 75765.7 89745.7 70046.8 68155.3 57003.8 55014.2 53230.1 34683.3 29332.2 51243.1 14592 11942.1 11709.5 11604.5 12830.8
threshold=339.20400000000006 100.23989500000002 204.84585000000001 0 187.04550000000003 108.47550000000001 40.970260000000003 494.83500000000009 185.71250000000001 27.823500000000006 443.38450000000006 29.6935 271.51000000000005 47.226000000000006 55.20900000000001 246.25300000000004 1 172.44400000000002 47.226000000000006 2022.5000000000002 59.017500000000005 4.6442200000000016 33.214414000000012 89.850000000000009 103.88050000000001 2 2022.5000000000002 246.25300000000004
decision_type=2 2 2 9 2 2 2 2 2 2 2 2 2 2 2 2 9 2 2 2 2 2 2 2 2 9 2 2
left_child=2 7 3 6 5 10 8 -2 15 12 26 21 16 14 -8 18 17 -5 -1 -16 24 25 -23 -18 -13 -11 -4 -28
right_child=1 -3 4 9 -6 -7 13 -9 -10 11 -12 20 -14 -15 19 -17 23 -19 -20 -21 -22 22 -24 -25 -26 -27 27 -29
leaf_value=0.094746952065643722 1.1220944426276469 3.9122272491455079 0.35125168409612445 -0.0035246894282946299 2.0023478296067982 1.7261118602752685 1.020084778178822 -0.035416696369647983 0.91780889863553261 0.076432956021776952 0.97505535284678146 0.22384189465677881 0.63048388524488974 0.93713055014610291 0.49040108157543966 0.70303228092193604 -0.039490559639123707 0.41310483321999059 0.42314075577933835 0.15313303098445985 0.73490761905908586 0.10258133908433299 0.64805435681343082 0.18898728830473766 0.47315386276245114 -0.016307856076650543 0.28309249067306519 -0.051086456863968462
leaf_weight=1361 22 28 27 6774 27 28 22 24 23 207 24 83 22 32 109 20 16618 33 53 82 20 124 20 28 25 361 20 27
leaf_count=1361 22 28 27 6774 27 28 22 24 23 207 24 83 22 32 109 20 16618 33 53 82 20 124 20 28 25 361 20 27
internal_value=0 1.80241 -0.00464129 -0.0100329 0.912171 0.678562 0.178147 0.518176 0.128035 -0.0232688 0.379262 0.0968128 -0.0275755 0.483431 0.41527 0.115368 -0.0281928 -0.00150268 0.107056 0.345605 0.35239 0.0508664 0.178341 -0.0390828 0.281553 0.0185488 0.186031 0.0911174
internal_weight=0 74 26170 26017 153 126 1702 46 1457 24315 98 840 23475 245 213 1434 23453 6807 1414 191 128 712 144 16646 108 568 74 47
internal_count=26244 74 26170 26017 153 126 1702 46 1457 24315 98 840 23475 245 213 1434 23453 6807 1414 191 128 712 144 16646 108 568 74 47
cat_boundaries=0 4 9 14
cat_threshold=4096 768 33554432 16777731 591969 944773130 3036679296 545268016 208 327744 67108866 0 16 128
is_linear=0
shrinkage=0.01


Tree=19
num_leaves=42
num_cat=7
split_feature=4 9 25 0 5 11 5 6 11 24 25 0 26 9 16 0 0 12 6 24 0 24 8 12 7 0 11 5 4 25 4 26 12 17 26 10 0 0 4 25 26
split_gain=1.82946e+06 1.00444e+06 895053 392627 358106 177507 169244 153445 142097 110653 110091 104089 103440 85112.7 82488.9 79942.6 58788 47545.5 46944.2 43193.4 46959.1 42607.8 41504.3 39687.4 36034.3 34795.4 33117.5 28108.8 16483.5 14685.8 11988.4 10854.8 9790.75 8934.16 6500.1 6253.01 5499.88 5437.63 2224.69 1524.8 816.868
threshold=190.11000000000004 264.86200000000002 0 40.970260000000003 204.51250000000002 59.121000000000009 71.706140000000019 143.94650000000004 48.180000000000014 1 2 40.970260000000003 2022.5000000000002 55.04196000000001 172.44400000000002 68.907500000000013 200.01000000000002 31.272000000000006 207.64214000000001 3 158.59650000000002 4 52.413750000000007 10.870970000000002 12.741500000000002 48.021000000000008 246.25300000000004 28.050000000000001 284.92500000000001 5 447.12500000000006 2022.5000000000002 192.50925000000004 55.725000000000001 2022.5000000000002 12.987 79.007400000000004 191.29000000000002 26.148750000000003 6 2022.5000000000002
decision_type=2 2 9 2 2 2 2 2 2 1 9 2 2 2 2 2 2 2 2 1 2 1 2 2 2 2 2 2 2 9 2 2 2 2 2 2 2 2 2 9 2
left_child=2 4 3 7 13 10 23 9 12 34 11 14 15 25 27 -5 -17 21 -9 20 -13 -11 37 26 -25 28 35 -4 -2 33 -30 -21 -19 36 -1 -7 -12 -14 39 -31 -40
right_child=1 -3 5 8 -6 6 -8 18 -10 17 29 19 22 -15 -16 16 -18 32 -20 31 -22 -23 -24 24 -26 -27 -28 -29 30 38 -32 -33 -34 -35 -36 -37 -38 -39 40 -41 -42
leaf_value=0.37367325626435832 0.48279854059219363 3.1463255290985108 -0.0059558037802004277 1.1598514507367061 1.9037308174630871 -0.034432853789165101 1.0423862825393677 1.0431322892506918 1.1963510510325432 0.17928965876684266 -0.028000036216493988 0.22751910755128571 0.16303408904075625 1.1253592118762787 0.57425799705982206 0.35322368372403662 0.8332389761152722 0.28718224191665648 0.43831915035392299 0.15218902655965402 0.65366733986990799 0.050769608768914606 0.60523532910780475 0.66240620099581204 0.10546298708234515 0.77951182251626794 0.42935218984430484 0.093365008731350854 0.041243333609207816 -0.052389405398502065 0.37600488781929015 0.0018010178838194031 0.5581631331443786 0.184319458514452 0.52089083008846992 0.15097045977478443 0.088154934114072395 -0.032064448356628417 0.041163055195527917 -0.042982592764108665 -0.019171294226790921
leaf_weight=61 38 20 6062 26 23 87 25 21 32 367 7084 99 50 21 25 65 42 40 33 95 35 911 22 26 21 22 22 299 23 3214 20 97 20 20 59 23 41 20 34 6933 66
leaf_count=61 38 20 6062 26 23 87 25 21 32 367 7084 99 50 21 25 65 42 40 33 95 35 911 22 26 21 22 22 299 23 3214 20 97 20 20 59 23 41 20 34 6933 66
internal_value=0 1.04377 -0.0062318 0.210297 0.757705 -0.022067 0.271663 0.150065 0.572843 0.130678 -0.0245621 0.00984884 0.484166 0.545136 0.000965942 0.662494 0.541641 0.101633 0.673524 0.184158 0.315297 0.0894765 0.226365 0.164021 0.413559 0.426838 0.0751698 -0.00128721 0.33105 -0.037826 0.196946 0.0724389 0.377509 -0.0267018 0.411743 0.00433329 -0.0273316 0.107292 -0.0455491 -0.0460561 0.00134238
internal_weight=0 167 26077 1769 147 24308 204 1512 257 1458 24104 6712 225 124 6386 133 107 1338 54 326 134 1278 92 179 47 103 132 6361 81 17392 43 192 60 7145 120 110 7125 70 10247 10147 100
internal_count=26244 167 26077 1769 147 24308 204 1512 257 1458 24104 6712 225 124 6386 133 107 1338 54 326 134 1278 92 179 47 103 132 6361 81 17392 43 192 60 7145 120 110 7125 70 10247 10147 100
cat_boundaries=0 4 5 10 11 12 17 21
cat_threshold=4096 768 570425344 16777731 64 591937 943724554 2499808640 545268016 144 241 529 5408300 126877696 1210188346 203953216 72 1124073728 17472 1101829 49164
is_linear=0
shrinkage=0.01


Tree=20
num_leaves=35
num_cat=6
split_feature=1 4 25 2 0 1 0 2 9 9 4 5 25 5 15 0 9 0 4 2 24 25 6 5 0 2 5 0 26 25 7 1 25 1
split_gain=2.30125e+06 1.93376e+06 939566 510321 339744 268346 188708 149028 192183 123873 193958 98847.9 79001.1 72136.5 68076.2 65677.3 95173.2 58270.6 53905.4 50090.6 49750.3 75423.9 58606.5 44992.6 41924.3 34320.4 29489.5 19502.2 16414.8 14435.3 13120.5 12225.7 2263.32 94.4369
threshold=251.15500000000006 97.970000000000013 0 217.80750000000003 62.280000000000008 94.435000000000016 42.542500000000011 51.526500000000006 97.343750000000014 35.930000000000007 87.520000000000024 81.765000000000015 1 3.4260000000000006 58.623000000000012 27.426188000000007 80.381250000000009 191.29000000000002 8.7298300000000015 419.01500000000004 2 3 167.12000000000003 85.894600000000011 53.95000000000001 91.184000000000012 25.040110000000002 35.463750000000012 2022.5000000000002 4 83.429500000000004 391.78750000000008 5 120.51500000000001
decision_type=2 2 9 2 2 2 2 2 2 2 2 2 9 2 2 2 2 2 2 2 1 9 2 2 2 2 2 2 2 9 2 2 9 2
left_child=2 4 3 7 31 9 13 15 18 12 14 19 17 28 27 20 24 26 25 -5 21 -1 -22 -20 -17 -9 -4 -11 -7 30 -14 -2 -31 -30
right_child=1 -3 5 11 -6 6 -8 8 -10 10 -12 -13 29 -15 -16 16 -18 -19 23 -21 22 -23 -24 -25 -26 -27 -28 -29 33 32 -32 -33 -34 -35
leaf_value=0.10853422645656835 -0.035518420594079156 3.2395937528108294 -0.0027486872781158469 0.48807663281758629 1.4856396433023307 0.25043973458440677 1.1374268834344272 0.41077391008536018 1.364912841660636 0.033272042062043317 1.0674297551675276 1.6875830969810486 -0.02697174036728936 0.73835484027862552 0.61409318546454106 0.58590755883852641 0.93029524906821881 0.39024259872925593 0.3614594054476995 1.1787667755853561 0.048549774711715177 0.33602564041487504 0.5518052188555399 0.929713863026012 0.17497971322801376 0.0023191587130228677 0.097888837932375433 0.26388415259974346 -0.012593095287680628 -0.034177273931111037 0.22334574540456134 0.25060839459300044 -0.047169099271077888 -0.041262776763350877
leaf_weight=452 28 38 5647 21 26 38 29 36 21 289 22 20 7276 22 24 30 23 39 38 21 646 234 24 22 144 48 307 42 20 1935 21 32 8363 27
leaf_count=452 28 38 5647 21 26 38 29 36 21 289 22 20 7276 22 24 30 23 39 38 21 646 234 24 22 144 48 307 42 20 1935 21 32 8363 27
internal_value=0 1.36094 -0.00461769 0.216434 0.530832 -0.0210248 0.421911 0.185484 0.471221 -0.0235472 0.156288 1.10896 -0.0264214 0.227987 0.0998225 0.155126 0.325742 0.00495577 0.340891 0.833422 0.130339 0.189846 0.0655978 0.569819 0.245829 0.177371 0.00244038 0.062534 0.0958912 -0.0370905 -0.0262154 0.117083 -0.0447635 -0.0290629
internal_weight=0 124 25881 1780 86 24101 136 1718 165 23965 377 62 23588 107 355 1553 197 5993 144 42 1356 686 670 60 174 84 5954 331 85 17595 7297 60 10298 47
internal_count=26005 124 25881 1780 86 24101 136 1718 165 23965 377 62 23588 107 355 1553 197 5993 144 42 1356 686 670 60 174 84 5954 331 85 17595 7297 60 10298 47
cat_boundaries=0 4 9 10 14 19 24
cat_threshold=33558528 768 50331648 16777731 591936 809506826 805308800 914432272 192 723 33558528 0 0 16777218 609648684 252706848 3355444242 137106496 8 2097155 1073741824 67502120 0 16
is_linear=0
shrinkage=0.01


Tree=21
num_leaves=39
num_cat=9
split_feature=2 9 25 7 0 14 11 2 16 12 25 0 6 0 24 25 24 26 7 0 2 7 3 10 24 6 26 25 8 25 11 11 26 6 7 25 16 2
split_gain=2.12538e+06 1.49286e+06 808955 724802 283117 236171 225896 204815 157459 120768 102259 97668.1 86220.1 79178.4 61934 67424 116388 53764.8 52854.7 51861.3 49747.8 48426.4 41269.2 40861.8 37235.3 30699.1 23328.4 17678.8 15981.9 15289.8 14685 13269.6 11537.1 8307.27 6917.41 3035.13 3016.36 2536.55
threshold=177.31000000000003 58.998750000000008 0 179.37000000000003 27.426188000000007 109.92975000000003 99.852000000000018 384.92975000000007 132.24115000000003 10.870970000000002 1 36.957750000000011 129.78950000000003 114.96700000000001 2 3 4 2022.5000000000002 118.89700000000002 53.95000000000001 81.931750000000008 22.432500000000001 87.39800000000001 18.332500000000003 5 8.1130000000000013 2022.5000000000002 6 36.632750000000009 7 235.27000000000004 145.83000000000001 2022.5000000000002 232.61250000000004 102.72020000000002 8 247.22670000000002 229.45150000000004
decision_type=2 2 9 2 2 2 2 2 2 2 9 2 2 2 1 9 1 2 2 2 2 2 2 2 1 2 2 9 2 9 2 2 2 2 2 9 2 2
left_child=2 7 4 -3 12 17 8 13 10 30 11 23 14 32 15 24 -17 19 27 -6 -13 33 28 -4 -1 -21 -9 -16 -19 34 31 -8 -2 -14 -12 -31 -10 -34
right_child=1 3 6 -5 5 -7 9 26 36 -11 29 20 21 -15 18 16 -18 22 -20 25 -22 -23 -24 -25 -26 -27 -28 -29 -30 35 -32 -33 37 -35 -36 -37 -38 -39
leaf_value=0.24565597152995491 0.31775410569272938 1.4200553252480248 -0.0043525946268902918 4.0173610174088257 0.98724806124513809 1.4051398517535285 0.29008718543582496 1.313123061106755 0.50395030929928741 0.96693079456206299 -0.024997183260833757 0.14243991263349606 0.19001100415768832 0.88542113327980054 0.090135228448581198 0.53490592891829347 0.066819856007551331 0.070919443368911747 0.56788799715042115 0.5408061849645206 0.62383817004120867 0.91476404109597209 0.57821130711456825 0.12511435604679819 0.055361204001478558 0.12117780208587647 0.87591350016386615 -0.013296011836821851 0.38598503249032157 -0.033453181870186921 0.45282786536216735 -0.026430266728767981 0.15299751758575439 0.46510553768702911 0.15677677688144503 -0.046651684089792776 0.67344153154463993 0.004481692106827446
leaf_weight=157 36 22 5541 21 22 26 27 26 21 31 6799 322 23 20 376 130 106 69 20 84 23 20 29 255 321 22 23 291 21 2545 20 26 23 21 21 8421 21 23
leaf_count=157 36 22 5541 21 22 26 27 26 21 31 6799 322 23 20 376 130 106 69 20 84 23 20 29 255 321 22 23 291 21 2545 20 26 23 21 21 8421 21 23
internal_value=0 1.04465 -0.00596153 2.68851 0.201763 0.498586 -0.0210337 0.576535 -0.0230603 0.444006 -0.0241341 0.0110552 0.147828 0.321271 0.131431 0.196115 0.335927 0.403159 0.0604704 0.545415 0.174533 0.506762 0.250145 0.00134342 0.121617 0.453714 1.1079 0.0461621 0.144435 -0.0362698 0.221941 0.134814 0.183673 0.321306 -0.0244017 -0.0436218 0.588696 0.0787396
internal_weight=0 194 25811 43 1738 273 24073 151 23969 104 23927 6141 1465 102 1401 714 236 247 687 128 345 64 119 5796 478 106 49 667 90 17786 73 53 82 44 6820 10966 42 46
internal_count=26005 194 25811 43 1738 273 24073 151 23969 104 23927 6141 1465 102 1401 714 236 247 687 128 345 64 119 5796 478 106 49 667 90 17786 73 53 82 44 6820 10966 42 46
cat_boundaries=0 4 9 10 14 15 16 20 25 30
cat_threshold=33558528 768 50331648 16777731 591936 272635914 2952791424 545333264 192 723 33558528 0 0 16777218 82 129 4096 0 0 2 609648678 754974752 1207961618 506205504 8 2097161 1108344832 393256 0 16
is_linear=0
shrinkage=0.01


Tree=22
num_leaves=33
num_cat=3
split_feature=1 4 25 2 0 1 0 12 3 9 25 11 5 2 3 9 3 2 5 0 11 5 0 13 25 3 1 2 12 3 1 1
split_gain=2.23386e+06 1.88075e+06 902448 559204 330057 247611 191793 174799 154409 150132 107363 122479 95248.9 75860 103825 60267 48891.2 42293.5 40869.6 39303.8 41590.2 33766.3 26866.8 19892 16059 13597.7 11816.8 7617 6905.11 5648.38 5117.26 4100.62
threshold=251.15500000000006 97.970000000000013 0 208.38500000000002 62.280000000000008 94.435000000000016 4.9567725000000005 51.970000000000006 207.64214000000001 81.782500000000013 1 260.69400000000007 96.200000000000017 59.190000000000005 57.443000000000012 35.930000000000007 25.7013 419.01500000000004 57.324000000000012 15.133500000000003 204.11250000000004 172.43500000000003 53.95000000000001 33.347500000000004 2 314.11250000000007 391.78750000000008 98.805000000000021 140.97174000000004 251.90500000000006 116.25000000000001 169.57500000000002
decision_type=2 2 9 2 2 2 2 2 2 2 9 2 2 2 2 2 2 2 2 2 2 2 2 2 9 2 2 2 2 2 2 2
left_child=2 4 3 7 26 8 16 13 10 23 11 15 17 19 27 -4 30 -5 -16 20 -1 24 -21 28 -12 29 -2 -15 -9 -10 -7 -32
right_child=1 -3 5 12 -6 6 -8 9 25 -11 21 -13 -14 14 18 -17 -18 -19 -20 22 -22 -23 -24 -25 -26 -27 -28 -29 -30 -31 31 -33
leaf_value=0.1076659599630688 -0.035628315636089869 3.1935839143552278 0.0061163426333859664 0.57334799049865637 1.4633049510075495 0.16763090827067692 1.0051007761453328 0.12297959617206029 0.48412042969749086 1.1816594007809957 -0.023681700685910308 0.77830683526538669 1.7285442700386049 0.28949000080426535 0.48480233025550845 0.17706479405525119 0.60440196990966799 1.2158939962387085 1.1164389514923097 0.44934668528622596 0.56767543160915379 0.3757570178508759 0.19284946408824646 0.58227199678835662 -0.042792531356135068 0.67980377038319906 0.24567318320274353 0.094275145036418262 0.36285992713201615 0.25218496731349399 -0.075460387632764622 0.10333791857180388
leaf_weight=1137 28 38 5055 21 26 30 38 28 21 30 7325 21 20 39 20 215 21 20 21 58 20 20 138 23 11404 21 32 41 21 21 29 23
leaf_count=1137 28 38 5055 21 26 30 38 28 21 30 7325 21 20 39 20 215 21 20 21 58 20 20 138 23 11404 21 32 41 21 21 29 23
internal_value=0 1.34086 -0.00455448 0.221965 0.522208 -0.0199328 0.397898 0.186959 -0.0223854 0.587309 -0.0236811 0.0160972 1.16277 0.159255 0.399146 0.0130905 0.173881 0.886785 0.808324 0.137801 0.115618 -0.0348965 0.268752 0.339663 -0.0353537 0.472036 0.114399 0.189442 0.225785 0.368153 0.0636262 0.00362348
internal_weight=0 124 25881 1637 86 24244 141 1576 24103 102 24040 5291 61 1474 121 5270 103 41 41 1353 1157 18749 196 72 18729 63 60 80 49 42 82 52
internal_count=26005 124 25881 1637 86 24244 141 1576 24103 102 24040 5291 61 1474 121 5270 103 41 41 1353 1157 18749 196 72 18729 63 60 80 49 42 82 52
cat_boundaries=0 4 9 14
cat_threshold=4096 768 33554432 16777729 33622080 272635914 822083712 545333522 128 610172966 738197504 2147486994 369890368 72
is_linear=0
shrinkage=0.01


Tree=23
num_leaves=36
num_cat=6
split_feature=1 2 25 2 1 6 0 0 14 11 5 25 0 24 5 0 9 15 11 25 6 26 26 2 5 0 11 9 8 26 13 25 10 25 1
split_gain=2.1894e+06 1.742e+06 884491 548076 242684 196165 188368 153124 155313 132421 93353.4 91981.8 91638.2 69528.1 66958.1 65264.3 54948.1 84906 54525 49410.3 48772.6 44187 43645.9 41451.9 36910.4 32506.2 30962.9 46435.1 24299.7 16289.1 14808.2 14645.2 6845.71 3151.48 163.031
threshold=251.15500000000006 58.311000000000007 0 208.38500000000002 94.435000000000016 45.292500000000004 42.542500000000011 27.426188000000007 109.92975000000003 59.121000000000009 96.200000000000017 1 67.332000000000022 2 3.4260000000000006 53.95000000000001 35.930000000000007 42.630500000000005 15.133500000000003 3 85.717500000000015 2022.5000000000002 2022.5000000000002 419.01500000000004 15.089200000000003 8.9327500000000004 282.94848000000007 1.7075000000000002 44.481000000000009 2022.5000000000002 33.347500000000004 4 25.597000000000005 5 120.51500000000001
decision_type=2 2 9 2 2 2 2 2 2 2 2 9 2 1 2 2 2 2 2 9 2 2 2 2 2 2 2 2 2 2 2 9 2 9 2
left_child=2 5 3 7 9 22 14 13 15 11 23 16 26 20 29 21 25 -18 19 -15 30 -9 -2 -5 -20 -4 27 -11 -17 -6 -1 32 -13 -33 -31
right_child=1 -3 4 10 6 -7 -8 8 -10 12 -12 31 -14 18 -16 28 17 -19 24 -21 -22 -23 -24 -25 -26 -27 -28 -29 -30 34 -32 33 -34 -35 -36
leaf_value=0.01526349725070336 0.49802403531755723 3.077252777050703 -0.0036944383876942148 0.56761450100512734 0.23681581888443387 1.3906446461677553 1.1122159941443082 1.0162030631303787 1.2129718194224619 -0.007389961701852305 1.7112588334083558 -0.025315493258541339 0.82743888937908672 0.042499261889103294 0.68890767242597495 0.20082213146345956 0.10271927855480677 0.77585451716468445 0.31945459895017669 0.23188530585982584 0.42473829096013854 0.35943092834949497 -0.021772957404454549 1.2037350091934205 0.84345586681365969 0.074793066937090591 0.51730722745259605 0.3637718504059072 0.4862233793413317 -0.01373207837343216 0.25592397972389502 -0.03279518973848726 0.046089862254414242 -0.045743618504182064 -0.050591100056966147
leaf_weight=482 35 39 5068 21 39 20 29 21 22 108 20 6721 23 212 23 154 174 21 41 507 33 20 30 20 20 589 21 49 37 20 27 2780 137 8412 30
leaf_count=482 35 39 5068 21 39 20 29 21 22 108 20 6721 23 212 23 154 174 21 41 507 33 20 30 20 20 589 21 49 37 20 27 2780 137 8412 30
internal_value=0 1.32745 -0.00450919 0.219745 -0.0197338 0.524595 0.393919 0.185089 0.409965 -0.0221618 1.15114 -0.0243112 0.233439 0.141883 0.207931 0.333818 0.0101494 0.175211 0.201628 0.17986 0.0512379 0.695826 0.258118 0.877917 0.491258 0.00447759 0.156686 0.10845 0.256109 0.0836342 0.0280294 -0.0354697 -0.0238543 -0.0425595 -0.0358475
internal_weight=0 124 25881 1637 24244 85 141 1576 254 24103 61 23902 201 1322 112 232 5852 195 780 719 542 41 65 41 61 5657 178 157 191 89 509 18050 6858 11192 50
internal_count=26005 124 25881 1637 24244 85 141 1576 254 24103 61 23902 201 1322 112 232 5852 195 780 719 542 41 65 41 61 5657 178 157 191 89 509 18050 6858 11192 50
cat_boundaries=0 4 9 10 14 19 24
cat_threshold=4096 768 33554432 16777729 34146368 272635914 822085760 612442386 192 3340 0 0 0 16777217 609648678 738197536 3355444498 304616512 8 2097161 1125122048 393256 134479872 16
is_linear=0
shrinkage=0.01


Tree=24
num_leaves=31
num_cat=0
split_feature=1 4 2 9 0 5 0 0 3 14 11 2 2 4 13 8 16 9 2 1 12 5 1 13 26 2 1 4 1 3
split_gain=2.14583e+06 1.82366e+06 777922 457280 318258 256123 243096 206221 180099 183217 154897 104517 86380.5 77564.8 99071.3 53892.1 53426.6 47656.4 47497.8 41821.5 40358.8 40157.1 24326.7 22872.4 18001.1 11563.3 11265.6 11146.2 7048.27 2199.78
threshold=251.15500000000006 97.970000000000013 81.931750000000008 58.998750000000008 62.280000000000008 69.528000000000006 41.563500000000005 40.970260000000003 52.454000000000008 36.424000000000014 282.94848000000007 204.84585000000001 494.83500000000009 54.048000000000009 33.347500000000004 33.699000000000005 321.00000000000006 48.009250000000009 107.09900000000002 28.609500000000001 54.530000000000008 57.324000000000012 58.977750000000007 51.970000000000006 2022.5000000000002 91.184000000000012 391.78750000000008 11.224000000000002 67.497500000000016 46.401000000000003
decision_type=2 2 2 2 2 2 2 2 2 2 2 2 2 2 2 2 2 2 2 2 2 2 2 2 2 2 2 2 2 2
left_child=2 4 6 7 26 -5 10 12 19 15 13 18 21 16 17 22 20 -15 -9 23 -1 25 -10 24 -8 -4 -2 28 -21 -20
right_child=1 -3 3 5 -6 -7 8 11 9 -11 -12 -13 -14 14 -16 -17 -18 -19 29 27 -22 -23 -24 -25 -26 -27 -28 -29 -30 -31
leaf_value=-0.021012657789872088 -0.038893233452524462 3.1385633508782638 0.23583710010235126 0.62967965632677081 1.4321680175341092 2.0080164129688187 0.1189827143521288 0.83835381798122244 0.072494741816853378 1.4167591772079466 0.64841344506399978 1.2017178857737574 0.77860381698608394 0.045026683735124994 0.67998397455612813 0.7925529459118843 0.49720826721191408 0.51751745886776757 0.19388288593292238 0.11364353808441333 0.12270049397110334 0.43293950875600185 0.48772350901649114 0.39265338443574449 -0.0045835742759115904 0.0091246349012066505 0.23576887905597688 0.47114050609724867 0.33089501710608604 0.34219945269823071
leaf_weight=24204 28 38 26 28 26 26 229 23 43 20 35 29 20 297 30 21 20 23 20 28 197 30 21 21 243 167 32 28 32 20
leaf_count=24204 28 38 26 28 26 26 229 23 43 20 35 29 20 297 30 21 20 23 20 28 197 30 21 21 243 167 32 28 32 20
internal_value=0 1.31417 -0.00446334 0.439355 0.508046 1.29332 -0.0112359 0.3017 0.17446 0.555603 -0.0163712 0.70493 0.149036 -0.0173105 0.130501 0.352977 -0.0194289 0.078987 0.476251 0.105579 -0.0198524 0.0925729 0.208742 0.0697342 0.055367 0.0396662 0.107593 0.306393 0.229511 0.268041
internal_weight=0 124 25881 389 86 54 25492 335 686 105 24806 92 243 24771 350 85 24421 320 63 581 24401 223 64 493 472 193 60 88 60 40
internal_count=26005 124 25881 389 86 54 25492 335 686 105 24806 92 243 24771 350 85 24421 320 63 581 24401 223 64 493 472 193 60 88 60 40
is_linear=0
shrinkage=0.01


Tree=25
num_leaves=27
num_cat=1
split_feature=1 4 0 1 14 9 5 11 4 9 3 1 0 1 3 10 1 5 7 24 1 4 8 0 9 10
split_gain=2.08237e+06 1.73983e+06 979156 473919 284698 268512 448979 224714 209407 156345 117970 102598 96466.7 85181.2 80491.1 72437.3 67210.4 53344.9 31287.1 35098.9 30231.4 29375.7 29206.7 10275.2 8197.68 7330.92
threshold=339.20400000000006 100.23989500000002 99.697500000000005 88.498500000000007 104.78450000000001 42.096000000000011 69.528000000000006 282.94848000000007 97.970000000000013 129.78950000000003 81.646530000000013 46.817500000000003 7.2150000000000007 28.609500000000001 30.162500000000005 169.64750000000001 494.83500000000009 305.65698000000003 108.27000000000001 0 100.23989500000002 26.842500000000005 22.525000000000002 28.050000000000001 139.07300000000001 314.11250000000007
decision_type=2 2 2 2 2 2 2 2 2 2 2 2 2 2 2 2 2 2 2 1 2 2 2 2 2 2
left_child=2 16 5 4 13 7 10 11 14 -8 22 15 21 18 -5 17 -2 -1 19 -4 -14 -13 24 -24 -7 -17
right_child=1 -3 3 8 -6 6 9 -9 -10 -11 -12 12 20 -15 -16 25 -18 -19 -20 -21 -22 -23 23 -25 -26 -27
leaf_value=-0.020912160383289576 0.80362005154291793 3.4686697080058435 0.010701300807115509 1.1918360700974098 1.4829603838920593 0.049715186244979198 0.63387714274998364 0.87981339795248847 1.9477416856472309 1.7518110838803378 0.70960558360622772 0.010086567670623691 0.2604755837696322 0.6970584482679496 0.34801349258422853 0.38286038553991986 0.055230408509572344 0.37546098190195426 0.56253122806549072 0.26086304080206901 0.59740909063502368 0.24977314325173697 0.15313468598857008 0.38929571944806313 -0.073218639055887866 0.17262199794804609
leaf_weight=24828 24 31 113 26 20 196 29 28 26 22 31 346 89 37 20 43 24 34 20 118 38 60 58 27 75 27
leaf_count=24828 24 31 113 26 20 196 29 28 26 22 31 346 89 37 20 43 24 34 20 118 38 60 58 27 75 27
internal_value=0 1.62204 -0.0039436 0.499992 0.329246 -0.0113284 0.234168 -0.0155463 1.23041 1.11612 0.117941 -0.0165308 0.120751 0.249127 0.824957 -0.0194657 0.429425 -0.0203701 0.183097 0.150246 0.36129 0.0455082 0.0664202 0.228151 0.0156929 0.301768
internal_weight=0 79 26311 380 308 25931 438 25493 72 51 387 25465 533 288 46 24932 48 24862 251 231 127 406 356 85 271 70
internal_count=26390 79 26311 380 308 25931 438 25493 72 51 387 25465 533 288 46 24932 48 24862 251 231 127 406 356 85 271 70
cat_boundaries=0 1
cat_threshold=2984
is_linear=0
shrinkage=0.01


Tree=26
num_leaves=31
num_cat=1
split_feature=1 4 3 0 1 12 9 5 11 0 0 3 4 13 3 5 9 5 26 10 8 24 1 11 1 8 4 9 1 1
split_gain=2.04469e+06 1.99758e+06 1.05841e+06 760521 471394 190529 180889 366192 210070 163123 145798 102344 93810.3 129336 80046.1 66029.8 54008.8 52684.9 52528.6 46658.9 34089.8 29882.7 29153.7 28872.9 28791.5 16977.9 14332.2 9806.74 5898.22 9120.92
threshold=251.15500000000006 97.970000000000013 133.80750000000003 42.542500000000011 87.037500000000009 59.28848 100.38539500000002 69.528000000000006 282.94848000000007 62.280000000000008 99.697500000000005 43.107000000000006 87.520000000000024 28.887 172.66900000000001 57.324000000000012 33.834000000000003 305.65698000000003 2022.5000000000002 105.36000000000001 11.960800000000003 0 41.811 18.906000000000002 140.66174000000004 12.061500000000002 11.955697000000002 129.78950000000003 494.83500000000009 315.50700000000006
decision_type=2 2 2 2 2 2 2 2 2 2 2 2 2 2 2 2 2 2 2 2 2 1 2 2 2 2 2 2 2 2
left_child=3 9 -3 6 5 15 8 11 12 28 -7 25 17 22 16 18 24 19 21 -1 26 -5 -14 -20 -6 27 -17 -8 29 -2
right_child=1 2 -4 4 14 10 7 -9 -10 -11 -12 -13 13 -15 -16 20 -18 -19 23 -21 -22 -23 -24 -25 -26 -27 -28 -29 -30 -31
leaf_value=-0.021322817220540996 0.098349464398164027 1.4271273765563965 4.6414787819839658 0.33272540862635369 0.84786098849388869 0.24623909731705984 0.15878600138684978 1.5854827237129212 0.8335439076916924 1.1088925678253174 1.1462338127609757 0.80224011707305909 0.05810736417770386 0.95282096672058103 1.5203773174285888 0.4576729819855907 1.2533751993179321 0.36783242361886159 -0.020513536243009771 0.18602658438026359 0.75399031996726995 0.10901578636839986 0.38259839505860299 0.27623874923116282 0.38651431786517298 0.29622714114189147 0.087798473834991453 -0.076183680739158238 0.018508378505706788 0.37855184736705966
leaf_weight=24889 26 20 21 117 31 36 23 20 29 25 36 20 172 20 20 22 20 35 239 109 24 182 33 38 24 20 20 78 20 21
leaf_count=24889 26 20 21 117 31 36 23 20 29 25 36 20 172 20 20 22 20 35 239 109 24 182 33 38 24 20 20 78 20 21
internal_value=0 1.23769 3.0735 -0.00534898 0.296497 0.208447 -0.0149448 0.319185 -0.0170721 0.419556 0.696236 0.139568 -0.0180488 0.185229 0.958264 0.153741 0.808367 -0.0198759 0.119412 -0.0204187 0.453342 0.211328 0.110343 0.0201962 0.646546 0.0300355 0.281542 -0.0226757 0.162341 0.223546
internal_weight=0 133 41 26257 809 714 25448 161 25287 92 72 141 25258 225 95 642 75 25033 576 24998 66 299 205 277 55 121 42 101 67 47
internal_count=26390 133 41 26257 809 714 25448 161 25287 92 72 141 25258 225 95 642 75 25033 576 24998 66 299 205 277 55 121 42 101 67 47
cat_boundaries=0 1
cat_threshold=102
is_linear=0
shrinkage=0.01


Tree=27
num_leaves=40
num_cat=7
split_feature=1 4 3 25 12 0 1 0 0 0 7 12 24 8 11 24 25 11 4 1 0 10 2 25 11 26 2 4 13 12 16 1 25 26 5 1 1 2 25
split_gain=2.00399e+06 1.95783e+06 1.03734e+06 803013 361088 254431 252730 159877 141891 139991 141590 115168 114439 112102 100048 93081.5 92924.4 85662.4 84667.6 55263.2 67940.2 49157.6 45885.8 43555.3 42545.3 40950.4 40933.5 37843.2 37162.9 19635.2 16859.5 16285.9 14073.1 13162.5 12558 5780.85 8939.41 5274.78 2232.93
threshold=251.15500000000006 97.970000000000013 133.80750000000003 0 59.28848 79.007400000000004 112.13400000000003 62.280000000000008 15.133500000000003 105.26700000000001 83.429500000000004 64.748000000000005 1 140.66174000000004 12.964322000000003 2 3 17.035000000000007 87.520000000000024 59.776500000000013 7.2150000000000007 53.171000000000014 87.39800000000001 4 246.25300000000004 2022.5000000000002 204.84585000000001 81.720000000000013 65.140000000000015 145.83000000000001 67.243500000000026 48.375500000000009 5 2022.5000000000002 88.215000000000018 494.83500000000009 315.50700000000006 107.09900000000002 6
decision_type=2 2 2 9 2 2 2 2 2 2 2 2 1 2 2 1 9 2 2 2 2 2 2 9 2 2 2 2 2 2 2 2 9 2 2 2 2 2 9
left_child=3 7 -3 4 8 16 11 35 12 10 21 22 14 15 25 27 17 19 24 26 -21 29 33 28 -19 -1 -5 -10 -14 -6 32 -17 34 -7 -18 36 -2 -25 -34
right_child=1 2 -4 5 9 6 -8 -9 13 -11 -12 -13 23 -15 -16 31 30 18 -20 20 -22 -23 -24 37 -26 -27 -28 -29 -30 -31 -32 -33 38 -35 -36 -37 -38 -39 -40
leaf_value=0.39736081608271195 0.097365971711965718 1.4128561038970946 4.5950639874594552 -0.0049399490905899972 0.34334737221399941 0.15500252667364184 1.3402047992887953 1.0978036304473877 0.48204799577720797 1.3876284341458922 1.2890728588700295 0.82670257366620581 0.11098015440868102 1.0811835443405877 1.01268705368042 0.038347378929456076 -0.024579086287659008 0.09353549170706954 0.7869798419589088 0.074441553375937719 0.58589826778453946 0.72948228311538699 0.50110607555934361 -0.021674085886620766 0.56153486978440059 0.11841725530122457 0.37833019375801086 0.96393975114822383 0.48252948488507957 -0.089090106316975184 0.25544191837310792 0.2749264098322669 -0.047755527389029204 -0.010818032522012693 0.15772397245231429 0.018323298215866087 0.37476632981073288 0.14550385117530823 -0.037980994387347491
leaf_weight=118 26 20 21 5808 21 91 21 25 88 27 20 26 698 21 20 90 6714 259 21 110 34 20 28 335 21 95 28 20 28 21 20 43 4498 101 38 20 21 20 6754
leaf_count=118 26 20 21 5808 21 91 21 25 88 27 20 26 698 21 20 90 6714 259 21 110 34 20 28 335 21 95 28 20 28 21 20 43 4498 101 38 20 21 20 6754
internal_value=0 1.22531 3.04277 -0.00529381 0.205233 -0.0198059 0.287199 0.41536 0.167953 0.763087 0.557445 0.197308 0.125583 0.380446 0.322601 0.319386 -0.0231866 0.00994367 0.174566 0.0016741 0.195202 0.321436 0.122925 0.0793989 0.128635 0.272949 -0.00310109 0.522873 0.123607 0.127129 -0.0347181 0.106805 -0.0350598 0.067774 -0.0235183 0.160718 0.221311 -0.0119198 -0.0419273
internal_weight=0 133 41 26257 1685 24572 267 92 1576 109 82 246 1314 262 233 241 24305 6281 301 5980 144 62 220 1081 280 213 5836 108 726 42 18024 133 18004 192 6752 67 47 355 11252
internal_count=26390 133 41 26257 1685 24572 267 92 1576 109 82 246 1314 262 233 241 24305 6281 301 5980 144 62 220 1081 280 213 5836 108 726 42 18024 133 18004 192 6752 67 47 355 11252
cat_boundaries=0 4 5 6 11 15 20 25
cat_threshold=33558528 512 570425344 16777731 65 362 723008 272632066 2164264320 612368400 208 33558528 0 536870912 514 609517603 764416008 1142947858 269227328 8 1233126400 681024 269537317 114860 32
is_linear=0
shrinkage=0.01


Tree=28
num_leaves=38
num_cat=5
split_feature=1 4 3 25 12 9 0 1 0 0 8 2 14 4 9 25 11 11 0 10 13 10 25 5 1 1 4 0 25 12 1 26 1 1 13 5 25
split_gain=1.96411e+06 1.91887e+06 1.0167e+06 787036 353902 259147 249504 281789 156695 139068 109871 100423 98165.9 91902.5 125721 74548.3 53297.2 50180.7 46463.1 46116.6 43051.8 41593.4 40516.2 35310.7 30989.3 31868.5 24570.2 21076.2 20702.7 19391.3 18451 7808.7 5665.81 8761.52 4665.01 3874.95 2580.41
threshold=251.15500000000006 97.970000000000013 133.80750000000003 0 59.28848 58.998750000000008 65.420000000000002 112.13400000000003 62.280000000000008 15.133500000000003 140.66174000000004 87.39800000000001 21.917500000000004 85.467500000000015 11.238000000000001 1 208.80200000000002 140.97174000000004 4.5680000000000005 3.4260000000000006 65.140000000000015 59.77150000000001 2 50.389710000000008 48.375500000000009 103.88050000000001 34.828500000000005 384.92975000000007 3 145.83000000000001 35.73880900000001 2022.5000000000002 494.83500000000009 315.50700000000006 161.24500000000003 10.993455000000001 4
decision_type=2 2 2 9 2 2 2 2 2 2 2 2 2 2 2 9 2 2 2 2 2 2 9 2 2 2 2 2 9 2 2 2 2 2 2 2 9
left_child=3 8 -3 4 9 21 13 11 32 16 24 23 -7 15 19 17 20 18 -5 31 22 29 -1 30 27 -26 -13 -11 35 -6 -8 -15 33 -2 -22 -17 -30
right_child=1 2 -4 6 5 12 7 -9 -10 10 -12 26 -14 14 -16 28 -18 -19 -20 -21 34 -23 -24 -25 25 -27 -28 -29 36 -31 -32 -33 -34 -35 -36 -37 -38
leaf_value=0.084890009394959012 0.096392312508362998 1.3987275500297545 4.5491132913317003 0.0010753556664170891 0.38936843077341715 0.8878483582092892 0.043902537807241668 1.3422009502757681 1.0868256183624267 0.28309165086522198 1.0703717204502652 0.88960845613479622 1.8547573588007973 0.11813760290340503 0.8649915500640869 -0.02223763286500316 0.62406710034325008 0.51707988202571875 0.11220351003353551 0.53970039582252505 0.54437782573699944 0.72574695110321041 0.27887753093053425 0.50119011833554228 0.70030716869566179 0.27953757819202213 0.3939251236915588 -0.062633503437042229 -0.047272317508480287 -0.026727930477687289 0.30011919904500245 -0.045979145244813301 0.018140061378479004 0.37101867584955123 0.33097813606262205 0.0067040529412274461 -0.037041503091787997
leaf_weight=1136 26 20 21 3059 24 21 231 22 25 149 21 20 21 49 25 8277 21 20 429 20 20 22 116 21 36 36 20 20 4496 21 32 71 20 21 21 490 7290
leaf_count=1136 26 20 21 3059 24 21 231 22 25 149 21 20 21 49 25 8277 21 20 429 20 20 22 116 21 36 36 20 20 4496 21 32 71 20 21 21 490 7290
internal_value=0 1.21306 3.01234 -0.0052412 0.20318 0.755456 -0.0196082 0.247021 0.411207 0.166273 0.376642 0.172657 1.3713 -0.0234244 0.211776 -0.0250373 0.124327 0.0175573 0.0147434 0.0951302 0.116211 0.369403 0.105769 0.106586 0.316193 0.489922 0.641767 0.242177 -0.0323001 0.19519 0.0750772 0.0210352 0.15911 0.219098 0.435076 -0.0205965 -0.040981
internal_weight=0 133 41 26257 1685 109 24572 346 92 1576 262 324 42 24226 165 24061 1314 3508 3488 140 1293 67 1252 284 241 72 40 169 20553 45 263 120 67 47 41 8767 11786
internal_count=26390 133 41 26257 1685 109 24572 346 92 1576 262 324 42 24226 165 24061 1314 3508 3488 140 1293 67 1252 284 241 72 40 169 20553 45 263 120 67 47 41 8767 11786
cat_boundaries=0 4 9 13 18 23
cat_threshold=33558528 512 570425344 16777731 67648 272632066 2164263040 545259536 16 4096 512 536870912 16777217 610172961 756027400 69207314 336069952 200 1233126400 681024 269537317 114860 32
is_linear=0
shrinkage=0.01


Tree=29
num_leaves=35
num_cat=5
split_feature=1 4 3 25 12 9 2 24 11 6 1 1 14 11 4 13 7 25 4 1 5 1 1 10 25 1 9 10 12 5 1 25 4 2
split_gain=1.92502e+06 1.88068e+06 996468 771526 346832 253990 194895 131970 170033 120233 161823 110246 96212.4 90779.5 87071.6 81974.3 75997 66296.2 56113.8 49061.2 46881.9 41700.3 55396.7 40765.7 35466 28670.8 22830.7 22216.2 19005.4 16558.5 11810.7 10802.7 10440.1 6593.44
threshold=251.15500000000006 97.970000000000013 133.80750000000003 0 59.28848 58.998750000000008 81.931750000000008 1 15.133500000000003 42.523500000000006 48.375500000000009 169.57500000000002 21.917500000000004 59.121000000000009 7.7359 66.690500000000014 154.05000000000004 2 45.087000000000003 58.977750000000007 57.324000000000012 494.83500000000009 391.78750000000008 59.77150000000001 3 304.04690000000005 20.177500000000002 43.427604999999993 145.83000000000001 135.58212499999999 8.7298300000000015 4 9.1450000000000014 119.54000000000001
decision_type=2 2 2 9 2 2 2 1 2 2 2 2 2 2 2 2 2 9 2 2 2 2 2 2 9 2 2 2 2 2 2 9 2 2
left_child=3 21 -3 4 7 23 11 8 20 10 26 13 -7 17 24 16 -16 19 27 -5 32 22 25 28 29 -2 33 -15 -6 -9 -26 -19 -1 -8
right_child=1 2 -4 6 5 12 9 14 -10 -11 -12 -13 -14 18 15 -17 -18 31 -20 -21 -22 -23 -24 -25 30 -27 -28 -29 -30 -31 -32 -33 -34 -35
leaf_value=0.28390142606599683 0.56487650544555101 1.3847402606010437 4.5036221967424668 -0.0031390917396853569 0.38547475397586822 0.87896985970792318 0.11151155995825926 0.13558748245158275 1.2226517438888551 0.83903942301869394 0.94815750976403557 0.4959526402775834 1.8362097744714647 0.084499383060724145 0.16194318282040387 0.86491209467252095 0.81870380973815915 -0.025739586133057792 0.69243957680463797 0.18022668462471675 0.75545355819520499 0.048730796178181962 0.97575025653839109 0.71848950819535684 -0.011413024275699074 0.072214917682466059 0.38140709241231285 0.38701850463604104 -0.026460653940836586 -0.14919282958621072 0.20232887966292246 -0.042216461064832428 0.054217528429898354 -0.022945838282185216
leaf_weight=197 27 20 21 7049 24 21 60 736 22 32 24 41 21 149 148 24 20 6813 20 149 21 24 20 22 337 21 21 29 21 21 28 10092 22 93
leaf_count=197 27 20 21 7049 24 21 60 736 22 32 24 41 21 149 148 24 20 6813 20 149 21 24 20 22 337 21 21 29 21 21 28 10092 22 93
internal_value=0 1.20093 2.98222 -0.00518772 0.20117 0.747901 -0.0194125 0.164633 0.367221 0.27031 0.178394 -0.0221579 1.35759 -0.0230321 0.120527 0.318227 0.240129 -0.0247839 0.190216 0.000655705 0.304108 0.407095 0.533576 0.365709 0.0877704 0.349337 0.07222 0.133786 0.193238 0.126023 0.00485072 -0.0355951 0.260828 0.0297826
internal_weight=0 133 41 26257 1685 109 24572 1576 262 230 198 24342 42 24301 1314 192 168 24103 198 7198 240 92 68 67 1122 48 174 178 45 757 365 16905 219 153
internal_count=26390 133 41 26257 1685 109 24572 1576 262 230 198 24342 42 24301 1314 192 168 24103 198 7198 240 92 68 67 1122 48 174 178 45 757 365 16905 219 153
cat_boundaries=0 4 5 10 14 19
cat_threshold=33558528 512 570425344 16777731 65 723041 809507082 2164264066 880804112 208 33558528 0 536870912 514 609518090 2375024640 1277297424 137106496 8
is_linear=0
shrinkage=0.01


Tree=30
num_leaves=37
num_cat=4
split_feature=1 4 25 9 5 0 1 0 0 3 0 25 12 5 0 10 13 0 3 0 10 26 25 1 25 4 0 1 1 6 6 0 1 0 26 0
split_gain=1.66291e+06 1.35855e+06 787098 281661 286208 277772 215335 134442 131873 117878 108162 86723.6 78344.5 78052.6 62841.6 52927.2 50141.3 42738.3 40220.2 39392.4 30387.5 26830.5 26477.4 24607.1 20881.4 21561.9 20393.5 17232.1 16936 15556.1 13614.1 13467.5 10031 2319.32 2278.9 62.9205
threshold=251.15500000000006 159.11250000000004 0 62.00650000000001 59.017500000000005 62.280000000000008 81.786500000000004 42.542500000000011 40.970260000000003 44.904000000000003 144.39125000000004 1 24.296000000000003 30.805000000000003 54.733500000000006 25.974 71.706140000000019 123.79725000000002 25.7013 444.7675000000001 182.38600000000002 2022.5000000000002 2 51.935000000000009 3 55.802500000000009 8.9327500000000004 131.09700000000004 391.78750000000008 16.293750000000006 65.70750000000001 248.05924000000002 116.25000000000001 4.653220000000001 2022.5000000000002 233.7175
decision_type=2 2 9 2 2 2 2 2 2 2 2 9 2 2 2 2 2 2 2 2 2 2 9 2 9 2 2 2 2 2 2 2 2 2 2 2
left_child=2 5 3 8 9 28 10 13 20 29 11 15 21 18 -10 26 -17 23 32 -19 22 31 34 -16 25 -13 -4 -9 -2 -5 -24 -12 -8 -26 -1 -23
right_child=1 -3 6 4 -6 -7 7 27 14 -11 12 24 -14 -15 17 16 -18 19 -20 -21 -22 35 30 -25 33 -27 -28 -29 -30 -31 -32 -33 -34 -35 -36 -37
