tree
version=v4
num_class=1
num_tree_per_iteration=1
label_index=0
max_feature_idx=27
objective=regression
feature_names=precio_total_lag_1 precio_total_lag_2 precio_total_lag_3 precio_total_lag_4 precio_total_lag_5 precio_total_lag_6 precio_total_lag_7 precio_total_lag_8 precio_total_lag_9 precio_total_lag_10 precio_total_lag_11 precio_total_lag_12 precio_total_lag_13 precio_total_lag_14 precio_total_lag_15 precio_total_lag_16 precio_total_lag_17 precio_total_lag_18 precio_total_lag_19 precio_total_lag_20 precio_total_lag_21 precio_total_lag_22 precio_total_lag_23 precio_total_lag_24 mes marca_id_encoded año cluster_id
feature_infos=[0:6133.9800000000005] [0:6133.9800000000005] [0:6133.9800000000005] [0:6133.9800000000005] [0:6133.9800000000005] [0:6133.9800000000005] [0:6133.9800000000005] [0:6133.9800000000005] [0:6133.9800000000005] [0:6133.9800000000005] [0:6133.9800000000005] [0:2751.75] [0:2751.75] [0:2751.75] [0:2751.75] [0:2751.75] [0:2751.75] [0:2468.25] [0:2468.25] [0:2468.25] [0:2301.5999999999999] [0:2301.5999999999999] [0:2184.8400000000001] [0:2184.8400000000001] -1:0:1:2:3:4:5:6:7:8:9:10:11 -1:8:93:68:65:3:31:92:23:19:33:36:37:90:60:45:4:15:58:21:28:38:44:46:22:26:59:11:34:39:43:57:10:12:13:25:32:42:78:76:2:6:7:14:16:30:50:56:61:81:0:1:9:24:27:35:41:47:48:53:62:70:80:5:17:18:20:29:40:49:51:52:54:55:66:67:71:72:73:79:83:84:85:63:64:69:74:75:77:82:88:91:87:86 [2022:2023] none
tree_sizes=3405 3232 3231 3306 3306 3710 1931 3042 3055 3871 2998 2994 3072 3075 3104 2751 1623 1962 2913 3126 2633 3097 2637 2562 1607 2043 2198 3223 3161 3715 2923 2899 2890 2875 2817 1809 3667 4583 3953 4003 3459 3461 2045 3548 3540 3458 3284 3378 3294 3212 2893 2330 3052 2797 2013 2339 2554 2567 2213 2997 2264 2661 1708 2668 2427 3912 1955 3177 3666 3528 2657 1394 2910 2246 2254 2172 2082 2698 1630 3077 1709 3023 2913 2664 2751 1680 2758 1870 1709 1602 2799 3137 3613 3320 2892 3247 4080 3357 3974 4086 4336 2609 1866 1687 2841 2244 1989 2085 2242 2248 2723 2785 2794 2491 2169 2504 2276 2141 1719 2377 3158 1532 2321 2192 3922 2466 3009 2467 2550 2385 1838 1467 1628 2152 3861 1666 3016 1643 3099 994 2669 2421 1879 1880 3622 2690 2208 2088 1809 2198 1451 1530 1600 2579 1603 2174 1055 1768 2177 2494 2403 2880 2808 1865 3080 1751 1045 1049 1758 1622 2555 2325 1537 2740 1296 1663 1831 1253 1157 1416 2169 2170 2461 2175 2404 1966 2032 2448 1950 1618 1174 1478 1569 1393 1486 980 1260 1177 2144 1190 1165 1324 2559 1412 1323 1053 1895 891 1052 1015 1604 1494 1732 1851 2497 1395 1323 1119 1318 1701 969 890 969 890 1048 3443 1766 2688 1230 2244 1677 1669 1084 1408 1741 1384 1336 1343 1066 1301 1288 1371 1212 1281 1206 1144 963 990 970 970 2069 2222 2750 2654 2067 1189 1341 1340 1075 1085 1572 1962 2116 1292 1394 1001 1290 894 986 1008 1054 1963 1770 915 1894 1111 1077 1306 1467 1233 964 1126 1224 1298 964 1243 1242 1086 1364 1394 1084 1139 1052 1386 1141 965 962 880 1089 1482 1259 1561 876 1178 1247 1129 1242 1204 929 1001 934 896 899 1478 892 1646 1711 920 1373 974 1368 1200 1240 1235 1232 1295 1212 1135 1280 1128 1494 1392 981 975 1318 1098 2212 1808 1066 1308 1363 1395 1397 1486 1481 1642 1129 1368 1469 1290 1225 953 955 1463 1237 1333 1406 1158 1156 1302 1041 933 1173 1159 1569 890 894 891 938 892 1043 1246 1160 1082 1214 1059 966 992 1237 1326 1045 1544 1221 1045 1303 1737 1243 1262 1744 1253 874 1079 1116 924 1323 1053 1778 1063 1061 1056 1045 1480 930 878 921 916 892 999 1214 1301 1394 1078 965 890 1405 1107 1311 1255 1132 1113 1166 1114 1152 1084 1146 926 921 927 843 928 973 1050 884 1050 913 984 980 1467 1381 983 1049 1165 1250 1047 1048 1367 1127 1193 1194 1478 896 974 1144 976 1416 1401 1544 1298 1055 1240 1217 1398 977 1237 973 891 1211 995 891 1231 1792 1803 1794 1069 1813 1120 893 1195 1071 1446 1649 917 1071 1234 1131 987 1058 905 999 909 1410 1647 1408 1165 1254 1464 923 1477 922 976 1240 1241 1085 1401 1322 1496 1381 1405 1740 1157 1053 813 814 812 813 1081 1081 1482 1150 996 1798 1792 2159 2234 1096 972 910 1003 915 1842 1641 1482 1871 1866 1481 1017 1284 1125 1192 1481 891 1083 1519 890 1416 916 965 1042 967 808 1334 881 1291 1374 1197 885 892 886 972 969 1533 1541 1465 1543 1356 1331 833 1133 1433 1537 1181 1874 1156 1154 1112 1000 969 1000 1154 989 1007 843 1000 921 1001 1223 1053 1343 815 1225 1155 974 976 977 1695 1487 1076 913 1066 914 1554 1163 1323 1484 1399 2059 1631 984 1480 1728 1293 1681 1132 1134 1376 1311 810 889 887 1006 1043 964 1211 1035 899 1587 1335 1815 1500 1330 972 1057 963 962 974 1394 1257 1393 1240 1203 1126 1126 886 1124 885 918 883 882 915 884 1160 1165 1055 1087 1056 1598 1133 1489 1181 1482 1093 1166 1011 1424 1245 1796 1709 1902 1707 1786 1124 1073 1047 1045 1045 1918 999 999 970 1480 804 995 960 1134 970 1169 1172 1137 1169 1172 1043 908 1051 912 819 894 1056 896 1474 1411 992 1147 922 1157 1156 1397 1567 1322 1409 1316 1166 1171 1082 1162 1248 1002 881 910 1133 1326 1241 1319 1167 1161 972 1322 977 1068 1085 1067 960 907 879 1380 1951 1291 1407 1404 1239 1257 1012 915 974 1010 1092 1321 1400 1053 1482 1573 1872 1378 1522 1676 1449 1978 1972 1404 969 1806 814 814 816 814 821 1009 979 1083 996 975 1488 997 1310 887 841 1667 1934 1839 1372 1947 1489 1500 1969 1581 1500 1068 894 918 968 967 902 1056 1013 1008 1092 990 916 879 996 911 1124 1171 1128 894 1127 1047 999 993 1161 1004 1239 1241 1457 1391 842 1496 883 1400 1494 1364 1336 966 1055 1626 965 893 890 1130 972 974 1131 1125 1473 1129 1172 1107 1141 1110 1413 1065 2129 1505 1403 1002 1236 1088 1162 1079 1054 1052 1135 1143 1143 1258 1318 978 1141 980 1410 983 1526 1306 1306 1474 1635 1157 1423 1281 1286 1156 1370 1495 1227 1288 1716 1534 1080 998 917 995 1178 881 1484 1233 1409 1414 1157 1250 1398 1162 839 841 1155 998 817 885 1008 988 997 885 1319 1248 1252 1086 1647 1668 1213 977 1715 976 1179 1177 1231 1146 1155 975 973 1079 976 998 2286 1580 1981 1004 2538 1470 945 1164 1070 882 1311 1406 1407 1053 1407 1158 1061 819 1078 1000 956 972 1042 1049 1038 1134 1053 1052 1131 1053 2080 1595 1625 1579 1425 962 1635 1799 1557 1481 1171 1666 1328 1885 1128 1122 966 997 914 995 1312 1421 1468 1154 1468 1161 1243 890 916 1242 1402 1075 1315 1411 1169 1587 1576 1582 1587 1578 1489 1235 1397 1399 1327 1583 1326 1744 1486 1824

Tree=0
num_leaves=40
num_cat=5
split_feature=0 25 2 0 10 0 7 7 4 3 25 10 10 2 3 2 0 0 26 6 0 25 0 26 8 3 10 25 25 0 6 26 0 4 0 0 2 0 0
split_gain=1.59644e+07 9.55324e+06 6.06028e+06 2.98913e+06 2.10004e+06 1.21562e+06 1.16209e+06 2.48011e+06 1.0095e+06 891424 604813 597586 1.01368e+06 495934 394480 429179 392630 209106 204568 200432 179147 159847 283780 177757 130465 102721 95669.9 67287.8 63064.5 31527.3 28905.5 23439.3 13538.4 12170.1 11654.2 8161.28 7437.11 4834.13 2149.58
threshold=1005.9575000000001 0 98.25500000000001 173.94850000000002 67.800000000000011 96.632500000000022 352.38000000000005 664.68750000000011 484.01500000000004 65.050000000000011 1 852.81250000000011 210.75000000000003 164.55774000000002 2.6721240000000006 217.52000000000004 462.80000000000007 13.003400000000001 2022.5000000000002 194.45000000000002 284.92500000000007 2 218.97000000000003 2022.5000000000002 48.386500000000005 362.12500000000006 523.74000000000012 3 4 33.705000000000005 283.87500000000006 2022.5000000000002 190.53000000000003 256.61250000000007 228.76800000000003 27.198000000000004 129.39000000000001 56.900000000000006 134.19600000000003
decision_type=2 9 2 2 2 2 2 2 2 2 9 2 2 2 2 2 2 2 2 2 2 9 2 2 2 2 2 9 9 2 2 2 2 2 2 2 2 2 2
left_child=1 3 -2 4 6 10 13 -8 14 21 19 12 -6 17 16 -16 20 -1 -15 25 -5 22 38 -24 30 27 -14 -3 29 33 -21 32 -23 -12 -33 36 -30 -37 -7
right_child=2 5 -4 8 11 9 7 -9 -10 -11 28 -13 26 18 15 -17 -18 -19 -20 24 -22 31 23 -25 -26 -27 -28 -29 35 -31 -32 34 -34 -35 -36 37 -38 -39 -40
leaf_value=29.225977074687261 31.530675651282692 28.958390917984836 37.917405925580944 31.132845175255426 32.165521953706417 28.961724255988088 33.413346260161106 28.9266142628198 32.903197051069228 30.932763008172284 28.754974675602803 32.498674211332286 29.391448127699849 30.573709373909104 29.039831341891574 30.997370197308008 30.36275593889 29.941843109415732 29.586447982352155 28.910214263322374 32.439047624145743 29.311756225098257 30.748566467612939 29.541695017131332 30.085191762754405 29.386840431923908 30.278556791135756 28.835534774684835 28.67700478512436 29.1320794753989 29.348476032311687 28.807944023888702 29.022258551836526 29.003514262983288 29.01966042340246 28.826760691723514 28.870341262170758 28.655847310767182 29.094698127638321
leaf_weight=799 39 618 24 21 26 20 22 28 25 34 1321 20 31 41 24 21 36 43 43 27 21 30 23 26 20 39 20 1613 3845 23 34 52 35 20 52 59 20 23 31
leaf_count=799 39 618 24 21 26 20 22 28 25 34 1321 20 31 41 24 21 36 43 43 27 21 30 23 26 20 39 20 1613 3845 23 34 52 35 20 52 59 20 23 31
internal_value=28.9421 28.9126 33.9637 29.7326 29.5553 28.7861 29.4158 30.9008 31.0713 29.4071 28.7613 30.9586 30.5586 29.3356 30.6989 29.9533 31.1291 29.2625 30.0683 28.8957 31.7859 29.2143 29.5081 30.1082 29.3843 28.8781 29.7393 28.8692 28.7024 28.7663 29.1545 29.0033 29.1559 28.7587 28.9138 28.6808 28.678 28.7788 29.0426
internal_weight=0 9186 63 1221 1073 7965 976 50 148 303 7662 97 77 926 123 45 78 842 84 2351 42 269 100 49 81 2270 51 2231 5311 1364 61 169 65 1341 104 3947 3865 82 51
internal_count=9249 9186 63 1221 1073 7965 976 50 148 303 7662 97 77 926 123 45 78 842 84 2351 42 269 100 49 81 2270 51 2231 5311 1364 61 169 65 1341 104 3947 3865 82 51
cat_boundaries=0 2 5 8 10 13
cat_threshold=524672 1 295698432 2500133024 536871440 2155872256 32 536870912 25165824 2231435296 2249261056 1223688258 18682180
is_linear=0
shrinkage=1


Tree=1
num_leaves=37
num_cat=6
split_feature=0 25 5 2 0 10 1 0 1 0 26 2 10 10 25 26 24 0 6 5 26 24 0 3 25 25 26 0 4 6 2 0 26 0 26 0
split_gain=1.56467e+07 9.36315e+06 6.0582e+06 5.93968e+06 2.42875e+06 1.88849e+06 1.23779e+06 1.19143e+06 1.4273e+06 1.0317e+06 644970 615120 607889 996960 592753 482156 348334 336191 196447 210770 169702 144563 108480 100678 65958.7 61809.5 61636.4 30899.9 11927.9 9076.06 8013.55 6852.67 5365.57 5346.27 12830 3344.04
threshold=1005.9575000000001 0 1236.1260000000004 98.25500000000001 173.94850000000002 67.800000000000011 259.87500000000006 96.632500000000022 68.280000000000015 433.55000000000007 2022.5000000000002 164.55774000000002 210.75000000000003 744.3325000000001 1 2022.5000000000002 2 240.75000000000003 194.45000000000002 96.632500000000022 2022.5000000000002 3 218.97000000000003 362.12500000000006 4 5 2022.5000000000002 33.705000000000005 256.61250000000007 366.17750000000007 107.39000000000001 27.198000000000004 2022.5000000000002 210.75000000000003 2022.5000000000002 287.36250000000007
decision_type=2 9 2 2 2 2 2 2 2 2 2 2 2 2 9 2 1 2 2 2 2 1 2 2 9 9 2 2 2 2 2 2 2 2 2 2
left_child=1 2 4 -2 5 11 17 14 21 -8 -10 16 -7 -14 18 -13 -1 -6 23 29 -19 22 32 24 -3 27 -24 28 -16 -20 31 -27 -9 34 -23 -35
right_child=3 7 -4 -5 6 12 9 8 10 -11 -12 15 13 -15 25 -17 -18 20 19 -21 -22 33 26 -25 -26 30 -28 -29 -30 -31 -32 -33 -34 35 -36 -37
leaf_value=-0.16025797027478117 2.5626546629881251 0.016095329971070504 6.1136317897978278 8.8855175813039153 0.16142607212066651 3.1911524537893445 5.0137747898101805 0.15882677990457286 3.0682966445922855 1.8756094256314364 0.96528593308585031 1.9529387913193814 0.50773155385797675 3.0768613831893261 -0.1852893344409352 0.49493145664532984 0.39980657908214134 1.1600566601753235 0.027107361687554257 1.2731027091633191 2.0932448246604518 0.082410928090413407 1.0835804852572355 0.44025776398487582 -0.10554140883596018 -0.26246055363933907 0.4353149353374135 0.18804441534954572 0.060764869689941409 0.28141510175622025 -0.080946565628051761 -0.16895010872185232 -0.044185044288635254 -0.29581382144581186 -0.20768151952374367 -0.14298588450362043
leaf_weight=129 39 618 21 24 20 26 20 23 25 22 35 43 44 23 1321 48 747 40 36 22 38 30 22 39 1613 3842 44 23 20 23 25 80 30 22 31 41
leaf_count=129 39 618 21 24 20 26 20 23 25 22 35 43 44 23 1321 48 747 40 36 22 38 30 22 39 1613 3842 44 23 20 23 25 80 30 22 31 41
internal_value=0 -0.0292766 0.782525 4.97136 0.695751 0.532254 1.93366 -0.154511 0.460318 3.36997 1.84154 0.401356 1.89331 1.38967 -0.179026 1.18388 0.320066 1.3181 -0.0459801 0.437737 1.61469 0.119276 0.351319 -0.0634431 -0.0722482 -0.237388 0.651403 -0.17411 -0.18162 0.126244 -0.25876 -0.260553 0.0439144 -0.121911 -0.0650131 -0.196354
internal_weight=0 9186 1221 63 1200 1060 140 7965 303 42 60 967 93 67 7662 91 876 98 2351 81 78 243 119 2270 2231 5311 66 1364 1341 59 3947 3922 53 124 61 63
internal_count=9249 9186 1221 63 1200 1060 140 7965 303 42 60 967 93 67 7662 91 876 98 2351 81 78 243 119 2270 2231 5311 66 1364 1341 59 3947 3922 53 124 61 63
cat_boundaries=0 2 5 6 7 9 12
cat_threshold=524672 1 295698432 2500133024 536871440 2176 3111 25165824 2231435296 2249261056 1223688258 18682180
is_linear=0
shrinkage=0.01


Tree=2
num_leaves=37
num_cat=6
split_feature=0 25 5 2 0 10 1 0 1 0 26 2 10 10 25 26 24 0 6 5 26 24 0 3 25 25 26 0 4 6 2 0 26 0 26 0
split_gain=1.53353e+07 9.17723e+06 5.9376e+06 5.82148e+06 2.38034e+06 1.85085e+06 1.21316e+06 1.16773e+06 1.3989e+06 1.01117e+06 632136 602840 595792 977121 580934 472561 343109 329500 192541 206576 166325 141686 106321 98676.5 64655.9 60579.5 60409.8 30285 11690.6 8895.45 7854.08 6716.31 5258.8 5239.88 12574.7 3277.49
threshold=1005.9575000000001 0 1236.1260000000004 98.25500000000001 173.94850000000002 67.800000000000011 259.87500000000006 96.632500000000022 68.280000000000015 433.55000000000007 2022.5000000000002 164.55774000000002 210.75000000000003 744.3325000000001 1 2022.5000000000002 2 240.75000000000003 194.45000000000002 96.632500000000022 2022.5000000000002 3 218.97000000000003 362.12500000000006 4 5 2022.5000000000002 33.705000000000005 256.61250000000007 366.17750000000007 107.39000000000001 27.198000000000004 2022.5000000000002 210.75000000000003 2022.5000000000002 287.36250000000007
decision_type=2 9 2 2 2 2 2 2 2 2 2 2 2 2 9 2 1 2 2 2 2 1 2 2 9 9 2 2 2 2 2 2 2 2 2 2
left_child=1 2 4 -2 5 11 17 14 21 -8 -10 16 -7 -14 18 -13 -1 -6 23 29 -19 22 32 24 -3 27 -24 28 -16 -20 31 -27 -9 34 -23 -35
right_child=3 7 -4 -5 6 12 9 8 10 -11 -12 15 13 -15 25 -17 -18 20 19 -21 -22 33 26 -25 -26 30 -28 -29 -30 -31 -32 -33 -34 35 -36 -37
leaf_value=0.012151914996184487 2.5370280627715283 0.015936949237896379 6.0524956185477121 8.7966622392336529 0.1598117952346802 3.159240928063026 4.9636369915008549 0.15723852074664574 3.0376137207031251 1.8568533290516245 0.95563306624548772 1.9334094185052917 0.50265425205230718 3.0460927399345064 -0.18343643995147144 0.48998214205106105 0.44582635544567573 1.1484560918807984 0.0268362914191352 1.2603716997666792 2.0723123643272805 0.08158682950337727 1.072744645205411 0.43585520132994043 -0.10449249739145249 -0.25983596507898149 0.43096180395646527 0.1861639752595321 0.060157213211059574 0.27860097138778023 -0.080137113952636715 -0.16726060076057914 -0.043743201891581221 -0.29285568757490682 -0.20560471219401205 -0.14155602431878811
leaf_weight=271 39 618 21 24 20 26 20 23 25 22 35 43 44 23 1321 48 605 40 36 22 38 30 22 39 1613 3842 44 23 20 23 25 80 30 22 31 41
leaf_count=271 39 618 21 24 20 26 20 23 25 22 35 43 44 23 1321 48 605 40 36 22 38 30 22 39 1613 3842 44 23 20 23 25 80 30 22 31 41
internal_value=0 -0.0289822 0.774719 4.92165 0.688814 0.526954 1.91433 -0.152967 0.455715 3.33627 1.82313 0.397367 1.87438 1.37577 -0.177237 1.17204 0.316893 1.30492 -0.0455241 0.433359 1.59854 0.118083 0.347805 -0.0628126 -0.0715298 -0.235014 0.644889 -0.172369 -0.179803 0.124982 -0.256172 -0.257948 0.0434753 -0.120692 -0.064363 -0.194391
internal_weight=0 9186 1221 63 1200 1060 140 7965 303 42 60 967 93 67 7662 91 876 98 2351 81 78 243 119 2270 2231 5311 66 1364 1341 59 3947 3922 53 124 61 63
internal_count=9249 9186 1221 63 1200 1060 140 7965 303 42 60 967 93 67 7662 91 876 98 2351 81 78 243 119 2270 2231 5311 66 1364 1341 59 3947 3922 53 124 61 63
cat_boundaries=0 2 5 6 7 9 12
cat_threshold=524672 1 295698432 2500133024 536871440 3232 3111 25165824 2231435296 2249261056 1223688258 18682180
is_linear=0
shrinkage=0.01


Tree=3
num_leaves=38
num_cat=6
split_feature=0 25 5 2 0 10 1 0 1 0 26 2 10 10 25 26 24 0 6 5 26 24 0 3 25 25 26 0 4 6 0 26 0 26 0 6 0
split_gain=1.50302e+07 8.99535e+06 5.81936e+06 5.70563e+06 2.33283e+06 1.8139e+06 1.18902e+06 1.14449e+06 1.37106e+06 991051 619556 590771 583936 957676 569350 463157 337492 322943 188712 202465 163015 138866 104205 96714.3 63378.9 62393.1 59207.7 28225 11710.7 8718.43 8243.35 5154.15 5135.61 12324.4 4582.87 4288.28 3212.27
threshold=1005.9575000000001 0 1236.1260000000004 98.25500000000001 173.94850000000002 67.800000000000011 259.87500000000006 96.632500000000022 68.280000000000015 433.55000000000007 2022.5000000000002 164.55774000000002 210.75000000000003 744.3325000000001 1 2022.5000000000002 2 240.75000000000003 194.45000000000002 96.632500000000022 2022.5000000000002 3 218.97000000000003 362.12500000000006 4 5 2022.5000000000002 33.705000000000005 256.61250000000007 366.17750000000007 27.198000000000004 2022.5000000000002 210.75000000000003 2022.5000000000002 56.900000000000006 103.77628000000001 287.36250000000007
decision_type=2 9 2 2 2 2 2 2 2 2 2 2 2 2 9 2 1 2 2 2 2 1 2 2 9 9 2 2 2 2 2 2 2 2 2 2 2
left_child=1 2 4 -2 5 11 17 14 21 -8 -10 16 -7 -14 18 -13 -1 -6 23 29 -19 22 31 24 -3 27 -24 28 -16 -20 35 -9 33 -23 -32 -27 -34
right_child=3 7 -4 -5 6 12 9 8 10 -11 -12 15 13 -15 25 -17 -18 20 19 -21 -22 32 26 -25 -26 30 -28 -29 -30 -31 34 -33 36 -35 -36 -37 -38
leaf_value=-0.1588834656914361 2.5116577803782927 0.0157801112703457 5.9919705708821622 8.7086957136789955 0.1582136926651001 3.1276486147367035 4.9140006847381592 0.15566613736359969 3.007237627410889 1.8382848098061302 0.94607676083700998 1.9140753209313681 0.49762771303003484 3.0156318963092308 -0.184036866385375 0.48508234461148586 0.39227544551009075 1.136971558570862 0.026567924287584095 1.2477679738131437 2.0515892385181629 0.080770952860514333 1.0620172145149924 0.43149666370489664 -0.10345401362842495 -0.25961711994343639 0.42665217399597166 0.16482322374979658 0.059555629730224616 0.27581496197244393 -0.11088874749207901 -0.043305770556132002 -0.28992713147943672 -0.20354865804795297 -0.28000052105296741 -0.11630899338495164 -0.14014046645746001
leaf_weight=129 39 618 21 24 20 26 20 23 25 22 35 43 44 23 1494 48 747 40 36 22 38 30 22 39 1613 3671 44 24 20 23 59 30 22 31 22 21 41
leaf_count=129 39 618 21 24 20 26 20 23 25 22 35 43 44 23 1494 48 747 40 36 22 38 30 22 39 1613 3671 44 24 20 23 59 30 22 31 22 21 41
internal_value=0 -0.0286883 0.767009 4.87243 0.681964 0.521727 1.89518 -0.151438 0.451158 3.30291 1.80489 0.39344 1.85563 1.36202 -0.175466 1.16032 0.313776 1.29187 -0.0450726 0.429026 1.58255 0.116902 0.344327 -0.0621884 -0.0708184 -0.232664 0.638441 -0.174292 -0.180819 0.123732 -0.255934 0.0430405 -0.119485 -0.0637193 -0.15682 -0.258802 -0.192447
internal_weight=0 9186 1221 63 1200 1060 140 7965 303 42 60 967 93 67 7662 91 876 98 2351 81 78 243 119 2270 2231 5311 66 1538 1514 59 3773 53 124 61 81 3692 63
internal_count=9249 9186 1221 63 1200 1060 140 7965 303 42 60 967 93 67 7662 91 876 98 2351 81 78 243 119 2270 2231 5311 66 1538 1514 59 3773 53 124 61 81 3692 63
cat_boundaries=0 2 5 6 7 9 12
cat_threshold=524672 1 295698432 2500133024 536871440 2176 3111 25165824 2231435296 2249265152 1223690306 18714948
is_linear=0
shrinkage=0.01


Tree=4
num_leaves=38
num_cat=6
split_feature=0 25 5 2 0 10 1 0 1 0 26 2 10 10 25 26 24 0 6 5 26 24 0 3 25 25 26 0 4 6 0 26 0 26 0 6 0
split_gain=1.4731e+07 8.81674e+06 5.70351e+06 5.59209e+06 2.28633e+06 1.77775e+06 1.16536e+06 1.12172e+06 1.34377e+06 971329 607227 578978 572316 938618 557998 453940 332464 316517 184960 198436 159771 136103 102132 94791.2 62127 61151.5 58029.4 27663.3 11477.6 8544.93 8079.31 5051.58 5033.41 12079.2 4491.67 4202.95 3148.35
threshold=1005.9575000000001 0 1236.1260000000004 98.25500000000001 173.94850000000002 67.800000000000011 259.87500000000006 96.632500000000022 68.280000000000015 433.55000000000007 2022.5000000000002 164.55774000000002 210.75000000000003 744.3325000000001 1 2022.5000000000002 2 240.75000000000003 194.45000000000002 96.632500000000022 2022.5000000000002 3 218.97000000000003 362.12500000000006 4 5 2022.5000000000002 33.705000000000005 256.61250000000007 366.17750000000007 27.198000000000004 2022.5000000000002 210.75000000000003 2022.5000000000002 56.900000000000006 103.77628000000001 287.36250000000007
decision_type=2 9 2 2 2 2 2 2 2 2 2 2 2 2 9 2 1 2 2 2 2 1 2 2 9 9 2 2 2 2 2 2 2 2 2 2 2
left_child=1 2 4 -2 5 11 17 14 21 -8 -10 16 -7 -14 18 -13 -1 -6 23 29 -19 22 31 24 -3 27 -24 28 -16 -20 35 -9 33 -23 -32 -27 -34
right_child=3 7 -4 -5 6 12 9 8 10 -11 -12 15 13 -15 25 -17 -18 20 19 -21 -22 32 26 -25 -26 30 -28 -29 -30 -31 34 -33 36 -35 -36 -37 -38
leaf_value=0.010781805014695136 2.4865412658300157 0.015624824542148856 5.9320510373796731 8.6216088704268135 0.15663154315948485 3.09637208205003 4.8648607006072995 0.15410946887472401 2.9771651771545407 1.8199019388719038 0.9366159553527833 1.8949345477791721 0.49265141963958742 2.9854756048451301 -0.18219648482290457 0.48023148894309997 0.43758160945845814 1.125601836681366 0.026302243338690863 1.2352902811223812 2.0310733509063721 0.079963252226511641 1.0513970461758699 0.42718165862254609 -0.10242584214743758 -0.25702095125561608 0.42238566441969438 0.16317499637603761 0.058960077285766604 0.273056814774223 -0.10977986821683787 -0.042872710545857749 -0.2870278601212935 -0.20151317242653138 -0.27720051418651237 -0.11514589582170759 -0.13873906112298734
leaf_weight=271 39 618 21 24 20 26 20 23 25 22 35 43 44 23 1494 48 605 40 36 22 38 30 22 39 1613 3671 44 24 20 23 59 30 22 31 22 21 41
leaf_count=271 39 618 21 24 20 26 20 23 25 22 35 43 44 23 1494 48 605 40 36 22 38 30 22 39 1613 3671 44 24 20 23 59 30 22 31 22 21 41
internal_value=0 -0.0283999 0.759358 4.82371 0.675164 0.516532 1.87623 -0.149925 0.446646 3.26988 1.78684 0.38953 1.83708 1.3484 -0.173712 1.14872 0.310665 1.27895 -0.0446256 0.424735 1.56673 0.115733 0.340884 -0.0615703 -0.0701142 -0.230337 0.632056 -0.172549 -0.179011 0.122495 -0.253375 0.0426101 -0.11829 -0.0630821 -0.155252 -0.256214 -0.190522
internal_weight=0 9186 1221 63 1200 1060 140 7965 303 42 60 967 93 67 7662 91 876 98 2351 81 78 243 119 2270 2231 5311 66 1538 1514 59 3773 53 124 61 81 3692 63
internal_count=9249 9186 1221 63 1200 1060 140 7965 303 42 60 967 93 67 7662 91 876 98 2351 81 78 243 119 2270 2231 5311 66 1538 1514 59 3773 53 124 61 81 3692 63
cat_boundaries=0 2 5 6 7 9 12
cat_threshold=524672 1 295698432 2500133024 536871440 3232 3111 25165824 2231435296 2249265152 1223690306 18714948
is_linear=0
shrinkage=0.01


Tree=5
num_leaves=43
num_cat=9
split_feature=25 5 1 1 24 12 25 2 3 8 1 3 1 3 1 26 19 4 25 24 26 6 25 2 24 1 24 24 2 6 7 6 4 1 26 4 6 1 1 3 4 7
split_gain=1.24058e+07 6.0119e+06 3.65499e+06 1.74684e+06 1.41799e+06 1.40917e+06 1.02543e+06 880393 736007 734882 500383 745509 407545 371164 264657 250251 219101 215963 204997 198888 144069 100820 84286.1 78283 59889.1 46347.3 37307 34770.8 31462.1 9185.75 6869.05 7664.51 6716.33 5528.72 4861.73 4125.86 3696.99 2230.9 4927.68 395.075 186.51 0.0126437
threshold=0 1341.6425000000002 1272.8850000000002 47.808000000000007 1 308.62500000000006 2 98.25500000000001 328.05000000000007 166.11250000000004 63.870000000000005 232.70000000000002 108.87000000000002 241.87500000000003 100.46247000000001 2022.5000000000002 260.48750000000007 47.808000000000007 3 4 2022.5000000000002 256.61250000000007 5 10.775250000000002 6 173.50000000000003 7 8 216.15000000000003 379.49000000000007 14.332500000000001 99.89997000000001 33.705000000000005 66.112500000000011 2022.5000000000002 56.310000000000009 97.950000000000017 68.280000000000015 148.59999999999999 136.29000000000002 134.70000000000002 125.53500000000001
decision_type=9 2 2 2 1 2 9 2 2 2 2 2 2 2 2 2 2 2 9 1 2 2 9 2 1 2 1 1 2 2 2 2 2 2 2 2 2 2 2 2 2 2
left_child=1 2 3 4 9 8 10 13 14 15 16 12 -12 -6 -5 -1 18 -9 19 20 -2 27 24 25 34 -14 -21 -20 -25 -23 31 33 36 -26 -8 -34 37 39 -39 -24 -37 -32
right_child=6 -3 -4 5 7 -7 22 17 -10 -11 11 -13 23 -15 -16 -17 -18 -19 21 26 -22 29 32 28 30 -27 -28 -29 -30 -31 41 -33 35 -35 -36 40 -38 38 -40 -41 -42 -43
leaf_value=0.8300302574557642 0.20671634826660157 6.3601929082870479 4.4064610416548593 2.0120249895616009 0.15382415929778678 3.8283522537231445 0.14659018940395779 1.5823106578496786 2.7453801714140793 3.0741568050384522 1.5360146182516345 2.3237546224594117 0.36717654342651368 1.0418660643521478 0.82189173344642885 1.4641262930173142 0.96839159943840725 0.43605433637445623 -0.01227825465185791 -0.087864849869634068 0.96211514192468983 0.46842596562703448 -0.25412944317019681 0.76054600443158837 -0.17859714871092425 -0.11674060595035553 0.1309646002633231 -0.1098306790703819 0.20635295867919923 0.20595099449157717 -0.28116618633270263 -0.020577839122099033 -0.054640628397464752 -0.079805583159128834 0.012402205643830475 -0.22771067142486573 -0.13976968502176218 -0.076879053115844725 -0.29103723616827104 -0.20956832790374755 -0.18772747230529785 -0.28085411174877267
leaf_weight=155 50 20 28 22 610 25 54 65 29 20 23 20 25 51 124 104 22 22 499 132 51 30 3829 21 1014 95 165 1502 20 24 20 34 26 60 54 28 29 22 21 20 20 37
leaf_count=155 50 20 28 22 610 25 54 65 29 20 23 20 25 51 124 104 22 22 499 132 51 30 3829 21 1014 95 165 1502 20 24 20 34 26 60 54 28 29 22 21 20 20 37
internal_value=0 0.913546 0.834026 0.752504 0.585996 1.60752 -0.145388 0.342231 1.29026 1.1848 0.0140659 0.490152 0.290847 0.222342 1.00123 1.08465 -0.0251183 1.29245 -0.0340287 0.17119 0.535168 -0.074246 -0.22635 0.112966 -0.15122 -0.0159245 0.034013 -0.0861138 0.490208 0.35177 -0.172426 -0.168398 -0.249853 -0.173078 0.0727592 -0.156096 -0.252259 -0.253098 -0.181468 -0.253898 -0.211051 -0.280964
internal_weight=0 1275 1255 1227 1027 200 7947 748 175 279 2679 204 184 661 146 259 2475 87 2453 398 101 2055 5268 161 1273 120 297 2001 41 54 1165 1108 3995 1074 108 74 3921 3892 43 3849 48 57
internal_count=9222 1275 1255 1227 1027 200 7947 748 175 279 2679 204 184 661 146 259 2475 87 2453 398 101 2055 5268 161 1273 120 297 2001 41 54 1165 1108 3995 1074 108 74 3921 3892 43 3849 48 57
cat_boundaries=0 1 2 5 7 8 11 12 13 14
cat_threshold=532864 7 94371840 2617573537 536870928 16777216 201392129 112 2449539072 1123026946 2982660 4 1796 67
is_linear=0
shrinkage=0.01


Tree=6
num_leaves=22
num_cat=0
split_feature=1 3 5 2 10 12 4 8 10 10 1 1 1 3 2 2 3 3 2 1 1
split_gain=6.3236e+06 5.09836e+06 3.39026e+06 2.08877e+06 2.19344e+06 1.24506e+06 948229 541373 485304 890847 418504 558392 407586 352771 322533 276224 222921 184914 166631 108662 25792.6
threshold=378.05000000000007 352.38000000000005 1318.45 164.55774000000002 1064.4750000000001 226.95300000000003 174.37500000000003 31.902000000000001 64.050000000000011 103.13625000000002 67.485000000000014 77.02500000000002 1183.6900000000003 50.730000000000011 492.37500000000006 259.12500000000006 127.72750000000002 346.12500000000006 244.35500000000002 660.10000000000002 462.80000000000007
decision_type=2 2 2 2 2 2 2 2 2 2 2 2 2 2 2 2 2 2 2 2 2
left_child=2 6 3 4 8 7 12 13 10 -10 17 -12 15 18 -15 19 -11 -1 -5 20 -2
right_child=1 -3 -4 5 -6 -7 -8 -9 9 16 11 -13 -14 14 -16 -17 -18 -19 -20 -21 -22
leaf_value=-0.11198309045126123 0.20208035561346241 5.1843591647677956 3.9767409951346266 0.73192023146386231 3.2336917705535888 3.1849412488937379 2.6482504844665526 1.8485182281463377 1.7866627455035828 -0.029145691727792751 1.7885774525352147 0.15627921166813979 1.9592858552932739 0.54159516416277209 2.086774800257249 1.4682027831077578 0.91596262570085207 0.35151335661438687 0.064907692025633568 -0.34810523646218433 0.61339213244120283
leaf_weight=8096 31 36 21 51 20 20 29 31 37 179 23 236 20 35 22 20 29 87 141 28 30
leaf_count=8096 31 36 21 51 20 20 29 31 37 179 23 236 20 35 22 20 29 87 141 28 30
internal_value=0 1.78817 -0.0365561 -0.0459132 -0.0741803 0.774492 1.01436 0.602317 -0.081796 0.356948 -0.0945291 0.301232 0.647047 0.447168 1.13798 0.406269 0.102624 -0.107055 0.242083 0.167633 0.404365
internal_weight=0 194 9028 9007 8707 300 158 280 8687 245 8442 259 129 249 57 109 208 8183 192 89 61
internal_count=9222 194 9028 9007 8707 300 158 280 8687 245 8442 259 129 249 57 109 208 8183 192 89 61
is_linear=0
shrinkage=0.01


Tree=7
num_leaves=35
num_cat=7
split_feature=0 25 5 0 10 0 10 25 0 10 0 24 24 0 0 0 0 0 0 0 18 25 24 8 3 25 0 0 0 6 0 7 7 4
split_gain=1.27098e+07 8.35555e+06 4.60631e+06 2.8326e+06 1.2146e+06 936560 631502 617338 602768 536958 473348 445201 422346 248169 196535 703676 145681 140898 186082 141365 138390 145882 308534 85606.6 67828.8 28657.6 27271.5 57383.2 19673.1 11170 9447.12 3031.23 4193.73 1611.48
threshold=960.86250000000007 0 1211.5375000000001 173.94850000000002 67.800000000000011 130.95600000000005 210.75000000000003 1 1219.7885000000003 744.3325000000001 299.69250000000005 2 3 10.010400000000002 417.90600000000001 486.41000000000003 1660.4350000000002 244.35500000000002 209.55000000000004 352.08500000000004 260.48750000000007 4 5 345.49500000000006 127.72750000000002 6 458.28125000000006 330.61600000000004 33.705000000000005 99.89997000000001 173.32500000000002 33.63000000000001 52.300500000000007 35.001570000000008
decision_type=2 9 2 2 2 2 2 9 2 2 2 1 1 2 2 2 2 2 2 2 2 9 1 2 2 9 2 2 2 2 2 2 2 2
left_child=1 2 3 4 12 7 -6 20 -2 -8 -5 17 23 -14 -12 -16 -10 18 -7 -19 21 22 -3 -1 -23 28 27 30 29 -9 -13 33 -33 -27
right_child=8 5 -4 10 6 11 9 25 16 -11 14 26 13 -15 15 -17 -18 19 -20 -21 -22 24 -24 -25 -26 31 -28 -29 -30 -31 -32 32 -34 -35
leaf_value=0.027215097530358504 3.1718472116887568 -0.18240350737826513 5.3858869243803476 2.9266663608551027 2.8948379237835224 0.90054334813898262 0.38019762416218605 -0.20414180308431282 5.9015467891693119 2.2006261605482833 0.89055944094291106 -0.23610529400053482 0.48127166400835353 1.2940316995382311 3.3952618130770595 1.2491300153732301 4.6945646362304689 0.1027944146669828 2.1229562397003172 1.1102315203348796 0.74064192598516287 -0.089614349310199903 0.50542154637089487 0.70334427165985103 0.14056124383431892 -0.25607280000900068 -0.32150419139862058 0.50749790350596113 0.013115770022074383 -0.0423247766494751 0.016640748214721678 -0.064840739876031867 -0.26283624579077181 -0.19581862861580321
leaf_weight=294 20 121 21 40 26 33 43 1399 20 26 26 21 618 40 22 50 20 26 20 30 22 2478 125 20 135 3255 20 24 45 44 50 20 23 45
leaf_count=294 20 121 21 40 26 33 43 1399 20 26 26 21 618 40 22 50 20 26 20 30 22 2478 125 20 135 3255 20 24 45 44 50 20 23 45
internal_value=0 -0.0282309 0.736701 0.661792 0.487428 -0.147145 1.56664 -0.165845 4.58932 1.06616 2.00995 0.490091 0.38195 0.522735 1.63578 1.90489 5.29806 0.908879 1.36183 0.642493 -0.0492762 -0.0555269 0.173192 0.0681115 -0.0774261 -0.234773 0.0129895 0.0847766 -0.1915 -0.199208 -0.0581151 -0.253406 -0.170745 -0.255251
internal_weight=0 9162 1226 1205 1067 7936 95 7712 60 69 138 224 972 658 98 72 40 109 53 56 2881 2859 246 314 2613 4831 115 95 1488 1443 71 3343 43 3300
internal_count=9222 9162 1226 1205 1067 7936 95 7712 60 69 138 224 972 658 98 72 40 109 53 56 2881 2859 246 314 2613 4831 115 95 1488 1443 71 3343 43 3300
cat_boundaries=0 1 4 5 6 8 9 12
cat_threshold=532864 127926272 2624913571 538968080 1133 3232 16777216 134283265 3335 2416394240 1115818304 69054317
is_linear=0
shrinkage=0.01


Tree=8
num_leaves=35
num_cat=6
split_feature=0 25 2 5 0 10 0 1 0 1 0 10 25 10 24 2 19 0 0 25 24 8 0 3 25 26 0 0 0 0 26 1 26 7
split_gain=1.24569e+07 8.1892e+06 6.07056e+06 4.51464e+06 2.77623e+06 1.19043e+06 917911 739712 637848 629094 662902 618936 605583 526272 413942 376183 212835 202732 336025 119412 311187 83903 68163 66796.2 49570.9 36280.9 20741.8 31017.9 17898.8 19391.8 8594.57 7394.45 4079.69 3344.52
threshold=960.86250000000007 0 98.25500000000001 1211.5375000000001 173.94850000000002 67.800000000000011 130.95600000000005 57.050000000000004 258.76500000000004 259.87500000000006 438.04750000000007 210.75000000000003 1 744.3325000000001 2 164.55774000000002 260.48750000000007 287.36250000000007 486.41000000000003 3 4 345.49500000000006 352.08500000000004 244.35500000000002 5 2022.5000000000002 218.97000000000003 258.76500000000004 33.705000000000005 88.15000000000002 2022.5000000000002 68.280000000000015 2022.5000000000002 33.63000000000001
decision_type=2 9 2 2 2 2 2 2 2 2 2 2 9 2 1 2 2 2 2 9 1 2 2 2 9 2 2 2 2 2 2 2 2 2
left_child=1 3 -2 4 5 14 12 22 -9 17 -11 -7 16 -13 21 -16 19 -6 -19 20 -3 -1 26 -21 28 -24 32 -28 30 -30 -14 33 -8 -26
right_child=2 6 -4 -5 9 11 7 8 -10 10 -12 13 24 -15 15 -17 -18 18 -20 23 -22 -23 25 -25 31 -27 27 -29 29 -31 -32 -33 -34 -35
leaf_value=0.02694295021546941 2.2942481174468994 0.55420327532607905 9.0417829049825666 5.3320280765351802 0.78923682506267845 2.8658895081740163 0.030155023126041187 2.8515028173273258 0.44347141612659807 4.2669456354777022 1.7543070089249384 0.37639565157335858 -0.20805454624149036 2.1786198395949143 0.45173733767004259 1.3017743907058448 0.98868190169334413 2.4776559613846447 1.089696773182262 -0.079333127371953568 -0.14233566928219485 0.69631082248687748 0.77749761962890629 0.22210740014126426 -0.25430885992464936 0.25766097233213225 0.4972627648063328 0.027133431964450411 0.18059413296835763 -0.22139855725424631 -0.16300550344706147 -0.095498955170313524 -0.12592765230121036 -0.16343318832356754
leaf_weight=294 40 103 20 21 26 26 34 22 22 21 21 43 848 26 601 57 20 37 33 2244 144 20 25 76 3311 29 23 36 28 21 846 30 33 41
leaf_count=294 40 103 20 21 26 26 34 22 22 21 21 43 848 26 601 57 20 37 33 2244 144 20 25 76 3311 29 23 36 28 21 846 30 33 41
internal_value=0 -0.0279451 4.54343 0.729334 0.655174 0.482554 -0.14567 0.48519 1.64749 1.98985 3.01063 1.55097 -0.164182 1.05549 0.37813 0.517508 -0.0387618 1.54326 1.82333 -0.0469178 0.158386 0.0674304 0.201073 -0.0691602 -0.226973 0.498326 0.0736786 0.210404 -0.179079 0.00831155 -0.185557 -0.251056 -0.0467215 -0.253197
internal_weight=0 9162 60 1226 1205 1067 7936 224 44 138 42 95 7712 69 972 658 2587 96 70 2567 247 314 180 2320 5125 54 126 59 1743 49 1694 3382 67 3352
internal_count=9222 9162 60 1226 1205 1067 7936 224 44 138 42 95 7712 69 972 658 2587 96 70 2567 247 314 180 2320 5125 54 126 59 1743 49 1694 3382 67 3352
cat_boundaries=0 1 4 5 7 8 11
cat_threshold=532864 127926272 2617573537 536870928 3232 16777216 134283265 248 2416263168 1123158338 71143277
is_linear=0
shrinkage=0.01


Tree=9
num_leaves=45
num_cat=10
split_feature=25 5 1 1 24 4 25 1 26 3 1 3 1 3 1 7 24 19 25 24 26 6 25 24 5 1 24 24 1 26 6 5 6 4 1 26 4 6 1 1 9 5 4 5
split_gain=1.15937e+07 5.60894e+06 3.44019e+06 1.63347e+06 1.38702e+06 1.14063e+06 961298 722508 528411 510809 468141 714744 395308 395125 387852 234501 220645 209481 194913 190166 138996 96687.7 82716.7 62076.4 53065.8 46744.2 36034.8 34350.6 13692.4 11548.1 9108.14 6916.68 8018.71 6328.26 5826.28 5034.37 3947.15 3562.69 1635.05 3314.27 551.019 399.258 175.643 2.7829
threshold=0 1341.6425000000002 1272.8850000000002 47.808000000000007 1 66.112500000000011 2 116.57500000000002 2022.5000000000002 113.00000000000001 63.870000000000005 232.70000000000002 108.87000000000002 241.87500000000003 378.05000000000007 13.037000000000001 3 260.48750000000007 4 5 2022.5000000000002 256.61250000000007 6 7 130.94000000000003 235.50000000000003 8 9 309.90000000000003 2022.5000000000002 379.49000000000007 13.900500000000003 99.89997000000001 33.705000000000005 127.72750000000002 2022.5000000000002 56.310000000000009 97.950000000000017 35.001570000000008 71.288140000000013 1.0000000180025095e-35 99.562500000000014 134.70000000000002 154.27494000000004
decision_type=9 2 2 2 1 2 9 2 2 2 2 2 2 2 2 2 1 2 9 1 2 2 9 1 2 2 1 1 2 2 2 2 2 2 2 2 2 2 2 2 2 2 2 2
left_child=1 2 3 4 8 7 10 -5 -1 -7 17 12 -12 16 -9 -10 -6 18 19 20 -2 27 23 35 -15 29 -21 -20 -27 -14 -23 32 34 37 -25 -8 -35 38 40 -40 -24 -33 -38 -43
right_child=6 -3 -4 5 13 9 22 14 15 -11 11 -13 25 24 -16 -17 -18 -19 21 26 -22 30 33 31 -26 28 -28 -29 -30 -31 -32 41 -34 36 -36 -37 42 -39 39 -41 -42 43 -44 -45
leaf_value=0.81034347389013539 0.20037014617919924 6.1440841312408452 4.272202934367316 2.6443835581903876 -0.077512222810225059 1.7694423276727849 0.16546495327582725 0.019001697835822898 1.9210138688484828 3.542626939415932 1.5055089088108229 2.2696970891952515 0.18324710476212203 1.2654914292229547 1.2081367523968221 0.88093039240155901 0.35267955468932932 0.94738717837767172 -0.010314847153624289 -0.086578386333626758 0.94234807519351738 0.46136176300048831 -0.2451602147472598 -0.16945398623833874 0.6464172716140747 -0.22430983720002354 0.1284780398777553 -0.10718626662615746 0.040261149070632288 0.45405975464851628 0.19999796072642009 -0.22516511917114257 -0.0068622016906738281 -0.051530294739283049 -0.032382466793060304 0.026314108188335714 -0.22068287781306675 -0.13367008603852371 -0.12927614278366995 -0.26076709840355849 -0.26719947953509471 -0.27514159870147703 -0.18188194179534911 -0.27995728683471682
leaf_weight=155 50 20 28 23 155 33 52 48 96 32 23 20 32 45 64 28 528 22 499 132 51 30 3730 1002 20 27 165 1502 71 31 24 20 33 26 32 52 28 29 36 41 117 20 20 30
leaf_count=155 50 20 28 23 155 33 52 48 96 32 23 20 32 45 64 28 528 22 499 132 51 30 3730 1002 20 27 165 1502 71 31 24 20 33 26 32 52 28 29 36 41 117 20 20 30
internal_value=0 0.883134 0.806331 0.72724 0.566226 1.55405 -0.140553 1.03003 1.15809 2.64239 0.0138333 0.474326 0.279177 0.32563 0.698507 1.68616 0.259081 -0.0240666 -0.0327792 0.167323 0.523228 -0.0719976 -0.218942 -0.143476 1.07501 0.103987 0.0331906 -0.0836161 -0.0326309 0.316504 0.3452 -0.165179 -0.160315 -0.241786 -0.165212 0.0874782 -0.150764 -0.244101 -0.244917 -0.199291 -0.245831 -0.262926 -0.204516 -0.278031
internal_weight=0 1275 1255 1227 1027 200 7947 135 279 65 2679 204 184 748 112 124 683 2475 2453 398 101 2055 5268 1241 65 161 297 2001 98 63 54 1137 1067 4027 1034 104 74 3953 3924 77 3847 70 48 50
internal_count=9222 1275 1255 1227 1027 200 7947 135 279 65 2679 204 184 748 112 124 683 2475 2453 398 101 2055 5268 1241 65 161 297 2001 98 63 54 1137 1067 4027 1034 104 74 3953 3924 77 3847 70 48 50
cat_boundaries=0 1 2 5 6 8 9 12 13 14 15
cat_threshold=532864 7 94371840 2617573537 536870928 640 16777216 201392129 112 2449539072 1114638338 2982148 4 1796 67
is_linear=0
shrinkage=0.01


Tree=10
num_leaves=34
num_cat=6
split_feature=0 25 0 20 4 25 2 0 24 2 0 0 5 2 25 12 26 10 26 0 0 25 0 0 25 4 0 7 3 3 7 4 3
split_gain=1.17731e+07 6.22086e+06 1.63929e+06 1.27919e+06 974360 707153 632770 616248 489614 525460 423164 387548 362188 260564 248705 206200 147083 138540 120203 103723 82441.6 77919.2 19361.6 35509.9 13584 5586.39 3030.16 2820.63 2737.01 2550.52 927.021 679.553 363.162
threshold=1165.3425000000004 0 174.80000000000004 73.46250000000002 449.64000000000004 1 331.12500000000006 157.58975000000007 2 844.84875000000011 1660.4350000000002 299.69250000000005 198.00000000000003 557.67000000000019 3 362.12500000000006 2022.5000000000002 96.632500000000022 2022.5000000000002 232.70000000000002 352.08500000000004 4 228.76800000000003 313.88000000000005 5 35.001570000000008 103.53753000000002 6.7650000000000006 35.001570000000008 50.730000000000011 33.63000000000001 56.310000000000009 56.310000000000009
decision_type=2 9 2 2 2 9 2 2 1 2 2 2 2 2 9 2 2 2 2 2 2 9 2 2 9 2 2 2 2 2 2 2 2
left_child=1 2 3 8 6 7 11 13 12 17 -2 -4 14 15 -1 21 19 -10 -13 -9 -21 -3 -18 -24 26 28 27 29 30 -7 -26 -27 -30
right_child=10 5 4 -5 -6 24 -8 16 9 -11 -12 18 -14 -15 -16 -17 22 -19 -20 20 -22 -23 23 -25 25 31 -28 -29 32 -31 -32 -33 -34
leaf_value=0.22965791547201511 6.1709838520396838 -0.14073160033996338 1.9768288650512695 2.9222391873314271 3.477422690598861 -0.17681802895033 2.6098253863608396 1.275835441350937 0.096733426227347319 1.7585723549979073 4.1864091836838497 0.97458914332919655 -0.28889331817626956 0.9879888144783352 0.8389232385069354 0.80716641792884247 0.022256049376267652 0.69576645578656882 0.19136614910391875 0.13652795715332031 0.9201400053090063 -0.043347743827773122 0.62606470531887481 0.16335616444432458 -0.24749611161733995 -0.103212847361962 -0.29819251219431558 -0.27220923396519253 -0.13432713115215303 -0.26288087871339583 -0.18866443912533146 -0.17514863507501013 -0.1938682964869908
leaf_weight=113 22 1488 25 21 23 792 27 32 478 21 21 36 38 23 391 26 26 42 43 25 29 1889 27 43 3340 24 24 35 20 36 27 29 21
leaf_count=113 22 1488 25 21 23 792 27 32 478 21 21 36 38 23 391 26 26 42 43 25 29 1889 27 43 3340 24 24 35 20 36 27 29 21
internal_value=0 -0.0429356 0.607742 0.47775 1.5791 -0.1464 1.2458 -0.0425629 0.43035 0.203976 5.20177 0.89168 0.640721 -0.072803 0.723524 -0.0799727 0.524345 0.145117 0.548278 0.824698 0.557357 -0.0868029 0.255278 0.341829 -0.23227 -0.243747 -0.18527 -0.184277 -0.246035 -0.18056 -0.247024 -0.142574 -0.164824
internal_weight=0 9214 1258 1104 154 7956 131 3608 1083 541 43 104 542 3426 504 3403 182 520 79 86 54 3377 96 70 4348 3461 887 863 3408 828 3367 53 41
internal_count=9257 9214 1258 1104 154 7956 131 3608 1083 541 43 104 542 3426 504 3403 182 520 79 86 54 3377 96 70 4348 3461 887 863 3408 828 3367 53 41
cat_boundaries=0 2 5 6 8 11 14
cat_threshold=532864 16777216 2476736512 3691315427 539496464 605 524288 16777216 2415919104 1207959616 537399296 604061696 49809408 68460813
is_linear=0
shrinkage=0.01


Tree=11
num_leaves=34
num_cat=4
split_feature=0 25 1 1 12 25 0 26 0 10 2 24 1 0 2 0 11 1 19 1 2 0 26 25 1 0 0 7 26 1 1 3 0
split_gain=1.15387e+07 6.09848e+06 2.07089e+06 1.55545e+06 1.44425e+06 693042 662880 923693 603996 602393 583640 550367 286696 405244 255381 232214 225360 211175 169386 151076 117291 59591.2 50033.5 13313.7 8461.98 5084.1 2969.86 2764.5 2570.27 2768.55 2544.91 1328.36 960.824
threshold=1165.3425000000004 0 42.190000000000005 96.71250000000002 308.62500000000006 1 184.44910000000004 2022.5000000000002 157.58975000000007 752.83000000000015 1013.1050000000001 2 66.112500000000011 307.23750000000007 557.67000000000019 287.36250000000007 360.14500000000004 134.19600000000003 260.48750000000007 629.70000000000016 150.70850000000004 352.08500000000004 2022.5000000000002 3 27.198000000000004 232.70000000000002 103.53753000000002 6.7650000000000006 2022.5000000000002 61.550000000000004 73.320000000000007 48.761500000000005 33.63000000000001
decision_type=2 9 2 2 2 9 2 2 2 2 2 1 2 2 2 2 2 2 2 2 2 2 2 9 2 2 2 2 2 2 2 2 2
left_child=1 2 9 -2 6 8 17 -8 14 10 11 20 21 -14 16 -13 18 -4 -3 -19 -1 25 -23 26 31 -10 27 30 -26 -30 -7 32 -25
right_child=3 5 4 -5 -6 23 7 -9 12 -11 -12 15 13 -15 -16 -17 -18 19 -20 -21 -22 22 -24 24 28 -27 -28 -29 29 -31 -32 -33 -34
leaf_value=0.65010939039761506 3.376201390805452 -0.092455711943188551 1.6341290048452524 7.1893420104980468 3.7028097519507774 -0.17559768403408832 3.3475987057850278 0.75186920156845671 0.21433184113613393 2.1389751567840576 2.0779510421752927 0.12881267001311625 2.1401412068242611 0.26294552512790847 0.97810895753943405 0.88873742946358625 0.7695528221130371 0.38613350855839723 0.83057401263713848 1.1785022287368774 1.4397750034332277 0.95542019271850598 0.29551362991333008 -0.24554525651598005 -0.20163795988900324 0.063084169056104575 -0.29521058479944867 -0.26948714120047434 -0.16301791835914958 -0.00045384478569030759 -0.27612340486966647 -0.1702330658833186 -0.20093713220284912
leaf_weight=316 23 3352 26 20 26 802 29 26 43 20 20 620 23 23 23 43 31 77 20 35 20 20 27 3311 35 46 24 35 22 20 26 24 49
leaf_count=316 23 3352 26 20 26 802 29 26 43 20 20 620 23 23 23 43 31 77 20 35 20 20 27 3311 35 46 24 35 22 20 26 24 49
internal_value=0 -0.0424966 0.601749 5.14976 1.49027 -0.144939 1.19221 2.12053 -0.0421423 0.420258 0.386525 0.352662 0.519101 1.20154 -0.0720804 0.175453 -0.0791784 0.822226 -0.086981 0.633749 0.676966 0.288275 0.576325 -0.229947 -0.241309 0.136159 -0.183418 -0.182434 -0.138348 -0.0856065 -0.178754 -0.244365 -0.244895
internal_weight=0 9214 1258 43 219 7956 193 55 3608 1039 1019 999 182 46 3426 663 3403 138 3372 112 336 136 47 4348 3461 89 887 863 77 42 828 3384 3360
internal_count=9257 9214 1258 43 219 7956 193 55 3608 1039 1019 999 182 46 3426 663 3403 138 3372 112 336 136 47 4348 3461 89 887 863 77 42 828 3384 3360
cat_boundaries=0 2 5 6 9
cat_threshold=532864 16777216 2476736512 3691315427 539496464 1097 604061696 49809408 68460813
is_linear=0
shrinkage=0.01


Tree=12
num_leaves=35
num_cat=4
split_feature=0 25 1 1 0 25 2 10 0 2 3 24 1 0 2 0 2 6 11 19 1 1 0 26 25 1 0 26 1 0 7 3 3 0
split_gain=1.13091e+07 5.97712e+06 2.02968e+06 1.52449e+06 1.04463e+06 679303 608131 590406 573663 572025 561972 539415 293738 397180 251253 227593 223144 213692 211743 166547 128042 62154.6 48216.8 48785.7 4834.11 8293.58 4698.3 2519.12 2713.46 2059.5 1839.31 1569.75 1303.94 946.533
threshold=1165.3425000000004 0 42.190000000000005 96.71250000000002 178.63500000000002 1 47.808000000000007 752.83000000000015 157.58975000000007 1013.1050000000001 129.39000000000001 2 66.112500000000011 307.23750000000007 557.67000000000019 287.36250000000007 352.38000000000005 39.961300000000001 360.14500000000004 260.48750000000007 140.91174000000004 263.99500000000006 352.08500000000004 2022.5000000000002 3 27.198000000000004 209.55000000000004 2022.5000000000002 61.550000000000004 56.900000000000006 6.7650000000000006 66.112500000000011 35.946570000000001 33.63000000000001
decision_type=2 9 2 2 2 9 2 2 2 2 2 1 2 2 2 2 2 2 2 2 2 2 2 2 9 2 2 2 2 2 2 2 2 2
left_child=1 2 7 -2 10 8 -6 9 14 11 20 17 22 -14 18 -13 -8 -1 19 -3 -4 -22 26 -24 29 32 -10 -27 -29 30 31 -7 33 -26
right_child=3 5 4 -5 6 24 16 -9 12 -11 -12 15 13 -15 -16 -17 -18 -19 -20 -21 21 -23 23 -25 25 27 -28 28 -30 -31 -32 -33 -34 -35
leaf_value=0.75689518527620159 3.3424393579234248 -0.092896873838331701 1.3190170319875083 7.1174486484527586 3.6645688318323204 -0.18243742917555347 0.97648307418823244 2.1175853672027589 0.025343151750235726 2.0571715087890623 2.1164440149579731 0.12752454594210272 2.1187397782698922 0.26031606922978939 0.96832783906356146 0.87985004347424178 2.4359394835342063 -0.26260556177659466 0.72949796259403232 0.82226828944683084 0.084686629955585194 0.6632006952212407 0.88451173600696376 0.25163014905206088 -0.24320396102585576 -0.19962158536911012 0.17994961910560484 -0.16138774144378576 -0.00044930624961853028 -0.27443473339080809 -0.2651715742746989 -0.26644671813301418 -0.18120081397465299 -0.19892776194883852
leaf_weight=314 23 3477 24 20 27 675 20 20 29 20 35 620 23 23 23 43 22 22 32 20 26 65 21 29 3300 35 61 22 20 29 30 23 35 49
leaf_count=314 23 3477 24 20 27 675 20 20 29 20 35 620 23 23 23 43 22 22 32 20 26 65 21 29 3300 35 61 22 20 29 30 23 35 49
internal_value=0 -0.0420717 0.595731 5.09826 1.47537 -0.143489 2.49368 0.416056 -0.0449945 0.382659 1.00695 0.349136 0.496248 1.18953 -0.0734633 0.173698 1.74096 0.670196 -0.0802531 -0.0876629 0.669272 0.497911 0.268456 0.51744 -0.230463 -0.238896 0.130132 -0.136965 -0.0847504 -0.189292 -0.188501 -0.185206 -0.241922 -0.242556
internal_weight=0 9214 1258 43 219 7956 69 1039 3738 1019 150 999 186 46 3552 663 42 336 3529 3497 115 91 140 50 4218 3461 90 77 42 757 728 698 3384 3349
internal_count=9257 9214 1258 43 219 7956 69 1039 3738 1019 150 999 186 46 3552 663 42 336 3529 3497 115 91 140 50 4218 3461 90 77 42 757 728 698 3384 3349
cat_boundaries=0 2 5 6 9
cat_threshold=532864 16777216 2543845376 3691315427 539496468 1097 536952832 49809408 68460809
is_linear=0
shrinkage=0.01


Tree=13
num_leaves=35
num_cat=6
split_feature=0 25 0 20 4 25 2 0 24 2 0 0 2 25 11 26 10 10 26 0 25 0 26 0 0 25 4 0 7 3 3 7 4 3
split_gain=1.10841e+07 5.85818e+06 1.54261e+06 1.24522e+06 942388 666037 609457 580454 471514 501054 412458 385011 245310 217240 216640 142155 134912 132325 116637 100280 96830.1 79074.3 76763.9 19599.7 34067.7 12713.3 5419.96 2913.19 2668.1 2600.41 2468.16 908.185 653.874 366.303
threshold=1165.3425000000004 0 174.80000000000004 73.46250000000002 449.64000000000004 1 331.12500000000006 157.58975000000007 2 844.84875000000011 1660.4350000000002 299.69250000000005 557.67000000000019 3 360.14500000000004 2022.5000000000002 67.800000000000011 96.632500000000022 2022.5000000000002 232.70000000000002 4 352.08500000000004 2022.5000000000002 228.76800000000003 313.88000000000005 5 35.001570000000008 103.53753000000002 6.7650000000000006 35.001570000000008 50.730000000000011 33.63000000000001 56.310000000000009 56.310000000000009
decision_type=2 9 2 2 2 9 2 2 1 2 2 2 2 9 2 2 2 2 2 2 9 2 2 2 2 9 2 2 2 2 2 2 2 2
left_child=1 2 3 8 6 7 11 12 13 17 -2 -4 14 16 20 19 -1 -10 -13 -9 -3 -21 -15 -17 -25 27 29 28 30 31 -7 -27 -28 -31
right_child=10 5 4 -5 -6 25 -8 15 9 -11 -12 18 -14 22 -16 23 -18 -19 -20 21 -22 -23 -24 24 -26 26 32 -29 -30 33 -32 -33 -34 -35
leaf_value=0.70915511952741495 6.004146800474687 -0.021799743920876611 1.9383252090454102 2.8754830060686385 3.3989732058151909 -0.17156887157998901 2.5429326106883861 1.2477821505069733 0.090207649208137689 1.7130344554356165 4.0448381035668506 0.9343985637029012 0.95864452942557965 0.45058608472347261 0.75456230102046851 0.0099453992110032294 1.43985168033176 0.6756493702388946 0.16287984981093295 0.12918338623046874 -0.13077007452418696 0.89662548130956199 -0.054009884282162315 0.60988094683046701 0.1566658725294956 -0.24018207270192529 -0.098232336093982076 -0.29056032101313273 -0.26438665989467075 -0.12896384644508363 -0.25623074624273512 -0.18195116852168686 -0.16879585594966492 -0.18876197724115279
leaf_weight=394 22 1423 25 21 23 792 27 32 478 21 21 36 23 64 31 26 27 42 43 25 1949 29 57 27 43 3340 24 24 35 20 36 27 29 21
leaf_count=394 22 1423 25 21 23 792 27 32 478 21 21 36 23 64 31 26 27 42 43 25 1949 29 57 27 43 3340 24 24 35 20 36 27 29 21
internal_value=0 -0.0416509 0.589774 0.463675 1.53205 -0.142054 1.20427 -0.041281 0.416909 0.195046 5.04728 0.856734 -0.0706297 0.623265 -0.0775863 0.508916 0.738476 0.137493 0.514458 0.804195 -0.0852365 0.541328 0.196633 0.244396 0.331477 -0.22539 -0.236507 -0.179859 -0.178865 -0.238751 -0.17525 -0.239715 -0.136843 -0.159592
internal_weight=0 9214 1258 1104 154 7956 131 3608 1083 541 43 104 3426 542 3403 182 421 520 79 86 3372 54 121 96 70 4348 3461 887 863 3408 828 3367 53 41
internal_count=9257 9214 1258 1104 154 7956 131 3608 1083 541 43 104 3426 542 3403 182 421 520 79 86 3372 54 121 96 70 4348 3461 887 863 3408 828 3367 53 41
cat_boundaries=0 2 5 6 7 10 13
cat_threshold=532864 16777216 2476736512 3691315427 539496464 605 8576 25165824 2214658211 16 604061696 49809408 68460813
is_linear=0
shrinkage=0.01


Tree=14
num_leaves=35
num_cat=6
split_feature=0 25 1 4 1 25 10 0 2 0 1 2 4 1 2 1 20 25 19 25 0 25 1 25 26 1 0 1 9 26 1 4 7 4
split_gain=1.08635e+07 5.74163e+06 1.97093e+06 1.53865e+06 1.49303e+06 652752 575390 570358 553745 448792 374344 309412 282743 362585 261220 241149 223464 225258 153279 126268 142042 81756.3 61943.2 13567.1 12577.8 7954.38 2943.35 2642.02 2607.34 2588.71 2657.72 1299.06 619.211 107.402
threshold=1165.3425000000004 0 42.190000000000005 457.74500000000006 96.71250000000002 1 752.83000000000015 28.484500000000004 1013.1050000000001 210.75000000000003 67.485000000000014 58.875000000000007 129.39000000000001 136.29000000000002 557.67000000000019 186.78750000000002 70.280000000000015 2 247.25750000000002 3 352.08500000000004 4 309.90000000000003 5 2022.5000000000002 27.198000000000004 103.53753000000002 73.320000000000007 33.160000000000004 2022.5000000000002 61.550000000000004 35.001570000000008 33.63000000000001 73.320000000000007
decision_type=2 9 2 2 2 9 2 2 2 2 2 2 2 2 2 2 2 9 2 9 2 9 2 9 2 2 2 2 2 2 2 2 2 2
left_child=1 2 6 9 -2 7 8 14 16 12 19 -11 13 -4 18 -12 17 -1 21 24 -21 -3 -17 26 -9 31 27 28 -7 -27 -31 32 -25 -33
right_child=4 5 3 -5 -6 23 -8 10 -10 11 15 -13 -14 -15 -16 22 -18 -19 -20 20 -22 -23 -24 25 -26 29 -28 -29 -30 30 -32 33 -34 -35
leaf_value=0.021623437064034596 3.2591960071999093 -0.14177410958600248 1.7311694542566936 3.5545323266983031 6.995049534320831 -0.16859907984128458 2.0865483922958372 0.074706180360582145 2.0213637828826903 2.8880220737457272 1.9112408846900575 1.292664526662519 1.9199490737915039 0.35403575312584001 1.0068361343037 0.28206865768432621 1.3872421226501463 0.3973068973687387 0.76513020983764113 0.21935390595466861 1.0009754100922614 -0.040901404621036357 0.99331352055072786 -0.23835641663892154 -0.15268965009053548 -0.19733529031276703 -0.28765471776326496 -0.27086905547550749 -0.26358332188924155 -0.15761996106667953 0.0016569689512252808 -0.19769219579696656 -0.19113268988473076 -0.16660175704956054
leaf_weight=214 23 1632 24 30 20 788 20 36 20 20 21 31 20 94 22 25 20 765 21 93 31 1628 24 3327 75 36 24 28 30 22 20 25 28 20
leaf_count=214 23 1632 24 30 20 788 20 36 20 20 21 31 20 94 22 25 20 765 21 93 31 1628 24 3327 75 36 24 28 30 22 20 25 28 20
internal_value=0 -0.0412361 0.583876 1.45066 4.9968 -0.140636 0.406795 -0.0408724 0.373826 1.11672 0.372771 1.91829 0.820481 0.634131 -0.0791921 1.01468 0.340842 0.319465 -0.0864742 0.181565 0.383807 -0.09196 0.630433 -0.223136 -0.0724157 -0.234282 -0.176422 -0.175352 -0.172083 -0.13511 -0.0817738 -0.237246 -0.237962 -0.183874
internal_weight=0 9214 1258 219 43 7956 1039 3608 1019 189 305 51 138 118 3303 70 999 979 3281 235 124 3260 49 4348 111 3478 870 846 818 78 42 3400 3355 45
internal_count=9257 9214 1258 219 43 7956 1039 3608 1019 189 305 51 138 118 3303 70 999 979 3281 235 124 3260 49 4348 111 3478 870 846 818 78 42 3400 3355 45
cat_boundaries=0 2 5 6 9 12 15
cat_threshold=532864 16777216 2476736512 3691315427 539496464 524416 2097152 66 536870928 2415919104 1476395072 539496448 604061696 49809408 68428045
is_linear=0
shrinkage=0.01


Tree=15
num_leaves=31
num_cat=5
split_feature=0 25 4 1 10 0 1 20 0 1 26 24 25 0 19 10 0 25 0 26 25 0 0 0 26 9 3 0 3 9
split_gain=1.27931e+07 7.24839e+06 2.54537e+06 1.95171e+06 1.87801e+06 1.6853e+06 868284 851226 827100 933817 702735 604521 514379 361906 221874 163374 157182 132587 65817.8 56188.4 35184 8638.47 6989.17 26639.2 9625.94 6754.55 5997.96 5258.14 4118.96 26.9897
threshold=960.86250000000007 0 1205.5225000000003 49.650000000000006 911.47500000000014 178.63500000000002 259.87500000000006 73.46250000000002 134.19600000000003 55.656960000000005 2022.5000000000002 1 2 433.55000000000007 223.98000000000002 331.12500000000006 483.75000000000006 3 352.08500000000004 2022.5000000000002 4 27.198000000000004 209.55000000000004 232.70000000000002 2022.5000000000002 33.160000000000004 122.43000000000002 73.320000000000007 153.20400000000004 117.08000000000003
decision_type=2 9 2 2 2 2 2 2 2 2 2 1 9 2 2 2 2 9 2 2 9 2 2 2 2 2 2 2 2 2
left_child=1 2 4 -2 5 7 16 11 12 18 -11 -1 14 -8 15 17 -7 -3 22 -20 25 28 24 -24 -10 26 -14 -23 -22 -27
right_child=3 8 -4 -5 -6 6 13 -9 9 10 -12 -13 20 -15 -16 -17 -18 -19 19 -21 21 27 23 -25 -26 29 -28 -29 -30 -31
leaf_value=0.14703365014206002 2.821589732544763 0.15209828981113085 4.0663829430666834 6.2975113843282067 3.6721901721954344 1.4040485843707777 3.8247624588012696 2.4916411399841309 0.044195879155939276 3.0038578232851894 0.57546811030461231 0.64156297908208071 -0.14865107257225935 1.9451625365302676 1.0088327523022891 0.66164805173873897 0.51245195515950526 -0.081463283076271917 0.81112256830388851 0.16618809836251394 -0.23193627624240304 -0.089928219214729654 0.35820589480192766 -0.049329723861982241 -0.21040415304678459 -0.26190124320983887 -0.2799866549173991 -0.27064689999534969 -0.088056430816650391 -0.27680131050848195
leaf_weight=498 35 263 22 30 20 58 20 20 33 22 26 525 1020 21 20 32 30 2309 22 35 3864 69 23 53 27 20 36 21 20 31
leaf_count=498 35 263 22 30 20 58 20 20 33 22 26 525 1020 21 20 32 30 2309 22 35 3864 69 23 53 27 20 36 21 20 31
internal_value=0 -0.026254 0.690211 4.42586 0.63369 0.581838 1.66009 0.448478 -0.136413 0.440291 1.68848 0.408533 -0.154629 2.86204 -0.0402586 -0.0484707 1.1001 -0.0573058 0.129861 0.41511 -0.213195 -0.228376 0.0103074 0.0740034 -0.0703741 -0.157137 -0.153128 -0.132096 -0.231195 -0.270958
internal_weight=0 9160 1214 65 1192 1172 129 1043 7946 241 48 1023 7705 41 2624 2604 88 2572 193 57 5081 3974 136 76 60 1107 1056 90 3884 51
internal_count=9225 9160 1214 65 1192 1172 129 1043 7946 241 48 1023 7705 41 2624 2604 88 2572 193 57 5081 3974 136 76 60 1107 1056 90 3884 51
cat_boundaries=0 1 2 5 7 10
cat_threshold=532864 3492 295763968 2365849763 536871440 0 83886081 68173824 309854272 71143684
is_linear=0
shrinkage=0.01


Tree=16
num_leaves=18
num_cat=0
split_feature=1 5 2 10 3 1 3 1 4 8 1 1 6 19 10 11 2
split_gain=7.51047e+06 3.58365e+06 3.03962e+06 2.56663e+06 1.51364e+06 1.65633e+06 1.01833e+06 865375 720188 710932 427139 352239 333898 326892 211651 191157 172387
threshold=1183.6900000000003 1341.6425000000002 157.58975000000007 1064.4750000000001 344.21500000000003 43.440000000000005 98.25500000000001 47.808000000000007 199.12500000000003 123.63250000000001 100.46247000000001 299.69250000000005 171.03750000000002 362.77500000000003 73.46250000000002 67.485000000000014 460.05000000000007
decision_type=2 2 2 2 2 2 2 2 2 2 2 2 2 2 2 2 2
left_child=1 2 3 7 9 -6 -2 13 10 15 -9 -10 -11 14 -1 16 -4
right_child=6 -3 4 -5 5 -7 -8 8 11 12 -12 -13 -14 -15 -16 -17 -18
leaf_value=-0.10274637223911701 2.7395109267329629 3.92811881189761 0.19379068158393684 3.4312989952450712 0.85091251929601031 4.7474577622413641 5.8572639808654792 0.89632842003525082 0.60715243625640869 2.6928844876722855 0.059067582469688705 2.4040557154019675 0.93001604715983077 0.91785621762275693 0.2241514361110227 1.338343620300293 0.77947255927072445
leaf_weight=8139 22 23 172 21 24 20 20 77 20 22 292 24 21 32 203 22 71
leaf_count=8139 22 23 172 21 24 20 20 77 20 22 292 24 21 32 203 22 71
internal_value=0 -0.0142226 -0.0241215 -0.0605377 0.887111 2.62207 4.22416 -0.0688828 0.377979 0.639259 0.233781 1.58728 1.83195 -0.0909217 -0.0947914 0.445729 0.364916
internal_weight=0 9183 9160 8808 352 44 42 8787 413 308 369 44 43 8374 8342 265 243
internal_count=9225 9183 9160 8808 352 44 42 8787 413 308 369 44 43 8374 8342 265 243
is_linear=0
shrinkage=0.01


Tree=17
num_leaves=22
num_cat=1
split_feature=0 2 5 0 1 10 19 26 0 2 0 10 4 24 0 3 2 0 1 0 0
split_gain=1.2441e+07 5.833e+06 4.51907e+06 2.97304e+06 1.75681e+06 1.61969e+06 1.10705e+06 906329 1.3796e+06 768357 564593 414181 341703 309377 380528 378442 191534 51957.8 48511.4 22203.9 9915.07
threshold=960.86250000000007 98.25500000000001 1341.6425000000002 123.63250000000001 47.808000000000007 1064.4750000000001 362.77500000000003 2022.5000000000002 254.41050000000004 457.74500000000006 1335.1525000000004 67.800000000000011 252.82950000000002 0 228.76800000000003 221.27241000000004 1013.1050000000001 293.81250000000006 252.37200000000004 173.94850000000002 313.88000000000005
decision_type=2 2 2 2 2 2 2 2 2 2 2 2 2 1 2 2 2 2 2 2 2
left_child=2 10 3 5 13 6 9 8 -6 11 -2 -1 18 14 19 20 -11 -16 -9 -5 -15
right_child=1 -3 -4 4 7 -7 -8 12 -10 16 -12 -13 -14 15 17 -17 -18 -19 -20 -21 -22
leaf_value=-0.11045460805693552 3.2750245056152347 8.2798984535535176 4.4011411782969603 0.29352383327484133 4.8702200317382811 2.7666633815765382 1.7741829288005828 0.86461111047051176 1.5221935927867889 0.52259378821162861 0.9273658742507298 0.31089233674605687 2.0159283685684204 -0.031332124806521984 0.82725433803740001 1.3666797361373901 1.5269266891479492 1.4166072962834284 0.20052339683879505 -0.16685196963223545 -0.19766207400957744
leaf_weight=8354 20 24 23 20 20 20 32 22 32 59 21 240 24 89 21 20 28 52 22 22 60
leaf_count=8354 20 24 23 20 20 20 32 22 32 59 21 240 24 89 21 20 28 52 22 22 60
internal_value=0 4.3645 -0.0259118 -0.0370558 0.801611 -0.0758536 -0.0823784 1.81608 2.8099 -0.0892221 2.07257 -0.0986879 1.05611 0.372961 0.745885 0.0708677 0.845827 1.24707 0.532567 0.0523746 -0.0983106
internal_weight=0 65 9160 9137 404 8733 8713 120 52 8681 41 8594 68 284 115 169 87 73 44 42 149
internal_count=9225 65 9160 9137 404 8733 8713 120 52 8681 41 8594 68 284 115 169 87 73 44 42 149
cat_boundaries=0 1
cat_threshold=3079
is_linear=0
shrinkage=0.01


Tree=18
num_leaves=33
num_cat=3
split_feature=0 25 2 5 0 10 0 1 0 26 0 10 10 25 2 2 0 19 2 5 10 0 26 25 0 0 0 26 3 11 0 3
split_gain=1.21934e+07 6.99298e+06 5.71692e+06 3.86344e+06 1.49086e+06 1.45364e+06 785124 886213 764887 672462 553357 498434 881567 496488 438450 258319 237323 210505 189213 187345 153651 63580 55261.4 33276.8 8234.54 6568.71 26526.5 9501.84 6301.02 5158.97 5043.6 4007.35
threshold=960.86250000000007 0 98.25500000000001 1279.9550000000002 178.63500000000002 67.800000000000011 134.19600000000003 55.656960000000005 299.69250000000005 2022.5000000000002 1335.1525000000004 744.3325000000001 210.75000000000003 1 890.22500000000014 330.61600000000004 404.82250000000005 223.98000000000002 557.67000000000019 102.07500000000002 331.12500000000006 352.08500000000004 2022.5000000000002 2 27.198000000000004 209.55000000000004 232.70000000000002 2022.5000000000002 122.43000000000002 56.310000000000009 73.320000000000007 153.20400000000004
decision_type=2 9 2 2 2 2 2 2 2 2 2 2 2 9 2 2 2 2 2 2 2 2 2 9 2 2 2 2 2 2 2 2
left_child=1 3 10 4 5 14 13 21 -6 -9 -2 12 -7 17 19 16 -10 18 20 -1 -3 25 -23 28 31 27 -27 -8 29 -15 -26 -25
right_child=2 6 -4 -5 8 11 7 9 15 -11 -12 -13 -14 23 -16 -17 -18 -19 -20 -21 -22 22 -24 24 30 26 -28 -29 -30 -31 -32 -33
leaf_value=0.37974122583717979 3.2422742614746096 -0.064109929448984984 8.1970994861920676 5.0424407424926754 2.9585995638370512 2.5039498710632326 0.043718990557121508 2.9307164365595035 0.038047860860824588 0.55520784818209135 0.91809222028368997 2.8855822928746542 0.33279043006896969 -0.14581511976772535 1.8312680606842042 2.1681071622031074 1.2607889781081887 0.98145789229869851 0.92062530899047856 -0.10990664830734563 0.64411276786558092 0.79870050516995517 0.1591086496625628 -0.22768810647817439 -0.089954908639192588 0.35345806163290272 -0.053214700446938573 -0.20923452730532044 -0.2795591051150591 -0.27111852982464962 -0.26665314992268879 -0.085772566795349128
leaf_weight=855 20 2591 24 20 32 32 33 22 22 26 21 24 45 978 20 21 57 20 20 86 31 22 35 3881 70 23 53 27 39 34 21 20
leaf_count=855 20 2591 24 20 32 32 33 22 22 26 21 24 45 978 20 21 57 20 20 86 31 22 35 3881 70 23 53 27 39 34 21 20
internal_value=0 -0.0256527 4.32086 0.678075 0.61065 0.486072 -0.133854 0.428025 1.61294 1.64398 2.05184 1.62729 1.23509 -0.151602 0.366131 1.18232 0.920279 -0.0404565 -0.0483455 0.334991 -0.0557366 0.12561 0.405969 -0.209776 -0.224205 0.00810699 0.0698573 -0.0701101 -0.153372 -0.150025 -0.130731 -0.226961
internal_weight=0 9160 65 1214 1194 1062 7946 241 132 48 41 101 77 7705 961 100 79 2662 2642 941 2622 193 57 5043 3992 136 76 60 1051 1012 91 3901
internal_count=9225 9160 65 1214 1194 1062 7946 241 132 48 41 101 77 7705 961 100 79 2662 2642 941 2622 193 57 5043 3992 136 76 60 1051 1012 91 3901
cat_boundaries=0 1 4 7
cat_threshold=532864 295763968 2367946915 536871440 68173824 307232832 71143684
is_linear=0
shrinkage=0.01


Tree=19
num_leaves=36
num_cat=6
split_feature=0 25 5 0 10 0 0 0 0 24 25 10 10 24 26 19 7 0 0 10 25 0 9 0 26 25 0 0 0 0 9 7 0 4 9
split_gain=1.19507e+07 6.85382e+06 3.78656e+06 1.46119e+06 1.42471e+06 931149 1.4663e+06 769709 749666 654801 492517 488515 864024 423676 300994 205980 195792 182637 312080 150316 129254 72106.4 65360.1 61628.3 47907.5 34696.6 24104.5 9827.99 11623 7271.14 6999.28 6432.19 5612.17 964.288 32.8563
threshold=960.86250000000007 0 1279.9550000000002 178.63500000000002 67.800000000000011 1205.5225000000003 1587.2775000000001 140.16174000000004 299.69250000000005 1 2 744.3325000000001 210.75000000000003 3 2022.5000000000002 223.98000000000002 177.35000000000002 352.08500000000004 462.80000000000007 331.12500000000006 4 228.76800000000003 487.50000000000006 228.76800000000003 2022.5000000000002 5 228.76800000000003 385.88250000000005 218.97000000000003 27.198000000000004 33.160000000000004 50.730000000000011 73.320000000000007 40.38000000000001 117.08000000000003
decision_type=2 9 2 2 2 2 2 2 2 1 9 2 2 1 2 2 2 2 2 2 9 2 2 2 2 9 2 2 2 2 2 2 2 2 2
left_child=1 2 3 4 9 -2 -7 10 -5 16 15 12 -6 14 23 19 -1 -10 -19 20 -3 -16 -11 -9 26 30 -15 28 -26 33 31 -12 -31 -27 -32
right_child=5 7 -4 8 11 6 -8 13 17 22 25 -13 -14 24 21 -17 -18 18 -20 -21 -22 -23 -24 -25 27 29 -28 -29 -30 32 34 -33 -34 -35 -36
leaf_value=0.57783313825632399 2.4823207302093504 0.15154605208735764 4.9920163078308102 2.9290135538578035 2.4789103794097902 6.9212571750987664 3.3101383606247281 1.252400217510405 0.31577856475114824 0.058651658326858327 -0.13936523721669172 2.8567263933022815 0.32946252293056916 0.45406904079295973 0.045014989943731404 0.97164332890510563 1.5225485959260361 2.2842953692663177 0.95079079380741838 0.63419205367565157 -0.078820907242062838 0.77516382769534464 0.64307846641540523 2.0280352439880374 -0.24470897761258212 -0.22539670102014889 0.061101818600216434 -0.33265534900483629 0.064936567942301432 -0.091757864931099858 -0.25626853847503661 -0.26589634849911642 -0.27149428077366045 -0.1879466919217791 -0.27281551233927409
leaf_weight=475 20 263 20 32 32 22 23 21 20 443 925 24 45 27 21 20 23 26 54 32 2351 38 20 20 22 3865 37 21 27 71 20 42 23 70 30
leaf_count=475 20 263 20 32 32 22 23 21 20 443 925 24 45 27 21 20 23 26 54 32 2351 38 20 20 22 3865 37 21 27 71 20 42 23 70 30
internal_value=0 -0.0253962 0.671295 0.604543 0.481211 4.27765 5.07557 -0.132516 1.59681 0.36247 -0.149826 1.61101 1.22274 0.432338 0.884206 -0.0392366 0.609231 1.1705 1.38418 -0.0470257 -0.055365 0.51528 0.0821232 1.63076 0.027115 -0.207766 0.226885 -0.151658 -0.074088 -0.222103 -0.149358 -0.144861 -0.135736 -0.224731 -0.266197
internal_weight=0 9160 1214 1194 1062 65 45 7946 132 961 7712 101 77 234 100 2666 498 100 80 2646 2614 59 463 41 134 5046 64 70 49 4029 1017 967 94 3935 50
internal_count=9225 9160 1214 1194 1062 65 45 7946 132 961 7712 101 77 234 100 2666 498 100 80 2646 2614 59 463 41 134 5046 64 70 49 4029 1017 967 94 3935 50
cat_boundaries=0 1 2 5 6 8 11
cat_threshold=532864 843 295763968 2367946915 536871440 1101 0 83886081 67125248 307232832 70881540
is_linear=0
shrinkage=0.01


Tree=20
num_leaves=30
num_cat=6
split_feature=0 25 2 5 0 25 1 10 0 2 24 0 1 0 1 26 2 25 24 6 0 0 3 0 0 25 1 0 4
split_gain=9.87795e+06 5.96786e+06 5.42158e+06 4.36624e+06 1.9845e+06 727770 664983 617727 513205 526688 432760 312110 308572 374247 354898 228011 181735 153493 298163 116119 76881.7 67113.4 39149.3 25870.3 10755.5 6398.92 8476.19 4137.38 1813.13
threshold=960.86250000000007 0 96.632500000000022 1211.5375000000001 178.63500000000002 1 629.70000000000016 744.3325000000001 299.69250000000005 303.37500000000006 2 417.90600000000001 48.619320000000009 58.31600000000001 100.46247000000001 2022.5000000000002 557.67000000000019 3 4 366.17750000000007 270.37500000000006 177.05000000000004 57.050000000000004 54.26250000000001 73.320000000000007 5 68.280000000000015 122.73 33.347500000000004
decision_type=2 9 2 2 2 9 2 2 2 2 1 2 2 2 2 2 2 9 1 2 2 2 2 2 2 9 2 2 2
left_child=1 3 15 4 6 12 7 10 -6 11 -1 -10 16 14 -14 -2 17 18 -3 -19 -15 23 -16 25 -25 28 -27 -26 -7
right_child=2 5 -4 -5 8 21 -8 -9 9 -11 -12 -13 13 20 22 -17 -18 19 -20 -21 -22 -23 -24 24 27 26 -28 -29 -30
leaf_value=0.62035924424391531 1.160522243499756 0.51546692506590885 8.2921878051757822 5.171554264795212 2.8876094856262204 -0.1564872766757498 1.7307321192767169 2.0598170398530504 -0.059325153946876527 2.8368688335418701 0.15842630324854912 1.3926083123056512 1.1833569802178279 1.3145076504018574 -0.10350449162144815 2.6705256881713866 0.80528232879638662 -0.087287743915931387 -0.036567882650038776 0.5489280207403775 0.54122307777404788 0.3535137503487723 0.34728264028375799 0.10759802045360689 -0.21364362133873832 -0.22388691467794261 -0.095372392947857196 -0.040150042601994111 -0.25186282067071825
leaf_weight=315 20 124 20 21 30 392 37 21 20 20 604 57 27 36 155 20 25 2663 364 29 20 21 22 31 27 3931 52 28 21
leaf_count=315 20 124 20 21 30 392 37 21 20 20 604 57 27 36 155 20 25 2663 364 29 20 21 22 31 27 3931 52 28 21
internal_value=0 -0.0297796 4.04108 0.648761 0.568607 -0.126238 0.415746 0.363986 1.74455 1.39103 0.325234 1.01548 -0.0170664 0.314209 0.11543 1.91552 -0.0439938 -0.0506705 0.111237 -0.0801363 1.03833 -0.210021 -0.0474745 -0.21313 -0.0413609 -0.21649 -0.221653 -0.12532 -0.157523
internal_weight=0 9093 60 1125 1104 7968 977 940 127 97 919 77 3465 260 204 40 3205 3180 488 2692 56 4503 177 4482 86 4396 3983 55 413
internal_count=9153 9093 60 1125 1104 7968 977 940 127 97 919 77 3465 260 204 40 3205 3180 488 2692 56 4503 177 4482 86 4396 3983 55 413
cat_boundaries=0 1 4 5 7 8 11
cat_threshold=532736 396361856 3708092643 536875536 2121 25165824 2298478593 1072 65536 41420800 1835268
is_linear=0
shrinkage=0.01


Tree=21
num_leaves=36
num_cat=7
split_feature=0 25 2 0 7 7 11 25 0 2 24 2 26 7 10 0 10 0 26 18 2 25 24 0 0 24 0 0 10 0 0 25 0 0 11
split_gain=9.68131e+06 5.85006e+06 5.31369e+06 2.34402e+06 2.02551e+06 2.93721e+06 761847 713391 580115 734526 337007 368444 926258 291254 278507 273006 265692 230916 223474 157950 148670 148885 138428 108081 99524.8 98005 65777.8 25355.5 22524.5 14481.7 10541.5 6271.59 4142.97 4055.05 1928.7
threshold=960.86250000000007 0 96.632500000000022 178.63500000000002 323.80000000000007 488.75250000000005 96.365500000000011 1 299.69250000000005 303.37500000000006 2 20.200000000000006 2022.5000000000002 806.46500000000003 101.09997000000003 28.484500000000004 67.800000000000011 21.101500000000005 2022.5000000000002 362.12500000000006 557.67000000000019 3 4 157.58975000000007 583.76964000000009 5 177.05000000000004 54.26250000000001 344.82000000000005 336.94125000000003 73.320000000000007 6 27.198000000000004 122.73 6.7650000000000006
decision_type=2 9 2 2 2 2 2 9 2 2 1 2 2 2 2 2 2 2 2 2 2 9 1 2 2 1 2 2 2 2 2 9 2 2 2
left_child=1 3 18 4 10 -6 8 15 -5 24 11 25 -13 -7 17 19 22 -12 -2 20 21 -3 23 -17 -10 -1 27 31 -16 -24 -29 34 -33 -32 -9
right_child=2 7 -4 6 5 13 -8 26 9 -11 14 12 -14 -15 28 16 -18 -19 -20 -21 -22 -23 29 -25 -26 -27 -28 30 -30 -31 33 32 -34 -35 -36
leaf_value=0.6846705878103102 1.1489170191287994 0.16570294643970246 8.2092658863067633 3.6365347925821943 5.1500146113742487 1.5269209405650264 0.3283184440612793 -0.154848496058515 1.663635483917437 3.5409198665618895 0.092726741898013817 2.7088232206381289 -0.15366159629821777 -0.04784351746241252 1.1523488946394487 0.038149117946624761 1.2975950940450034 0.96804993973113596 2.643820426940918 0.8222574815295991 0.66487413603684009 -0.075480768032624296 0.0053689335151152172 0.68181957486470535 0.85122774047851568 0.24326865653733951 0.34997860953921361 0.10652204582768102 0.73108169428507486 -0.24304982662200927 -0.21150719024516917 -0.22105246618934693 -0.1223612208976302 -0.039748540946415493 -0.2555175409317017
leaf_weight=138 20 272 20 24 22 23 25 393 38 20 518 26 20 24 22 40 24 32 20 21 29 2884 88 75 25 138 21 31 30 32 27 3940 43 28 20
leaf_count=138 20 272 20 24 22 23 25 393 38 20 518 26 20 24 22 40 24 32 20 21 29 2884 88 75 25 138 21 31 30 32 27 3940 43 28 20
internal_value=0 -0.029468 4.00067 0.642342 0.481628 2.13437 1.90002 -0.12497 2.26723 1.87129 0.358209 0.61654 1.46426 0.722786 0.206363 -0.0168819 0.295365 0.143655 1.89637 -0.0421598 -0.0478593 -0.0544085 0.19301 0.421299 1.34125 0.497591 -0.207921 -0.210999 0.90931 -0.0561933 -0.0409473 -0.214325 -0.219436 -0.124066 -0.155948
internal_weight=0 9093 60 1125 993 69 132 7968 107 83 924 322 46 47 602 3465 259 550 40 3206 3185 3156 235 115 63 276 4503 4482 52 120 86 4396 3983 55 413
internal_count=9153 9093 60 1125 993 69 132 7968 107 83 924 322 46 47 602 3465 259 550 40 3206 3185 3156 235 115 63 276 4503 4482 52 120 86 4396 3983 55 413
cat_boundaries=0 1 4 5 7 8 9 12
cat_threshold=532736 396361856 3708092643 536875536 89 16777344 2164326401 1649 65 65536 41420800 1835268
is_linear=0
shrinkage=0.01


Tree=22
num_leaves=30
num_cat=3
split_feature=0 25 2 5 0 25 1 11 0 2 1 0 1 2 11 26 2 25 6 0 0 0 3 0 0 2 26 0 20
split_gain=9.4886e+06 5.73486e+06 5.20795e+06 4.27084e+06 1.90345e+06 699214 647530 513766 780926 364298 300831 363446 347911 294232 299462 219026 175316 149120 113300 83616 75365.2 64468.9 38325.6 24850.9 10331.7 6175.71 5087.28 3974.36 2444.59
threshold=960.86250000000007 0 96.632500000000022 1211.5375000000001 178.63500000000002 1 629.70000000000016 96.365500000000011 299.69250000000005 217.52000000000004 48.619320000000009 58.31600000000001 100.46247000000001 844.84875000000011 419.52500000000009 2022.5000000000002 557.67000000000019 2 366.17750000000007 172.12500000000003 270.37500000000006 177.05000000000004 57.050000000000004 54.26250000000001 73.320000000000007 48.619320000000009 2022.5000000000002 122.73 23.228000000000005
decision_type=2 9 2 2 2 9 2 2 2 2 2 2 2 2 2 2 2 9 2 2 2 2 2 2 2 2 2 2 2
left_child=1 3 15 4 6 10 13 8 -6 -10 16 12 -12 14 -1 -2 17 19 -19 -3 -13 23 -14 25 -25 28 -27 -26 -7
right_child=2 5 -4 -5 7 21 -8 -9 9 -11 11 20 22 -15 -16 -17 -18 18 -20 -21 -22 -23 -24 24 27 26 -28 -29 -30
leaf_value=0.29334092224048358 1.13742786192894 0.079074094186421306 8.1271732444763192 5.1090598260788695 3.6393083290431809 -0.21430924876636412 1.7045837437139975 0.3907263688246409 1.1328927691640527 2.6441833027926358 1.1718564598648638 1.2974185290601521 -0.10223636762557492 1.4262335861206055 1.309236935933431 2.6173821449279786 0.79084453735351556 -0.085961898960791441 0.54248418216047622 0.63274199452893487 0.53179876327514652 0.34647882461547852 0.34378329970619897 0.10545682714831445 -0.20939211898379856 -0.22029151049527254 -0.058303799324847284 -0.039351054940904892 -0.10349476242065431
leaf_weight=885 20 459 20 21 23 4296 37 24 58 22 27 36 155 25 30 20 25 2663 29 29 20 21 22 31 27 33 47 28 20
leaf_count=885 20 459 20 21 23 4296 37 24 58 22 27 36 155 25 30 20 25 2663 29 29 20 21 22 31 27 33 47 28 20
internal_value=0 -0.0291621 3.96066 0.636001 0.556676 -0.123719 0.40697 1.70836 2.01538 1.5485 -0.0167105 0.310384 0.114494 0.355893 0.326649 1.87741 -0.0432976 -0.0498553 -0.0788988 0.109728 1.02398 -0.205841 -0.0467989 -0.208889 -0.0405379 -0.212182 -0.125124 -0.122826 -0.213796
internal_weight=0 9093 60 1125 1104 7968 977 127 103 80 3465 260 204 940 915 40 3205 3180 2692 488 56 4503 177 4482 86 4396 80 55 4316
internal_count=9153 9093 60 1125 1104 7968 977 127 103 80 3465 260 204 940 915 40 3205 3180 2692 488 56 4503 177 4482 86 4396 80 55 4316
cat_boundaries=0 1 4 6
cat_threshold=532736 396361856 3708092643 536875536 25165824 2298478593
is_linear=0
shrinkage=0.01


Tree=23
num_leaves=29
num_cat=5
split_feature=0 25 2 5 0 25 1 18 11 0 24 2 1 0 1 26 18 2 25 0 0 8 0 0 25 1 0 11
split_gain=9.29978e+06 5.62074e+06 5.10431e+06 4.18585e+06 1.86558e+06 685299 634644 658295 503542 765386 433227 357048 294844 356213 340988 214668 178372 174305 151390 73865.4 63185.9 40268.7 24356.4 10126.1 6292.45 8292.05 3895.27 1891.72
threshold=960.86250000000007 0 96.632500000000022 1211.5375000000001 178.63500000000002 1 629.70000000000016 330.33750000000003 96.365500000000011 299.69250000000005 2 217.52000000000004 48.619320000000009 58.31600000000001 100.46247000000001 2022.5000000000002 296.06250000000006 557.67000000000019 3 270.37500000000006 177.05000000000004 66.112500000000011 54.26250000000001 73.320000000000007 4 68.280000000000015 122.73 6.7650000000000006
decision_type=2 9 2 2 2 9 2 2 2 2 1 2 2 2 2 2 2 2 9 2 2 2 2 2 9 2 2 2
left_child=1 3 15 4 6 12 7 10 9 -6 -1 -11 16 14 -14 -2 17 18 -3 -15 22 -16 24 -24 27 -26 -25 -7
right_child=2 5 -4 -5 8 20 -8 -9 -10 11 -12 -13 13 19 21 -17 -18 -19 -20 -21 -22 -23 23 26 25 -27 -28 -29
leaf_value=0.60632913063212135 1.1260535535812377 0.10639692712748994 8.0459014778137199 5.0579693621680848 3.6029152364316195 -0.15119789061655525 1.6875379084252025 2.147171956062317 0.38681910375754036 1.1215638157417034 0.1460373814399141 2.6177414261211052 1.1601378850583677 1.2844443612628513 -0.10016558385958338 2.591208381652832 0.89856705760955802 0.78293612365722653 -0.084622104995571018 0.52648077201843269 0.34301399957566037 0.37627133178710936 0.10440225793469336 -0.20729819562700058 -0.21732258212921088 -0.090211609326876122 -0.038957548482077463 -0.25089727783203125
leaf_weight=318 20 483 20 21 23 393 37 20 24 58 602 22 27 36 157 20 20 25 2677 20 21 20 31 27 3931 52 28 20
leaf_count=318 20 483 20 21 23 393 37 20 24 58 602 22 27 36 157 20 20 25 2677 20 21 20 31 27 3931 52 28 20
internal_value=0 -0.0288705 3.92105 0.629641 0.55111 -0.122482 0.4029 0.352334 1.69127 1.99522 0.313316 1.53301 -0.0165434 0.30728 0.113349 1.85863 -0.0428646 -0.0487763 -0.0553563 1.01374 -0.203783 -0.0463309 -0.2068 -0.0401325 -0.21006 -0.215123 -0.121598 -0.152337
internal_weight=0 9093 60 1125 1104 7968 977 940 127 103 920 80 3465 260 204 40 3205 3185 3160 56 4503 177 4482 86 4396 3983 55 413
internal_count=9153 9093 60 1125 1104 7968 977 940 127 103 920 80 3465 260 204 40 3205 3185 3160 56 4503 177 4482 86 4396 3983 55 413
cat_boundaries=0 1 4 5 7 10
cat_threshold=532736 396361856 3708092643 536875536 2121 25165824 2298478593 65536 41420800 1835268
is_linear=0
shrinkage=0.01


Tree=24
num_leaves=18
num_cat=0
split_feature=0 5 2 0 18 1 10 2 1 0 2 4 10 19 10 26 3
split_gain=9.11467e+06 5.36424e+06 5.00273e+06 2.69966e+06 931647 733094 823010 672282 577834 729648 475102 373810 305328 302974 297606 210396 118203
threshold=960.86250000000007 1341.6425000000002 96.632500000000022 190.42000000000004 548.95500000000004 98.63000000000001 67.800000000000011 470.16250000000008 232.70000000000002 425.10000000000002 1013.1050000000001 383.62912500000004 251.25000000000003 362.77500000000003 67.800000000000011 2022.5000000000002 252.82950000000002
decision_type=2 2 2 2 2 2 2 2 2 2 2 2 2 2 2 2 2
left_child=1 3 15 4 5 10 11 8 14 -10 13 -7 -8 -1 16 -2 -5
right_child=2 -3 -4 7 -6 6 12 -9 9 -11 -12 -13 -14 -15 -16 -17 -18
leaf_value=-0.10274991188927578 1.1147930383682252 5.1446459503173836 7.9654424476623538 0.34891109114343472 1.9386059893732486 0.092904823289334207 2.5373379287719726 2.6769227619171141 3.1117790950428357 0.65841722135190606 1.4062099202473959 1.4716799245561873 0.89387339628659757 1.1295259037017824 1.6640644836425782 2.5652962989807127 1.0970248703161876
leaf_weight=8342 20 20 20 176 23 309 20 20 22 27 21 21 26 20 22 20 24
leaf_count=8342 20 20 20 176 23 309 20 20 22 27 21 21 26 20 22 20 24
internal_value=0 -0.0285732 3.88184 -0.0399768 -0.0713767 -0.0766547 0.35532 0.907633 0.777058 1.75993 -0.0960299 0.180645 1.60842 -0.0998026 0.560119 1.84004 0.438685
internal_weight=0 9093 60 9073 8782 8759 376 291 271 49 8383 330 46 8362 222 40 200
internal_count=9153 9093 60 9073 8782 8759 376 291 271 49 8383 330 46 8362 222 40 200
is_linear=0
shrinkage=0.01


Tree=25
num_leaves=23
num_cat=1
split_feature=0 1 0 10 7 1 4 0 10 3 19 1 3 10 10 24 1 1 7 0 4 0
split_gain=8.57169e+06 2.63935e+06 1.69736e+06 1.36651e+06 1.35871e+06 841001 774861 698672 483431 332355 319204 258739 252797 250290 1.653e+06 237094 213618 200313 142145 133363 78612.8 58218.2
threshold=960.86250000000007 47.808000000000007 90.300000000000026 1064.4750000000001 308.62500000000006 235.50000000000003 378.05000000000007 284.92500000000007 67.800000000000011 273.11034000000006 362.77500000000003 134.19600000000003 252.82950000000002 73.160000000000011 103.13625000000002 0 232.70000000000002 103.77628000000001 462.80000000000007 690.66750000000013 199.12500000000003 458.28125000000006
decision_type=2 2 2 2 2 2 2 2 2 2 2 2 2 2 2 1 2 2 2 2 2 2
left_child=1 3 4 7 8 -2 9 10 15 11 13 -4 19 18 -15 17 -13 -3 -1 21 -17 -9
right_child=5 2 6 -5 -6 -7 -8 12 -10 -11 -12 16 -14 14 -16 20 -18 -19 -20 -21 -22 -23
leaf_value=-0.11117895866111525 2.9893073727743968 1.2925848976135255 1.9508502918481827 2.4111873728578739 2.8553535680770876 5.5598840184211733 3.4070665903091428 0.4763377474224757 1.4045789131323496 2.4578126754760743 0.9898334255924931 0.024624046912560097 1.6535654110908506 2.8356390328840777 -0.06386522298245817 -0.13325977469300046 1.1421409313201905 0.26234181404113771 0.3856060356929385 1.1657195154825848 0.49098516637628725 -0.019258697911312708
leaf_weight=8277 35 25 24 22 20 20 20 63 30 20 27 26 20 22 185 243 50 77 58 21 22 38
leaf_count=8277 35 25 24 22 20 20 20 63 30 20 27 26 20 22 185 243 50 77 58 21 22 38
internal_value=0 -0.0353767 0.632036 -0.077945 0.31218 3.92406 1.58475 -0.0842314 0.18406 1.28103 -0.0957601 1.04568 0.611471 -0.0991915 0.244295 0.0842902 0.759833 0.468883 -0.107722 0.440636 -0.0784744 0.289876
internal_weight=0 9290 557 8733 417 55 140 8711 397 120 8569 100 142 8542 207 367 76 102 8335 122 265 101
internal_count=9345 9290 557 8733 417 55 140 8711 397 120 8569 100 142 8542 207 367 76 102 8335 122 265 101
cat_boundaries=0 1
cat_threshold=537
is_linear=0
shrinkage=0.01


Tree=26
num_leaves=25
num_cat=2
split_feature=0 1 0 10 7 1 0 3 4 24 0 26 1 1 10 10 3 3 19 7 0 13 0 24
split_gain=8.40111e+06 2.5876e+06 1.54833e+06 1.43622e+06 1.36814e+06 824265 764160 696682 533484 453734 341508 515144 324956 304721 301048 1.2592e+06 230658 155627 153270 138863 114955 80336.5 78617.6 30033.7
threshold=960.86250000000007 67.485000000000014 90.300000000000026 1064.4750000000001 298.20000000000005 235.50000000000003 284.92500000000007 432.41388000000001 73.320000000000007 0 217.52000000000004 2022.5000000000002 383.62912500000004 116.57500000000002 64.050000000000011 103.13625000000002 252.82950000000002 58.875000000000007 378.05000000000007 462.80000000000007 690.66750000000013 84.744000000000014 458.28125000000006 1
decision_type=2 2 2 2 2 2 2 2 2 1 2 2 2 2 2 2 2 2 2 2 2 2 2 1
left_child=1 3 4 6 9 -2 14 8 10 12 -4 -12 13 -3 18 -16 20 -17 19 -1 22 23 -8 -11
right_child=5 2 7 -5 -6 -7 16 -9 -10 21 11 -13 -14 -15 15 17 -18 -19 -20 -21 -22 -23 -24 -25
leaf_value=-0.1092606111562697 2.959414266313825 1.3619365470225995 0.13006603108512033 2.4202005479128466 2.8780515508651736 5.5042853193283081 0.5535059751363901 3.1698040829534113 2.5045171767014724 0.019590596494390006 2.6407950773239133 0.52332996050516767 1.8086403648058573 0.036038241386413573 2.1039843651652337 -0.15094257343315079 1.637029763698578 0.66733982827928329 0.77060646820068357 0.38174996910424069 1.1540623019990468 0.56490819263458247 -0.01906610237924676 -0.20132123092810314
leaf_weight=8305 35 26 36 23 20 20 65 23 26 124 20 27 24 52 32 167 20 27 20 58 21 20 38 116
leaf_count=8305 35 26 36 23 20 20 65 23 26 124 20 27 24 52 32 167 20 27 20 58 21 20 38 116
internal_value=0 -0.0350229 0.654593 -0.0754129 0.331962 3.88482 -0.0819705 1.58827 1.25455 0.191294 0.86299 1.42438 0.720462 0.478004 -0.0940548 0.266099 0.640481 -0.0370579 -0.103764 -0.105855 0.479747 -0.0423821 0.342266 -0.0947556
internal_weight=0 9290 514 8776 382 55 8753 132 109 362 83 47 102 78 8609 226 144 194 8383 8363 124 260 103 240
internal_count=9345 9290 514 8776 382 55 8753 132 109 362 83 47 102 78 8609 226 144 194 8383 8363 124 260 103 240
cat_boundaries=0 1 2
cat_threshold=2577 108
is_linear=0
shrinkage=0.01


Tree=27
num_leaves=37
num_cat=5
split_feature=0 25 10 2 10 0 1 2 10 3 24 7 25 0 26 2 6 5 0 1 2 24 0 7 3 0 6 25 0 3 0 0 0 0 0 1
split_gain=8.23394e+06 4.55783e+06 1.86188e+06 1.81844e+06 1.16129e+06 816836 1.33727e+06 751053 705884 794894 600026 493967 378397 376579 292778 264516 238385 234825 199892 146344 101819 92427.1 122232 64493.1 51773.6 30369.4 25486 23992.1 13476.5 11071 7049.97 4927.24 3382.88 2690.63 2575.86 1371.85
threshold=960.86250000000007 0 66.112500000000011 96.632500000000022 219.79500000000002 96.632500000000022 68.280000000000015 1253.9725000000001 1064.4750000000001 130.95600000000005 1 548.95500000000004 2 160.85000000000005 2022.5000000000002 52.345500000000008 199.87500000000003 96.632500000000022 458.28125000000006 98.63000000000001 460.05000000000007 3 218.97000000000003 44.590000000000011 362.12500000000006 352.08500000000004 262.50000000000006 4 42.190000000000005 136.29000000000002 133.08750000000001 27.198000000000004 150.01600000000005 209.55000000000004 56.900000000000006 68.280000000000015
decision_type=2 9 2 2 2 2 2 2 2 2 1 2 9 2 2 2 2 2 2 2 2 1 2 2 2 2 2 9 2 2 2 2 2 2 2 2
left_child=1 2 7 -2 -4 12 21 10 9 23 11 15 16 19 -8 -1 20 26 -15 -12 24 22 32 -6 -3 -24 -18 28 29 -14 -23 35 -7 -32 -33 -29
right_child=3 5 4 -5 8 6 14 -9 -10 -11 13 -13 27 18 -16 -17 17 -19 -20 -21 -22 30 25 -25 -26 -27 -28 31 -30 -31 33 34 -34 -35 -36 -37
leaf_value=0.47170442548885305 2.4714580980028424 -0.077655142050100254 3.1436093418018238 6.2513760757446288 -0.44184090647204172 -0.17330722312927246 2.5627239949886618 2.257566217694964 2.6022442063960165 2.225176589012146 0.021826869139043463 2.1563194046020508 -0.16419208930119747 1.344674613797987 1.1128985382715861 1.2011294756616864 0.47366045997256323 1.4137291069030762 0.30520479279595453 0.56230769564888694 0.62668187640962147 0.0016740784437760062 0.36070267081260682 0.29630225181579589 0.32102711995442712 0.8074986201319202 0.055979277690251669 -0.2141845333749367 0.096588261922200533 0.011454869863149282 -0.28031551654522235 -0.092902144812620602 -0.01038815424992488 -0.15940472542293488 -0.22412563641866048 -0.14737885628977129
leaf_weight=443 35 2516 37 20 29 25 26 21 22 20 562 20 1190 37 30 56 21 20 37 55 21 23 32 20 33 29 48 3640 21 37 26 52 26 63 21 31
leaf_count=443 35 2516 37 20 29 25 26 21 22 20 562 20 1190 37 30 56 21 20 37 55 21 23 32 20 33 29 48 3640 21 37 26 52 26 63 21 31
internal_value=0 -0.0346746 0.498307 3.84597 1.64984 -0.126471 0.403867 0.382618 1.04248 0.545162 0.350078 0.603695 -0.146045 0.148701 1.78603 0.553564 -0.0489763 0.459646 0.82494 0.0700059 -0.0667806 0.0583258 0.248829 -0.140558 -0.0724937 0.573114 0.1831 -0.197256 -0.153368 -0.158895 -0.141739 -0.211438 -0.0902504 -0.194727 -0.130651 -0.21362
internal_weight=0 9290 1359 55 128 7931 280 1231 91 69 1210 519 7651 691 56 499 2659 89 74 617 2570 224 112 49 2549 61 69 4992 1248 1227 112 3744 51 89 73 3671
internal_count=9345 9290 1359 55 128 7931 280 1231 91 69 1210 519 7651 691 56 499 2659 89 74 617 2570 224 112 49 2549 61 69 4992 1248 1227 112 3744 51 89 73 3671
cat_boundaries=0 2 3 6 7 10
cat_threshold=532864 2164260865 1113 127926272 1547763936 536871696 3111 2416054272 43255810 2986060
is_linear=0
shrinkage=0.01


Tree=28
num_leaves=36
num_cat=3
split_feature=0 25 10 2 10 4 2 0 1 1 4 1 25 26 9 0 0 19 19 2 10 3 0 25 0 0 10 4 0 0 0 26 0 0 1
split_gain=8.07008e+06 4.44397e+06 1.89553e+06 1.78226e+06 1.09174e+06 1.02962e+06 801121 773593 1.32397e+06 430881 489404 586109 416776 286951 266324 218465 209588 172063 155014 114644 112868 81429.2 56427 46206.1 43688.6 72423.3 30319.9 25673.4 16591.6 7154.45 17170.1 4729.05 2836.55 2011.76 1354.17
threshold=960.86250000000007 0 66.112500000000011 96.632500000000022 160.31250000000003 129.39000000000001 1253.9725000000001 96.632500000000022 68.280000000000015 47.808000000000007 217.52000000000004 116.57500000000002 1 2022.5000000000002 64.050000000000011 287.36250000000007 483.75000000000006 223.98000000000002 73.46250000000002 206.55000000000004 331.12500000000006 57.050000000000004 284.92500000000007 2 360.99000000000007 453.00000000000006 379.49000000000007 226.93500000000003 42.190000000000005 169.17500000000004 221.27241000000004 2022.5000000000002 27.198000000000004 42.190000000000005 68.280000000000015
decision_type=2 9 2 2 2 2 2 2 2 2 2 2 9 2 2 2 2 2 2 2 2 2 2 9 2 2 2 2 2 2 2 2 2 2 2
left_child=1 2 6 -2 -4 14 9 12 22 15 11 -11 17 -10 26 18 -17 19 -1 20 -3 -21 29 27 -24 -26 -6 28 -14 31 -31 -9 34 -34 -25
right_child=3 7 4 -5 5 -7 -8 8 13 10 -12 -13 23 -15 -16 16 -18 -19 -20 21 -22 -23 24 32 25 -27 -28 -29 -30 30 -32 -33 33 -35 -36
leaf_value=0.2194887740098152 2.4467435114724299 -0.057799512090489939 3.8236049613952638 6.1888621940612794 1.3998025821504139 2.8774593316275499 2.3706016311645506 -0.032842604867343243 2.5370967479852529 2.1263228302001953 1.941018425822258 0.25991566741241601 -0.15240989676332531 1.1017695420583089 -0.11236893926348004 1.6777560323760623 0.37519410800933839 0.89610973370075231 1.0689406221563167 0.14187145354255798 0.58122443199157714 0.84854340553283691 0.59146500940676094 -0.21228285699995589 -0.31064218362172447 0.42636158053080248 0.89316992159242992 0.16213760729189272 0.10710091629028319 0.15476667146424991 -0.15897930318659001 -0.19522758118649747 -0.092204976414932929 -0.2002089069230216 -0.14590507076632592
leaf_weight=914 35 2149 20 20 21 29 20 29 26 20 32 106 1694 30 28 21 30 20 22 63 28 22 27 3589 24 30 27 27 25 37 33 47 34 35 31
leaf_count=914 35 2149 20 20 21 29 20 29 26 20 32 106 1694 30 28 21 30 20 22 63 28 22 27 3589 24 30 27 27 25 37 33 47 34 35 31
internal_value=0 -0.0343279 0.50808 3.80751 1.68227 1.27439 0.386455 -0.122273 0.391076 0.351798 0.836646 0.556171 -0.141258 1.76817 0.662699 0.274183 0.911543 -0.027229 0.239455 -0.0355133 -0.0495806 0.324775 0.051352 -0.188737 0.263025 0.0988044 1.11482 -0.143011 -0.148636 -0.0660828 0.00685785 -0.133265 -0.209935 -0.14699 -0.211714
internal_weight=0 9290 1290 55 125 105 1165 8000 283 1145 158 126 7717 56 76 987 51 2282 936 2262 2177 85 227 5435 81 54 48 1746 1719 146 70 76 3689 69 3620
internal_count=9345 9290 1290 55 125 105 1165 8000 283 1145 158 126 7717 56 76 987 51 2282 936 2262 2177 85 227 5435 81 54 48 1746 1719 146 70 76 3689 69 3620
cat_boundaries=0 2 5 8
cat_threshold=532864 1 27262976 2365653216 536871440 2516733952 1389627394 2986316
is_linear=0
shrinkage=0.01


Tree=29
num_leaves=43
num_cat=7
split_feature=25 1 4 10 3 24 25 1 3 2 10 10 7 2 3 1 10 6 1 1 2 1 5 25 24 2 19 25 7 6 24 2 6 4 5 3 7 7 1 10 3 5
split_gain=6.51974e+06 2.66245e+06 2.51197e+06 1.65325e+06 1.46189e+06 784334 700791 653323 560996 513472 450183 1.4463e+06 453873 408225 417816 330506 217313 200912 145705 155727 139902 122149 129751 101949 123281 86693.1 79535.4 55458.2 50484.5 40658.6 24471.9 21424 7445.79 6485.75 5830.91 6154.83 3688.41 6604.81 1132.42 432.978 389.455 7.70741
threshold=0 293.06250000000006 66.112500000000011 1064.4750000000001 438.33250000000004 1 2 63.870000000000005 232.70000000000002 85.544000000000025 73.46250000000002 344.82000000000005 417.90600000000001 532.72500000000014 2.6721240000000006 470.16250000000008 96.632500000000022 256.61250000000007 1094.8600000000004 665.43750000000011 387.99000000000007 108.69300000000001 57.780000000000008 3 4 190.53000000000003 230.04300000000003 5 157.50375000000003 310.65000000000003 6 10.775250000000002 458.71125000000006 216.15000000000003 103.77628000000001 177.05000000000004 33.63000000000001 46.144000000000005 68.280000000000015 49.692500000000003 33.63000000000001 177.05000000000004
decision_type=9 2 2 2 2 1 9 2 2 2 2 2 2 2 2 2 2 2 2 2 2 2 2 9 1 2 2 9 2 2 1 2 2 2 2 2 2 2 2 2 2 2
left_child=1 3 15 5 -4 16 7 17 21 10 12 -12 -7 14 -11 -3 25 20 19 -17 23 -9 31 24 -2 28 -25 30 -1 -19 -8 -23 -31 34 35 -32 38 -38 39 40 -29 -36
right_child=6 2 4 -5 -6 9 27 8 -10 13 11 -13 -14 -15 -16 18 -18 29 -20 -21 -22 22 -24 26 -26 -27 -28 36 -30 32 33 -33 -34 -35 41 -37 37 -39 -40 -41 -42 -43
leaf_value=-0.22249127833642693 0.36996395905812585 2.000043386731829 2.1506326624552408 3.2605681630543302 5.4618475556373598 0.39573311508146219 -0.0014040614463187555 1.1039351154509045 2.1532939891815186 2.2789132326299497 3.2724028570001775 -0.44318542790412907 1.8538173398104583 0.3803125185285296 0.59109130859375003 0.74591639227337314 0.84910600515512313 0.88638481998443608 1.2218509607729704 -0.41830084133148193 0.62074281384868013 0.11182782255686247 1.0449158048629761 -0.083469631123209889 -0.088083299001057949 0.39896159362792971 0.55017552328109742 -0.20996575969506523 0.23638815879821778 0.21948110829228942 -0.14788944012569866 0.4009851001290714 0.47126900037129721 0.032162492752075195 -0.25193020327337856 0.028793773651123046 0.018142074823379518 -0.21215909621932291 -0.15265704059600832 -0.25621023082733152 -0.18362026632877818 -0.25988502684093656
leaf_weight=214 110 21 30 21 24 721 138 21 20 44 22 20 22 35 22 27 26 20 23 20 31 104 20 2077 113 30 20 3596 27 23 1390 34 24 20 29 20 20 33 35 20 57 21
leaf_count=214 110 21 30 21 24 721 138 21 20 44 22 20 22 35 22 27 26 20 23 20 31 104 20 2077 113 30 20 3596 27 23 1390 34 24 20 29 20 20 33 35 20 57 21
internal_value=0 0.628838 1.91366 0.479328 3.62228 0.429957 -0.120283 0.014061 0.564876 0.575696 0.495843 1.50308 0.438907 1.25334 1.71631 0.89975 -0.0234041 -0.0312127 0.569661 0.250505 -0.0466008 0.3874 0.292164 -0.0555179 0.14404 -0.107977 -0.0770588 -0.18555 -0.171082 0.50875 -0.133488 0.183069 0.348054 -0.145712 -0.149147 -0.145383 -0.207534 -0.125253 -0.209269 -0.209809 -0.209555 -0.255271
internal_weight=0 1349 145 1204 54 1183 7996 2617 199 886 785 42 743 101 66 91 297 2418 70 47 2351 179 158 2320 223 271 2097 5379 241 67 1618 138 47 1480 1460 1410 3761 53 3708 3673 3653 50
internal_count=9345 1349 145 1204 54 1183 7996 2617 199 886 785 42 743 101 66 91 297 2418 70 47 2351 179 158 2320 223 271 2097 5379 241 67 1618 138 47 1480 1460 1410 3761 53 3708 3673 3653 50
cat_boundaries=0 2 3 6 8 9 12 13
cat_threshold=532864 2147483649 2432 27262976 1560346784 536875536 0 83951616 3492 2516733952 47188034 2982220 4
is_linear=0
shrinkage=0.01


Tree=30
num_leaves=33
num_cat=4
split_feature=0 25 5 0 10 1 0 1 10 0 0 25 10 1 0 0 0 1 8 8 0 25 3 0 0 25 0 1 8 6 1 6
split_gain=8.92822e+06 5.49462e+06 3.77799e+06 1.64435e+06 912459 910386 801435 1.03919e+06 728562 700281 486051 376075 313509 252769 230038 211033 149761 144832 107644 196560 87725.4 48654.8 69218.1 26135.2 49395.7 23064.2 19531.3 16790.6 16399.3 7404.57 4679.78 4005.74
threshold=1219.7885000000003 0 1279.9550000000002 173.94850000000002 96.07050000000001 259.87500000000006 96.632500000000022 68.280000000000015 210.75000000000003 391.73750000000007 282.37500000000006 1 690.66750000000013 98.63000000000001 240.75000000000003 486.41000000000003 13.003400000000001 174.37500000000003 226.95300000000003 262.12000000000006 453.00000000000006 2 362.12500000000006 360.99000000000007 290.03125000000006 3 41.639500000000005 218.97000000000003 458.03625000000005 69.862500000000026 68.280000000000015 66.112500000000011
decision_type=2 9 2 2 2 2 2 2 2 2 2 9 2 2 2 2 2 2 2 2 2 9 2 2 2 9 2 2 2 2 2 2
left_child=1 2 3 4 13 14 11 20 -6 -7 -9 18 -10 16 -5 -16 -1 -15 21 -20 23 27 -23 24 -8 26 31 -3 -21 30 -27 -13
right_child=-2 6 -4 5 8 9 7 10 12 -11 -12 25 -14 17 15 -17 -18 -19 19 28 -22 22 -24 -25 -26 29 -28 -29 -30 -31 -32 -33
leaf_value=0.21946140850535173 5.1979202703996137 0.076368012365541957 4.8918302607536317 0.028983837309337797 2.871823276022206 4.0408158721923826 0.0010941571593284607 2.2082220177650451 0.27177869910285585 1.5720027457343206 0.29893415451049804 -0.14206705631748323 1.623635499888453 1.4985352361769904 1.6756896176092002 0.74585103676869324 0.84449288064241412 0.57527455745118394 1.1707049598693848 0.14284368701097441 0.6106260122101882 -0.079212057024115892 0.36226642661624481 -0.30272316759282891 0.50646351120688704 -0.20798912776507991 0.16942909240722656 -0.21599857330322267 -0.20643333530426028 -0.018602524201075239 -0.086522356569767006 -0.25007380697462295
leaf_weight=921 33 304 20 21 23 20 160 40 42 27 20 744 29 21 46 52 40 89 20 41 29 2631 36 22 22 3604 20 21 20 21 32 36
leaf_count=921 33 304 20 21 23 20 160 40 42 27 20 744 29 21 46 52 40 89 20 41 29 2631 36 22 22 3604 20 21 20 21 32 36
internal_value=0 -0.0128884 0.573619 0.513042 0.380364 1.44419 -0.114762 0.398202 1.32502 2.62256 1.57179 -0.134875 0.823946 0.297453 0.978778 1.18231 0.245477 0.751533 -0.0491545 0.310395 0.0959893 -0.0590526 -0.0729792 0.0228302 0.0621828 -0.193433 -0.137422 0.0557609 0.0283266 -0.205277 -0.20692 -0.147052
internal_weight=0 9174 1351 1331 1165 166 7823 293 94 47 60 7530 71 1071 119 98 961 110 3073 81 233 2992 2667 204 182 4457 800 325 61 3657 3636 780
internal_count=9207 9174 1351 1331 1165 166 7823 293 94 47 60 7530 71 1071 119 98 961 110 3073 81 233 2992 2667 204 182 4457 800 325 61 3657 3636 780
cat_boundaries=0 2 5 7 10
cat_threshold=17310080 16842752 379650048 3691249891 537460756 0 2348810241 2147504128 40896512 2142464
is_linear=0
shrinkage=0.01


Tree=31
num_leaves=33
num_cat=5
split_feature=0 25 5 0 10 1 0 1 10 0 0 25 24 26 10 0 0 1 2 24 0 18 12 0 25 0 26 6 1 6 0 0
split_gain=8.75055e+06 5.38528e+06 3.70281e+06 1.61163e+06 894301 892270 785486 1.01851e+06 714063 686345 476378 368591 333238 648204 307270 225460 206833 168575 133969 111472 87949.8 67881.5 56840 26421 22605.2 19142.6 11127.6 7257.22 4586.66 3926.02 2160.32 756.737
threshold=1219.7885000000003 0 1279.9550000000002 173.94850000000002 96.07050000000001 259.87500000000006 96.632500000000022 68.280000000000015 210.75000000000003 391.73750000000007 282.37500000000006 1 2 2022.5000000000002 690.66750000000013 240.75000000000003 486.41000000000003 98.63000000000001 515.86500000000012 3 330.61600000000004 362.12500000000006 362.12500000000006 169.17500000000004 4 41.639500000000005 2022.5000000000002 69.862500000000026 68.280000000000015 66.112500000000011 166.40250000000003 216.15000000000003
decision_type=2 9 2 2 2 2 2 2 2 2 2 9 1 2 2 2 2 2 2 1 2 2 2 2 9 2 2 2 2 2 2 2
left_child=1 2 3 4 12 15 11 19 -6 -7 -9 18 13 -1 -10 -5 -17 -14 21 26 23 22 -3 -21 25 29 30 28 -26 -13 -8 -28
right_child=-2 6 -4 5 8 9 7 10 14 -11 -12 24 17 -15 -16 16 -18 -19 -20 20 -22 -23 -24 -25 27 -27 31 -29 -30 -31 -32 -33
leaf_value=0.23397927284240724 5.1459410556157437 -0.062132903213434398 4.8429120402336121 0.028693992978050593 2.8431050408404808 4.0004076423645021 0.017042673587799075 2.1861397658586506 0.26906093415759857 1.5562827625981084 0.29594481468200684 -0.14064638431995147 0.18404632034268567 1.8317720949927043 1.6073991315118199 1.6589327081908352 0.73839252508603603 0.61024784947817146 0.69538612206776929 -0.048672496405514805 0.70010413847471542 0.52599356698989863 0.45993651798793245 0.28577265496347465 -0.20590922552589369 0.16773479843139646 -0.23995256543159485 -0.018416501340411961 -0.08565712623298169 -0.24757307105594212 -0.11713125228881836 -0.31832567475058815
leaf_weight=62 33 3008 20 21 23 20 20 40 42 27 20 744 862 43 29 46 52 104 24 44 38 20 21 51 3604 20 28 21 32 36 30 22
leaf_count=62 33 3008 20 21 23 20 20 40 42 27 20 744 862 43 29 46 52 104 24 44 38 20 21 51 3604 20 28 21 32 36 30 22
internal_value=0 -0.0127595 0.567883 0.507912 0.376561 1.42975 -0.113615 0.39422 1.31177 2.59634 1.55607 -0.133526 0.294479 0.811069 0.815706 0.968991 1.17048 0.227576 -0.048663 0.0950294 0.272984 -0.0546793 -0.0585134 0.130872 -0.191498 -0.136048 -0.15359 -0.203225 -0.204851 -0.145581 -0.0634617 -0.274437
internal_weight=0 9174 1351 1331 1165 166 7823 293 94 47 60 7530 1071 105 71 119 98 966 3073 233 133 3049 3029 95 4457 800 100 3657 3636 780 50 50
internal_count=9207 9174 1351 1331 1165 166 7823 293 94 47 60 7530 1071 105 71 119 98 966 3073 233 133 3049 3029 95 4457 800 100 3657 3636 780 50 50
cat_boundaries=0 2 5 6 7 10
cat_threshold=17310080 16842752 379650048 3691249891 537460756 1 920 2147504128 40896512 2142464
is_linear=0
shrinkage=0.01


Tree=32
num_leaves=33
num_cat=6
split_feature=0 25 5 0 10 0 2 10 2 0 24 3 0 25 24 26 10 0 24 2 18 12 3 0 25 0 0 0 0 6 6 4
split_gain=8.57641e+06 5.27811e+06 3.62912e+06 1.57956e+06 876504 769855 703809 699854 495143 637334 484906 420226 437532 361256 326606 635305 301156 279650 165166 131303 66530.6 55708.9 55454.2 42068.9 22155.4 18761.6 9368.16 13617.2 8229.64 7112.8 3847.9 2388.97
threshold=1219.7885000000003 0 1279.9550000000002 173.94850000000002 96.07050000000001 96.632500000000022 326.66250000000008 210.75000000000003 9.775500000000001 299.69250000000005 1 28.484500000000004 223.66250000000002 2 3 2022.5000000000002 690.66750000000013 366.17750000000007 4 515.86500000000012 362.12500000000006 362.12500000000006 67.800000000000011 157.58975000000007 5 41.639500000000005 284.92500000000007 453.00000000000006 218.97000000000003 69.862500000000026 66.112500000000011 35.001570000000008
decision_type=2 9 2 2 2 2 2 2 2 2 1 2 2 9 1 2 2 2 1 2 2 2 2 2 9 2 2 2 2 2 2 2
left_child=1 2 3 4 14 13 8 -6 9 -5 11 12 23 19 15 -1 -9 -14 -16 20 21 -3 26 -7 25 30 28 -28 -12 31 -15 -26
right_child=-2 5 -4 6 7 10 -8 16 -10 -11 22 -13 17 24 18 -17 -18 -19 -20 -21 -22 -23 -24 -25 29 -27 27 -29 -30 -31 -32 -33
